-0.19965184486310328
-0.28276528043598237
-0.19377158051114218
-0.023496010211488727
0.022413304098855003
-0.044796114352160354
0.006336327465930158
0.028869302739916614
0.0018749986541733987
0.09651909258808733
0.010855488505603805
-0.4933935720975418
-0.3990276679966183
-0.09860108610084062
0.2073684311163455
0.03615869728308174
0.043070831122522524
0.059636453225697106
0.13815386756470494
0.043015285131813186
0.05765687318689361
-0.07868526899928474
0.03503724366221306
0.011387544632341262
-0.14387775933029923
-0.07499466992168113
-0.25353900876010227
0.0697215357477119
0.04488069979316278
0.041263248891935334
0.04372408018080254
-0.017554699967576082
0.12727195060580754
0.025269208263404064
-0.0291948337896899
-0.13110510148377363
0.4413573345743864
0.017761153611274727
0.0658067898874698
0.011577894558365665
-0.20881491253005946
0.24817884087954245
-0.08568833499628603
0.045735962322437373
0.027903675776928427
0.0037594973314069025
0.10151694066156014
0.01908234798118924
-0.007934989261657366
0.057193926894057556
-0.0009353707186460225
-0.014643570849365961
-0.16191920667287013
0.23344902358746822
0.20693603731908627
0.02551383628001369
0.05703562141171992
-0.025261050145757524
-0.03882167859259744
-0.2099153348428653
-0.18963583205522316
0.3596344372270921
1.423108483078701
0.016030761283030492
-0.05935714565165229
0.002052533114417554
0.011105441400284133
0.045807344290875185
0.03882564720079873
0.07314788869125166
0.040171834883154345
0.03154365585009611
-0.14204589024640102
-0.18535591017849873
-0.015189451285894218
0.003627139119917522
0.04362792440599883
-0.04409065615125407
-0.03543173351502027
-0.05358353477473354
0.020574019556956147
-0.015274884743590178
0.5899011744765459
0.060043493642745416
-0.3021328197236296
-0.07732711451122243
-0.037332203069057046
-0.006255929702639107
-0.07540915343191323
0.16345070962613617
-0.03787212217570324
-0.0306388897452321
0.45549613306502934
-0.12856190269273116
-0.29633750574652806
-0.28162601043274194
-0.23649707719223745
-0.2927858480820745
0.10514146009367131
0.00039256738460657914
-0.16015695497516158
-0.28043560792002786
-0.09493964737591876
-0.10431076815771867
-0.36889795930232017
0.04671406062562533
0.2458895038856379
-0.05601942808415217
-0.011559889617573038
-0.26109793805656434
-0.06686483462150306
-0.41227144475770244
0.014752086512070828
0.08771418552847898
0.11215733847488374
0.03743550167196963
0.10299725742116439
0.047606105423279255
-0.02720211718560206
-0.22487705689085802
-0.3502063457403799
-0.1117644922977088
0.29518523498106264
-0.07991040846415443
0.048358636530682286
0.00766813974984526
-0.04830126215625241
0.05203521833089775
0.078673646113397
0.026705706654988615
0.14828861952163064
0.051942474097915525
-0.16470827114484654
-0.09078254722306456
0.05206504826611025
0.05912982281665302
0.03982314040554169
0.034360947011388254
0.07165065612863242
0.0358408707816934
0.09235385383055938
0.06630820284980421
-0.034660829820130634
0.26822858940962946
-0.010837889330287287
-0.16012378082103607
0.5579760926192066
0.12537624545008375
-0.0006215032192270487
-0.2748668721957346
-0.11457011608807632
-0.16994108395148655
0.2149610874291361
0.822857846283954
0.3623631806908765
0.02364962919216107
-0.04362433815309896
-0.04210427536467254
0.13865634496174506
-0.13419910046022476
-0.24720315990712693
-0.2534641837618836
-0.13154409031775138
-0.1201592274090193
0.011646126547206315
0.07359913893592385
-0.03414155030443222
0.018930021833936772
-0.1957811749551257
-0.07832442078066404
-0.013434025802757321
0.05071695495043399
-0.016271877297657028
0.033343888027143276
0.03192368019338243
0.052444627509378616
0.020358148202816118
0.08129745954117462
0.006000650644544248
0.06949787690856812
0.03364002729451554
0.004491773119540632
0.028199086966421705
-0.138507797830691
-0.04401055974822243
0.03866255299148691
-0.04269804992010129
-0.05678609677648894
0.026794032742351925
0.013129635917628557
0.013504978866227924
0.05772026106219208
0.03176447660398424
0.05953256579163224
0.010111525184604675
0.048812719975052155
0.05442642153671484
0.06659440419997609
0.02663803447233576
0.04406878130629355
0.012367280970054795
0.037407072534790586
-0.015626057655333092
0.007748851114593003
-0.025285867098021386
-0.2393599732776398
-0.02182586630491601
-0.023836389322640428
0.054324429486249604
0.054888572682686654
0.0643339023117494
0.021105219981320533
0.04172849266911238
-0.08747681953010922
0.020700379621790832
-0.04254383279020546
0.04172110363002357
-0.12399886188527987
-0.05661367323958921
-0.10896321079843163
0.10602842799787093
0.18842455893598187
0.08647345193270106
-0.15796911422213517
0.059080962338947385
0.04952752503132829
0.06348102242276943
0.057261773986148956
0.02001613164401539
0.055237003145592434
-0.020906811459654895
-0.03834549996918535
-0.05799746369547265
0.044650247274128585
0.1786232713027982
0.039100509247448234
0.03216404514552518
-0.0449061849277953
0.028319942967456213
-0.3461534168439643
-0.3694090674449113
0.13356416113834713
0.048599134484867856
-0.05769471274087645
0.07222816629602624
0.15908543366479622
-0.06370440157230728
0.1529166183059094
-0.010029265822833588
-0.049828367528983675
-0.04679530910953544
0.05108945763383543
-0.05415827427274422
-0.18888645529096926
0.02120525162479192
-0.015184698778734407
0.058392771650748965
0.008070848183384882
0.033055464361630316
0.030286128730286854
-0.05732730432531952
-0.05470072291370953
-0.1361086662030564
-0.00506841391052637
0.02699813286929964
0.05284695733815847
0.05058668269179556
-0.6792667266412376
-1.0478774032312084
-1.0157672673445994
0.04628477698815581
-0.06650271397111918
-0.10133908122029855
0.012008031011809028
-0.0020965891534192593
-0.04743105212725074
-0.08699448671777965
1.829046958427801
0.1566859861121772
0.009089792650994521
0.04292459160537765
0.11186546374027018
0.09159701448310531
-0.22321549415588915
0.19031607789419014
0.09248559680506219
0.05163493235907085
0.14957059700962283
0.05176768535099263
0.1487873566657949
0.03693197190113995
0.29978244607467475
0.7213023262965637
0.06000222303512448
-0.15410400074169872
-0.31959826673113334
-0.2481794343746735
-0.24734660677787346
-0.1465369698180049
