0.18362427857865526
-0.5336568960057839
-0.08486280161040272
-0.15476901317118363
-0.5175378286308712
-0.050945475024718245
-0.31635461940649545
-0.2817910615300381
-0.1812089394727705
-0.1984784372732129
-0.03810313899346163
-0.016199283745970128
-0.1538619784246551
-0.1760325664374207
-0.24192515410894067
0.2356252551652216
-0.05713564151151873
-0.005440043911519643
0.047736937177643046
-0.21284910296156712
0.21205660265477766
0.13716207116364898
-0.1416352154669358
0.16415035318494153
0.15064527534715688
0.023949745062277428
-0.06723783178576004
0.11413305649656746
-0.060207143039751165
0.019969595125196027
0.01550110767725088
-0.05724277008523515
0.13094229162287752
-0.030359058975530484
0.02241511904102439
-0.02931473347471597
0.007856140179079318
0.051298579736973826
-0.03261718937589653
0.03935342985991258
0.022008840618531644
0.02564012476288402
0.06588232652880888
0.07716466888177109
-0.017522047491096204
0.005085066042463171
-0.02957319286341198
0.002442347587326421
0.07507283684457783
0.08232160980164727
0.057672307845597404
-0.010938756990510945
0.047021829928832304
-0.005276568900110135
0.1081007966017844
0.14748240725569794
0.11194909279247889
0.05229629327067775
0.020173839242284552
0.004181294538350033
-0.14604559167361453
-0.45418862227903783
-0.24844067341384724
-0.00608659553487656
-0.05143465226369637
-0.08044446673485628
-0.03278007235719538
-0.020068131104571618
0.020307759639872414
0.36719784920840626
0.20075159442166912
0.37671959292908164
0.018682317344446808
0.052259740626842355
-0.015811983808074803
0.07961027023354017
0.09050165725178172
0.0732160030583523
0.01980172565821392
0.11349037527689554
0.055939919843643215
0.04343625842924648
0.20539397428419193
-0.018531873090304796
0.01934960517425044
0.03783957469203908
0.027737776706936168
0.00260351108707374
0.06038453268495225
0.0017647532497915286
0.1019895792421266
-0.019758051079407535
0.28693040708311557
0.1006765194021515
0.21387185545190102
0.10217798166769265
0.015174224810359682
0.029357619794178502
0.07093934295398707
0.09243834356883107
0.07461195138542498
-0.004358730342350792
0.06399438377407174
-0.042292162904564945
-0.052149721101866886
0.44111524499227306
0.011597713977069546
0.02032140946470684
0.0024253659828752383
-0.21916541754344965
-0.06024851910032314
0.04180811998810008
-0.09826296875818818
0.029460771936539287
-0.1508828779805298
0.24904668022099963
0.7105424202772637
0.10164672498695171
-0.0514291426802147
0.020262493184889707
-0.04824179548188878
0.127261949947855
-0.05161692397669193
-0.43020715120600506
-0.1971225580397632
-0.07620432123258591
0.03581371578186787
-0.008083007848495916
0.08657392745754333
-0.012493346198761968
-0.02629007559719354
-0.18977461693775755
0.004071510487021923
-0.11972813423762718
-0.1913868219914665
-0.08372985070727246
-0.23701977229712073
-0.5509785888382598
-0.08720728808765232
0.02724167689194279
0.016797861331300457
-0.0158707597490666
0.13368796136431893
0.05070917092614524
0.009900527696154793
0.023720448699671937
0.03412393850376405
0.07414618393367678
0.07686762353165189
0.003447078713957552
-0.010943918868977887
-0.23227549024174898
0.006620767072865519
0.1124105392730419
-0.0872347702156151
0.08740772555166565
-0.19814010973716
0.1578779935614909
-0.011121996920935795
-0.0098328009681391
0.07892104969812941
0.09188966971722201
0.0033380596390277795
-0.016285833454860232
-0.09028819327515991
0.005649128016539384
0.10748520592982458
0.35392174766133233
0.12704677066499426
0.030905426446837803
-0.08676588840233046
0.019487207730813694
0.15260136740952412
-0.018987460251696286
0.016602746997544937
0.15199231736035534
0.08220944153934617
0.00665557035310993
-0.2085345686600928
-0.16443867739717066
-0.12087022026856964
0.4929249923647614
0.15931289905473967
-0.23018932209623166
0.4869177636999291
0.7559208034085474
0.41750364338086277
0.06243519253880703
0.16379816876718456
-0.11626683953133754
-0.007140911863405375
0.08064858070909375
0.05416401892084732
0.3306512892765401
-0.11040403949809696
0.046158161824846444
0.050558045735360935
0.04069685818080215
0.0735375307467242
0.04607645849982639
0.13627704494354764
-0.056717008558725746
-0.10493987863577825
0.07841518405150716
-0.014677122954574795
0.014111600972175398
0.053000997819024676
0.1871166311202037
-0.15711034524681233
0.021520457659558345
-0.4513538991251602
-0.2367680993920675
0.29601884975536263
0.015159771526159438
0.24277312395283523
-0.14548320198483422
0.19712989737792697
-0.1617123575111714
-0.21676673724902873
-0.39381707673541255
0.259057172875349
0.08069112491057373
0.3553922652067063
-0.0066709953029557845
0.00816310455821101
0.0451089389009629
-0.017292874209558995
0.08374640854786852
0.015538377382339041
0.031980559622461824
-0.02761565411637712
0.04402683062227686
0.04827741063629126
0.04758344568759665
0.028565892482080524
-0.04909421777609446
0.033345975619618384
-0.0003732721754696744
-0.01695338176257688
0.008000477583875454
-0.030170295807523395
0.23810358542824206
0.20360847413542826
0.22583356648367392
0.11184111057399382
-0.04889757466311462
0.3170960816330326
0.13558469624046654
0.1317467495524045
-0.12166501559756249
0.09756491215193153
-0.06002080473729943
0.2920048110861957
-0.1393418169641809
0.057566259591530944
0.11356977455579864
0.05451359961533253
0.03801073340806527
-0.06304979247764197
-0.04239360443221929
0.04508008153325982
-0.03650412006653048
0.03827198686123073
0.04874253080725871
0.04816976452856425
0.0355244093603404
0.041281970751687824
-0.11323517370154834
-0.031404744496108195
-0.5315731293534542
-0.4460547578559564
0.0581665925159508
0.02481651950704722
0.04686426720277792
0.043075142326554405
0.3109099825648802
0.13988672184686202
-0.15229200994909498
0.36754586787221566
0.6778972816559048
0.39681033565945034
0.09220596744455234
0.01810319250207687
0.02501185343941703
-0.023782687261797997
0.014879783072982877
-0.061901233312335324
0.0642734321921351
0.047741558410875296
0.06606479010954602
0.039055562679634837
0.0496771463931488
0.0650510773820443
0.03319218229301785
0.05282613051110285
0.051690695155088506
0.06669637828385055
0.002323440483398387
-0.04031556262943847
-0.09270768559035425
0.010683955030569736
-0.0027145383103638343
-0.0875979466058695
0.09442092478493724
-0.028807909352025263
-0.019643717532149108
-0.2225100350889473
-0.30898318668965286
0.0017183458746410363
0.09439157398729048
-0.1097549310717969
-0.1363507862306017
-0.41786496963137054
-0.5554237690239632
0.0385943929430308
-0.05087130884190061
-0.18611766417364595
-0.060969485388968625
0.4750046217164754
-1.1038586043945595
0.6161951484090162
-0.13816508234252467
0.12799650035077192
-0.07508845975278367
-0.016598040029686234
-0.4453180199757378
-0.05596634317485716
-0.019791665261494118
-0.025461867170195607
-0.022652962997874004
0.05182625900857696
-0.023528205503591026
0.005763780963660148
-0.028402460151233044
0.06347616002258127
0.03703021966153741
-0.02327518068538681
0.023413410794999034
0.040526419864946095
-0.004174528710472747
-0.0027402153578555133
0.03601106789017272
-0.021267079297783265
0.07596102904499136
0.02953258538538933
0.044010118157906286
0.0019982956035050625
0.01367843556140752
0.025382383537035202
0.024590374101092716
-0.028084398789547327
-0.002877796970157831
-0.001398155030908177
0.024297137822056558
0.05864207340702954
0.08396244040229472
0.07888260429291716
0.03879699624644273
0.017778816805907982
0.03729863328476041
0.05515028083282242
-0.017497353554845607
0.0627426109939987
0.054263618204448694
0.029080262318193384
-0.04163985727125663
-0.0008895275041598261
0.004305656018157467
0.03096276381048224
0.00802111167655295
0.08484768153724176
-0.04658001588358762
-0.1256091103537531
-0.02708154088737791
-0.731178259479482
0.4100049344004817
-0.3669397020518619
-0.0321135105289323
-0.11981702087365731
-0.6252567769951115
-0.3320889422402079
0.03966093981529384
0.23110094485784716
0.23339360868096826
0.0037853936530911625
0.05430668388125398
-0.08347920422253019
0.03580993966609314
-0.1894367151370342
0.20728099958142188
0.0034498805287868084
0.09014596244818379
0.02606536793217379
0.016119329040706287
0.05242489570635189
-0.005522378430857344
-0.03986837315233649
0.017124499068329024
-0.053203938125172545
0.016329938760703766
-0.035242553831084766
0.08719951165515227
0.03793276583620542
-0.13536816252703643
0.04709842319119517
0.03273159446318297
0.02414244837462154
-0.12778765779651335
-0.26080403993325585
-0.011856404367992512
0.02749423234463577
-0.022707424750530003
0.01973822075214371
-0.01464112770678827
0.03228005531430039
-0.07907253627859356
-0.16663940866031957
-0.02155115721457368
-0.06098600252772535
-0.06181997943366091
0.17423259563819737
0.375964658349083
-0.4434957029653952
0.4591903959175134
0.19558710144233782
-0.34957329493355116
0.3037963153602208
1.0387955842311793
-0.6519446872631601
-0.1771129513173113
-0.3756824595102779
0.06528509003800331
-0.04923026878744641
-0.16447276382975695
-0.06755856821699202
0.08784463516322649
0.016775636314595666
-0.0632737296993372
0.16513490828814525
0.07332955967835464
0.06857944926922621
-0.32385804555455344
-0.14761417932876963
-0.1382644553102611
0.06571226632899874
0.04309647741839362
-0.139759843606873
0.06754646732732972
0.018074316449385508
0.10644918984724638
-0.08285977720892934
0.05738729763203965
-0.1150714603016354
-0.08336960762672163
0.02518985501582427
0.2141536466979812
0.08161978301763928
0.23166833366931017
0.1136880216415519
0.6041580010632983
0.0008958269063779056
-0.0895331127008876
0.07889420938367908
0.022772819874596006
0.024543639248308047
-0.027591384832043486
-0.15585925566848502
-0.01788085843105458
0.051311362396637916
0.08904730232820568
-0.03568522057334955
0.25038364187837314
-0.47087816815611294
-0.4014596476769734
-0.3706334758907035
-0.013440667715662324
-0.20898513333262358
-0.3202136600706502
-0.2758160336051545
-0.21053348768571145
-0.043646376477952664
-0.1935487705059673
-0.2863662293944611
-0.37379807440276513
-0.25425966375971054
-0.19373889163094704
-0.3902146594455971
-0.2216190844784256
0.044051032516791766
0.11253214874877648
-0.6512645970107632
-0.06140917221958575
-0.03001745608982964
0.029203240277925646
0.14971157560618775
0.01546070038315528
0.09362042531558279
0.15032378758951248
0.11434157037932235
-0.013306496772602705
-0.0044313998454804104
0.022933684394900622
-0.20010115898874448
-0.481520181442483
-0.2635639764223672
0.1386150132103432
-0.42734070546924774
0.01529315842331136
-0.18357793283540724
-0.10609870207906913
-0.25501353219177203
-0.4131466944925326
-0.4586554395872682
-0.3746288645461915
0.19013103212739058
-0.336641198648163
-0.04726278101270864
-0.10824212384557352
0.5770407017649513
-0.1312144661704433
-0.20350783870318367
-0.09575449229797572
-0.09480853694955982
-0.09854084471521274
-0.17886569737757574
0.042548420083220906
-0.2904556733783097
-0.6876525165694849
0.012690474734425417
0.01306594163626662
-0.0403763560348569
0.038260355613346286
0.14610099036597335
0.10373091021802039
0.46755798023114625
-0.08576499432068774
0.013432848809917353
0.08422756052400371
0.2606490667757366
0.5562934566909976
-0.0030717774994173386
-0.009941737790628291
0.06362815990297821
0.041474061986219724
-0.14249202197831023
-0.034402718925546694
-0.0740952157040482
0.07164434233894146
-0.25967534365090805
0.04086583472741456
0.053458956909442135
-0.07251523134221394
-0.5619876670718664
-0.1696670674672882
-0.10456257481098463
-0.44935414929210005
1.5532302666797593
0.12834013117509713
-0.11647670730561488
0.032614510299467936
-0.0442834820316228
-0.10756847118387303
-0.09981223129364847
-0.1883261809210235
0.05756576008415637
-0.47764489409097977
-0.09504100971978002
-0.03940056468417441
0.04943872811845729
0.03167468430272635
0.04354676053658696
0.08401708646280259
0.08573199093232775
0.250392562269397
-0.01214524098095876
-0.01720099070520631
0.009578310927795597
0.009490813384492092
0.023113340694605577
0.5000845556855023
0.004077133355950391
-0.030360447836691895
0.05761571955168965
0.027704239410649145
-0.07417005420133616
0.0909228816873412
0.07227741405017707
0.06745999281365017
0.007457061007689447
0.04316139651402079
0.043771560340690074
0.020230194071656937
0.1961122266723374
-0.04383167193843884
0.08456037524789828
0.4560277301363467
1.031816128889953
-0.2391576980025274
-0.4004501144860777
0.12685242889487958
-0.2690067671829479
-0.4869018833412522
-0.1471641819309628
0.22571808620939304
-0.4693435803690602
-0.40988813788951406
-0.3234855926908371
-0.19728040080179732
-0.4790154313130649
-0.6108830526258818
-0.048885221840490045
0.16983090563748715
-0.22154762342252865
0.05835453602343277
-0.2513057810543282
-0.09943279977646124
0.31230536286913546
0.5116857173435561
0.27353778424542075
0.06468103408945636
0.02544739579490063
0.8126928694389282
0.1797573148456666
-0.03367516163185735
0.646544967079357
-0.4683092443971002
0.3918236029603568
-0.06321460910398624
0.017640295974326037
-0.030757752407182926
0.08206302583991287
-0.04323624847973839
0.0026673935329027954
0.07636861696003938
-0.008746743240719446
0.010934252358579588
0.06460514154919417
0.08335058005793017
-0.04405255728442259
-0.01568340473534402
0.01864539001076504
-0.007561015198694898
-0.13028131507181362
0.052581394203509046
0.05061561872891662
-0.06760591817713635
0.1342116430156538
0.16488939977073902
0.14183821360494497
-0.048844750877362175
0.028662746778736592
0.02827898996276268
-0.012005082393876765
0.09113250711599497
0.05848880504579301
0.06824746927429226
-0.10664149457801608
0.06931227684789243
0.056131748950369875
0.15046545747225593
0.016187534293737316
0.18284326608662993
0.3398878762036317
0.16315994206015483
0.03814632441144611
0.06844370804424549
-0.015205273872051395
-0.01115785513351969
-0.005183587621435892
-0.10724554045691381
-0.2537798267753558
-0.18431781066848973
-0.46253891688144244
0.0655166346814341
0.027084765023760893
0.05969844060481777
-0.21025453739108046
0.02333925100000056
0.11756314334612183
-0.04802003885869377
-0.1351601192784142
-0.08712725489672968
-0.019927815625667922
0.043663313707128615
0.03485253567785168
0.12329459040319835
0.17663037070949272
0.03119134404136148
-0.0074096272202570646
0.19421418896943177
0.02351925702671709
-0.07655843776830196
0.07826966092769527
0.017293055404366653
-0.012469894049109032
0.017194539026658018
0.023223492399033485
0.05901273725305428
0.13746284562930433
-0.002593736180556916
0.1172164300802171
-0.03917402258923863
-0.013959689214430027
0.03630852104975735
0.1164786832059479
0.02775509719607383
0.11682721667709828
0.03924815514317026
0.012843426256102797
0.012186633625518417
0.061811531890592075
0.06576382312261453
-0.004666118842504119
0.10414288080846978
0.19434794472380468
0.043014547584875995
0.08730358603093813
0.08420458498948491
-0.002346036199489754
0.06228160396841209
0.06459902269493495
0.04424580611300377
0.07447125571447794
0.0600969985908017
0.01610512234228112
0.15446491547604368
-0.03416376959788037
-0.1653432695871363
-0.011197008246279339
0.07461993186453098
0.04296773010545851
0.008436815678895926
0.004949075707897155
0.016019690548033594
0.0658470426477098
0.6287106022225628
0.10683083905970792
0.06770248612475704
-0.07234666592164574
0.08333690045564324
-0.023895541320126945
-0.06037477010162262
-0.008558980195076504
-0.16740283594230587
-0.2239993589512479
-0.2285230325703278
0.10873816258481606
0.6716862556385959
0.6884407161190658
-0.021140719495713833
-0.07807519341455094
0.022994877472689357
-0.02530727384411191
-0.01908059449351729
-0.00039280311463008033
0.014180079651634148
0.0474620270888626
-0.07741110478065583
0.12710740902881268
0.024473297263044147
-0.13546785927546656
-0.5828572496647849
-0.4575823023942622
0.06743686087344192
-0.22480035200861948
-0.14986196164093757
-0.23410571123890955
-0.1019065131710235
0.1488796121970375
-0.014374984230345333
0.03200431810262949
0.07372267161958512
-0.21751171204261976
-0.16676254634839927
-0.301948832428518
-0.07260501809053066
-0.013541977132145666
-0.1980340665234861
0.23234833475711403
-0.12138087308627288
0.3139479743527209
0.9309947081278684
0.06230090485418638
0.3767566097802546
0.2717767973276164
-0.21600588235864449
-0.038941309092586085
-0.1247341280672179
0.11550098306270673
0.08147371413937665
0.03916948292137595
-0.05493529449839463
-0.007594774617130262
0.017971837691967196
-0.04097688034702607
-0.02397103106396825
-0.056718127792592665
-0.13988876405096273
-0.15699096017803293
-0.19883319793811238
-0.027062775574381748
0.007373024311647658
-0.3820722742875673
0.1333942749865562
0.24758987082826467
-1.4827162370653748
0.12556213052652498
0.3600207503415125
0.03307274785899028
-0.379970388496893
-0.2281075663813117
-0.3915571150163075
-0.6172031401329947
-0.10906087669172271
-0.4157642005204911
-0.4899558888082818
-0.1870815128612482
-0.2962610077583667
-0.08519495766784613
-0.021979738272424276
-0.27008635474314047
-0.20562073871418196
-0.16546843623327123
0.21824917227212826
-0.04076243118773393
-0.10567012779036622
-0.3629247678970975
-0.12742602751075216
-0.1610112795745935
-0.11769396702394941
0.4309335996691743
0.0356189179444914
-0.04346030834368031
-0.015783791676679204
-0.0534132306160956
0.0034517725313281122
-0.23265745346318023
-0.028839304245717567
-0.005907457621400658
0.08671033086869206
0.06270219674289201
-0.0002643870189381614
0.08484091564952534
0.015551941167328609
-0.016534587170518367
-0.021063221139193844
0.000397678132772028
-0.19237671677024737
-0.022167667082862275
-0.024186650357898576
0.16427979256534586
0.0037934857614611017
0.10245713686040059
-0.2076214211425813
-0.043740303618905685
-0.5940546981516885
0.32454704064282813
-0.11264972034269549
-0.11987245278964587
-0.10417204488501064
-0.07139650072310078
-0.016959103510197693
0.032771808051302864
-0.02901860004414747
0.03219094418947688
-0.07220311184253203
0.15910601675750358
-0.12093665162460177
0.016963778115740347
0.02407459615872609
0.04129188775381065
0.019054565081697006
0.04538968820429656
0.04267403892818172
0.04101747553126389
0.05762760261459099
-0.30708215357172575
-0.16917217823238978
-0.13091376714983566
-0.0030270427478877315
0.06230515379288015
-0.0008360974220582573
0.031241864477162373
0.020762912584397164
0.04640079104069106
0.04890968306325438
0.000521717835233193
0.0942520165262507
0.04413370785751758
0.07401647268995737
0.054888205731897344
0.07939769126316532
0.10768075372389874
0.06729722006156802
0.07092313884471291
-0.14181132883540215
0.20051816123208344
0.07238730949025685
0.12095064472521622
-0.058197704384101545
0.030774984389660198
-0.0014236862558172358
0.03802281490946635
0.039857263974274526
0.0636121169476801
0.12647102886389328
0.08227442241966465
0.01529471690815587
0.04601981508532982
-0.03034409528079285
0.04549342715877869
0.033728850976653235
0.033364502008024044
0.06912864781352213
0.04505623550122517
0.08729723023853875
0.00931977409195317
0.004316148066368375
-0.00864968807537686
0.05581489675714052
0.07812170290704135
0.032001918340820557
0.07661544062527403
0.03486212772363029
-0.16694949033737827
-0.038269059584550846
0.01338651070318675
0.021480715835768827
-0.09091185820539072
-0.052243827695936274
0.40800201925543744
0.44964005944478913
-0.024904298417678827
-0.1777245925367401
-0.24932326796664483
-0.3884077560223749
-0.15333713375386393
0.005446754298511047
-0.026245348205351737
-0.09954248509230701
0.005411036995705831
0.003637895480510467
-0.009806818985326649
-0.12374103659113223
0.12493302396408712
-0.009978050947120676
-0.008531308158840178
-0.026336388400742927
-0.008645216908511888
0.039249982344153334
-0.2564369303822588
-0.20132404022946437
0.013220118856130503
0.017171537443282814
0.04516309574947819
0.005635483095478122
-0.2104575049677867
0.07555095459516847
-0.02385930547551407
-0.050720771410658116
0.02767545814926975
0.026718478140832447
-0.006430388762914352
-0.01754721509713919
0.008622000174232647
-0.0028422526841992424
0.00707573824800678
0.056173771039264686
-0.030310847740850688
-0.008853254195594906
0.09778226152772618
0.04478445054680502
0.013410057914621243
0.07424417025078223
-0.02841635212063376
0.03876757439080669
0.0824693263355401
0.06880729044784556
0.050568868546424894
0.0225348723094298
-0.026103620432425312
0.040909158722609695
0.11542194599334066
0.06004232363362383
0.0894436559417493
0.06777271136730956
0.11304470859214155
-0.014923482497802953
-0.008215301900132976
-0.0029765948768035733
0.023323452917502152
0.04972813586422231
0.04918698143237521
0.009413865830275647
-0.0043590078232894625
-0.007857802662842472
0.11887276929757196
0.02786274907299513
0.025590576939843457
-0.013845732150264412
-0.04953523584500952
0.0012914793303299144
0.017732594448802153
0.13307263189566454
0.06628130154185718
0.17086205139964405
0.035166266897572185
0.0947719899644398
0.036064643356983506
0.05671083379628861
0.10167881763083031
0.010525898750661511
0.0212023650987902
-0.028092079964433636
0.06704236254844886
0.03907932462708075
-0.024131082439661777
0.08754520282457767
0.031142962359200888
-0.008921363793423454
0.025549838134150737
-0.014398893342713048
-0.005786172535722889
-0.07384209705320177
-0.06014209661755743
0.5013672972265386
-0.020572561166340098
-0.1016630859098846
-0.10721949260898844
0.05775364568944097
0.02164083781916426
0.010193226621200036
0.051910720105929564
-0.07942632978162723
-0.20191964960409958
0.006907463173688233
-0.0511319328739645
-0.04403609153080695
-0.03192874591911904
-0.015300666196861601
0.011307542179422647
0.005421596350335123
-0.09918984404574072
0.005753854230687971
-0.018833846821135647
0.07548183994448732
-0.010012660230388382
-0.018243219512682596
0.04687581676089986
-0.452755366354915
-0.7048148422654329
-0.217812080216287
0.034854984517118937
0.012233541615769061
-0.08641744575246879
-0.010159504062146052
0.03184194450033184
0.014831022505417013
0.035304690918390835
0.09334327325743264
0.042228480696030135
-0.061787322533428
-0.05252475433555559
0.004015011234994037
0.05571448502695331
0.10175363707694551
-0.06698172684054438
0.11582162479578617
0.023956855910679087
0.026206425975778436
0.082964323658402
0.011145745629553672
0.037542201360452665
0.1178957270210278
0.027048881228986743
0.09363220581485077
0.06570746697873753
0.03634299530135576
-0.004294848314458366
0.04173689039675965
0.12742762507116223
0.04323982500743584
-0.028977773934776185
0.017462400411504042
0.07211343903199863
0.06173718714100529
0.059516062633164446
0.07551080789469611
0.09309730000932503
0.01273941055279093
0.047209497400570344
0.04831239237853324
-0.04030800834738213
-0.27884180552475835
0.01829481940901423
-0.09566812008875614
0.11156738304055058
0.19184470251109675
0.023592785044153963
-0.023436967069365378
-0.010507356368503085
0.05909835329320279
0.05332304934408583
-0.16516817421682273
-0.06513697196241353
0.00031000084828003427
-0.05627757273035672
0.0532087468809635
0.008694000870943519
-0.011290945230224836
0.005300133939133644
0.11776278307499477
-0.12796247772071645
0.08370957127337642
0.02469295760941348
-0.12092093911974588
-0.005755942468891551
1.2020836244253785
0.07344489462930581
-0.08512511186306759
-0.010038134067380078
-0.11015064434315414
-0.0021057231985727176
0.01826201751253076
-0.06491998077434202
-0.17760250585206405
-0.12440724737507702
0.019904979630844144
-0.05846562170225422
0.028678960316096513
-0.06554396581016375
-0.195381796533331
0.05530827443446151
0.3038153008123152
0.789244958045177
0.049142965950676354
0.23692074311534705
0.1885572331728227
0.38644709951778955
0.1260247108951793
0.2893977542987509
0.01172490110673996
0.0013736859461997986
0.14875994917765756
-0.04354247543638856
0.08377348670091711
0.05901940711968878
-0.6345387306628756
-0.4534155772974652
0.04399144716340686
0.062452266951027346
-0.021578207423709805
0.06296236474665462
0.08559159010434025
0.07829104230954742
0.009101149455666646
0.042954956008195766
0.05044354577534482
0.06715208098307657
0.027065366068484475
0.06923195662084392
0.09717476849517959
0.09379574703070825
-0.025539330445843
0.010539550960796451
0.052627632936691815
0.04323560567080592
0.03199391582519223
0.12376603031055777
0.06783706386889166
0.041916588772691776
-0.0004450624431503458
-0.125192795542164
0.11729737164500953
-0.030933936845999543
0.021633487133118412
0.0442184095518906
0.027693275184278554
0.026491718235740203
0.014825629685111752
0.0607989711800665
0.0968442611633401
0.014840150680355046
0.12819900546644736
0.008616768744350689
-0.06136761019435233
0.007701537957233717
-0.02708003025690564
0.02157728039964346
0.04891223485511975
0.00910159310015346
0.03073905870486726
-0.05743184736330864
-0.02511603862556866
-0.11519412164045706
0.03317639668072114
-0.0019374814870132262
-0.037981658146825525
-0.22448063158572085
-0.05626827902135911
0.0788245269224922
0.09886973460305337
0.07228907587694167
-0.019483986599151626
1.255927102170785
0.3944616512167034
-0.22190328740356868
-0.5310070051362041
-0.2668188307368231
0.08772209223448657
0.025762975367048968
0.03275429933275281
-0.014579851296964597
0.06903730125286178
0.04039719266964947
0.09264602331499683
-0.025263902178126685
0.04033161578849753
0.2066786534085927
0.04891383154715678
0.15123601741277204
0.053301307436528944
0.0771889464411517
-0.04878223058394904
0.030958331327985533
-0.06533010726249411
-0.018451305752533287
0.0007326440163648584
-0.10346030905998005
0.034843398652086965
-0.04175275353715846
0.0036183246192068586
0.04757934382407358
-0.30338464095120043
-0.2308526343414372
-0.5628725479891652
-0.5957154579923988
-0.21867407016701734
-0.21256275597587448
-0.4189250145501253
-0.2063824032070588
-0.299022642035361
-0.35991356504032934
-0.4862717823365401
0.12298708701393846
0.02146198310239722
0.02013423346326143
0.035369530734153
0.059185935002041945
0.01656162734176514
0.09045813946385906
0.024413725435244116
0.08962926974639807
0.047117224023589865
0.03480774419678512
-0.14105382061186944
-0.5105419820811008
0.032734105047122264
-0.13800457370201213
0.044523831359418065
0.039562110466098255
0.06308078146135421
0.10216076208759622
0.08352944861758982
0.07196823337767866
0.025258628376542414
0.09875863966095233
0.09478728925742308
0.06527604792139802
0.15724125578520454
0.09636393900695328
0.055740890186816605
0.02239347072645914
-0.056344705204929846
0.03282313779325119
-0.24478641566065784
-0.10175175888137722
0.22753315699061671
0.0696257092699657
-0.01884392842335869
0.12047494592396535
0.22272373418952318
-0.06942858401386953
0.11681045241560617
0.04494081614355938
0.012707082750501142
0.10295835003756793
-0.031019431183376245
-0.041745599527870825
-0.3893807810710228
0.0900671180871051
-0.41070833442794896
-0.1540688255101338
0.004004608543131616
0.05385000350251934
-0.09793099853265785
0.0804223266728834
0.2137583838508843
0.0593161636047117
0.11417535890383435
-0.06035761751347257
-0.086856543886354
-0.033241379945533445
-0.010478566618246199
0.08838220821658038
0.07206773035230118
-0.051903042638270835
-0.16643186748399397
-0.6203693124373669
-0.2093807224443891
-0.07667579845342098
0.019117772354470597
-0.043277777743528034
-0.043781762581568184
-0.004292985621185297
0.0360394525865243
0.10288255032132587
0.031225043756490045
0.08995221921946972
-0.0503042616417918
0.045226512715904166
-0.06348677805747283
0.02292795310456852
0.05084285639949948
0.013486440860807913
0.012356247538718612
0.0013689174520585823
0.060303661904644035
0.04661666994478525
-0.040436225440394935
0.03156744358977137
0.04038082039180002
0.020507995284714642
-0.032321431542288837
0.012418114066601094
-0.05965029230824492
0.07344818642118478
0.030014175763122708
0.038132659238476196
0.028851718670523885
0.0353264570078653
0.0776831096251191
0.02157526277132671
0.03376518064857065
0.024197704594215552
-0.08917064110726403
-0.0960255318533988
0.0353160446920151
-0.04989530772546891
-0.05646136854020822
0.012554263687006295
0.01961358464388685
0.0004773252739572742
-0.1837958774380284
-0.07796789203925181
-0.02341291727551964
-0.2641605643564291
0.10138184269426986
-0.2505206765399315
0.36183080666362244
-0.0021247166647033744
0.0472342925743664
0.0029139972579697027
-0.12190696074727991
0.011442609466686016
0.0646065850428198
0.013074116565453986
0.1301153180449227
0.04360735608697419
-0.07827573278338262
0.05397537455790502
0.04187177840295164
0.03267440559531415
0.0005764965145224066
0.10911679424185816
0.04782602539116487
0.01439979330528951
0.16108362555606814
-0.15406138206001052
0.014282567311095895
0.2060976715135635
0.19229210017226195
-0.15974768882726115
-0.3648536576130404
-0.6572302376948933
-0.9935428902490383
-0.9921970158556024
-0.9851825050736019
-0.993876039332005
-0.14070978872262974
0.15257160945490156
0.04042621934690349
0.04695164913143257
-0.019340772896438763
0.030379791003169343
-0.031752641428469564
0.014104813180046305
-0.03166130946006174
0.026470279009910835
-0.06385314799591157
-0.08352445769513306
-0.009549097679562912
-0.1220248804294981
0.010157067751215942
-0.04489507320478059
-0.028220510861213022
0.0337320540240893
0.04639132812262614
0.025329693861933567
-0.04541442836794418
-0.058217203884999735
-0.08812125355008571
-0.004545838728171603
-0.014367075100369497
0.14502676541500814
0.056057561077810125
-0.016663718459903443
0.0692239087274551
0.14528288691407898
0.010281835825648233
0.0747677049197435
-0.41823554293787124
-0.3367254355099947
-0.07724464471492398
0.053966722409828805
0.0226980937428225
0.046620843561054226
1.9118103758335812
0.1195198777840969
0.07260749609546258
0.055846350397659617
0.3571240813277532
0.01723017098610602
0.04827961187326546
-0.021609750221355806
0.07466657397580734
0.043270202238372635
0.00236298332191609
0.10841912444615642
-0.11825360864083623
0.11602781139895813
0.09009160081066725
0.11822291185939371
0.050914758130872984
0.032981433423204365
0.026604596322839957
0.13931389567867014
0.17298534993977732
-0.007697670938741186
0.07079336345375209
0.10046646761063638
0.08663477994445024
0.34304967932281794
0.08983330924791666
0.0002522714796469039
0.17546311064824083
-0.15182890212314581
-0.849546773494499
-0.3847379149908187
0.14073116850716705
0.14683608751419985
0.4794597001794727
0.21936705922952981
0.262283002987173
0.1243642036157313
0.12893820700834102
0.04874762215576278
0.12834489174039476
0.08892313188679962
0.17458211150396108
0.09290916635865143
0.006886729071076958
0.008200668639415432
0.07701533445154751
0.03057855350302957
0.03315641910310041
0.07254697274755428
0.17049534075327377
0.2514786439471879
0.1261667327515128
0.1798401901676988
0.21550155866285536
0.18188945532543366
0.13549370637385383
0.1357803458624689
-0.005024306306581905
0.02473684224905548
0.04613980771337067
0.0808761927046413
0.05834980787019228
0.11567409255331629
0.17976331119671352
0.3601787402108234
0.06465988685221802
0.0583102370480274
0.051667964428052326
0.05515848035458559
-0.0017103722551248257
0.1171185162389079
0.029583571640098394
0.07430462110553127
0.13441074877505332
0.24165438523243798
0.6414942906214041
0.39268855448476003
0.7801137163146148
0.28844142448271715
0.03773767698594055
0.10537006550851324
-0.2503677472486121
-0.1507535816153014
-0.23806547642519083
-0.21078853119200147
-0.030342005755025103
-0.01370155007432916
-0.08707407581665971
-0.2307992181702344
-0.19808946254321014
-0.12688333574614197
-0.2264515715484109
-0.3046554162998576
-0.30887125378667557
-0.31634131728025716
-0.2990773194103259
-0.33808124847782534
-0.35221796525951016
-0.2983354665601632
0.8374139613495861
