-0.24124367435683602
-0.2614711123966864
-0.14480646342183556
-0.03739624694762389
0.018794076888235534
-0.00667732221675732
0.006697208642454655
-0.013170718034320128
0.029364806040099056
0.03598268508954772
-0.45172181827755487
-0.36181913114261377
0.016385502992513956
0.10158325809305158
0.03956429508767645
0.10801253542179401
0.2795487010739357
0.10201098373142226
0.14160098206029925
-0.04018872065160539
0.005189602794671844
0.009400432325053831
-0.1026964210479514
-0.12606423218027119
-0.1529406598632529
0.11162084228057167
0.07057841594412773
0.046802093650155197
-0.008953768952043029
0.07636512537715912
0.056161040508859617
-0.030765887222761634
-0.19814244470264386
0.40249529217607183
0.07605391474716083
0.04419974306613894
0.14952178999994437
-0.21206332297720343
-0.16221246286263025
0.16779007007878155
0.015654329589780636
0.00646165876482635
0.12707174661509035
0.038973378027425065
0.0043513267154062785
0.06528257557849249
0.0017251532646183065
-0.11006494116853383
-0.006271173896263527
0.2900392644793317
-0.003328577061133431
0.03277891521259002
0.037711487244681985
-0.031162846795897203
-0.17550795057112012
-0.2282360376882404
0.31346382059072697
1.2892785005525598
0.03200630682461314
-0.01278123746536275
-0.007247414504528593
0.05384222141624495
-0.01133642760998227
0.04760195930262723
0.04525972568650333
0.02353523904789423
-0.061619997704226215
-0.20491174476542995
0.08285703555403423
0.00936800115057046
0.025907505631257766
-0.04052825546585603
-0.08139533539278254
0.002158659237849747
-0.020678589716416118
0.07567742006394385
0.020859859039051853
-0.24511921068028597
0.03408127179289988
-0.033985993304839424
-0.02421354318085378
-0.0008556816153204583
0.08068154423707985
0.012328478753933059
0.03430718559160417
-0.17287001915040046
-0.3004632003878194
-0.1498845306768084
-0.4111801500206044
-0.06515570316581587
0.15822251906656426
-0.18313701517260617
-0.20636312359788533
0.07096047057736676
-0.09275219664553136
-0.10980581287234648
-0.27848715512990907
0.04186311449210134
0.2303365104913131
-0.07689616355290796
-0.22725967542635583
1.3722458556727286
-0.06414705937113652
-0.3776307013488893
0.036156689574358136
0.08838880063905707
0.09584105762724215
0.06080276098559956
0.15618387328501715
-0.1264513267724512
-0.1456953916337378
-0.2921138602951253
0.03141511486908799
0.19646532932999605
-0.5647625033112325
0.056190272178952005
0.01100909185436949
0.005430473285544357
0.06005522316778511
0.037378408690598164
0.04880215494585771
0.1412662376998024
-0.1857145016631575
-0.026521390185207272
0.005978447830804812
0.08611759997417079
0.0444427777651184
0.031041890715425846
0.04629654569607966
0.046450935893593615
0.048420370259940226
0.03309907812022017
0.023176130915866233
0.17738398467398864
-0.11261136826618912
0.10231525039377676
0.13469689857510936
0.0077758478165218525
-0.21450614611684615
-0.07133401604970269
-0.1418873775590419
0.2475509511015055
0.3479835395279982
0.023827077790110895
-0.0939142332415781
0.01143962300291168
-0.11188180019034122
-0.24832350489261867
-0.23489539089858358
-0.2032865718633441
-0.00017356015937464164
0.004166164920425763
0.1180670045846981
-0.04978360410100924
-0.03887918865244133
-0.11043414687491926
-0.017345087885506483
0.043684763075597766
-0.038466790815734064
-0.012243421219723272
0.03040594862827173
0.08932938235664523
0.03184708435806449
0.05890053446983612
0.03551584394928442
0.03573603528611069
0.008881589775094678
0.0819065119961282
-0.0819114847868625
-0.03702563066510722
0.03948571786293176
-0.042442972112617716
-0.03534436397089746
0.003910516147512533
0.015998814166054975
0.034412764677750673
0.026295607611405092
0.045159902852552225
0.0056081723000588335
0.03721985230411978
0.050975842912034164
0.057072621559349224
0.01964814454477848
0.006282156387932836
0.4454704089788981
0.06803292014002538
-0.020413951141752373
0.012391637588529125
-0.0800049170578534
-0.17331360252634082
0.004421192001950458
-0.0035075737800728257
0.033501131358492364
0.035396648638855
0.02719108355773503
0.03880280811727488
-0.07374628239582504
0.0038171164209971353
-0.0068561367217486735
-0.041778475118146696
-0.07687859864049917
-0.03478111165197806
-0.07426045904077427
0.16321047293889812
0.22225293790134515
-0.060236715717093214
-0.04085714761550302
0.026126896604276806
0.058225047254742424
0.05522951677363963
0.006729630974522505
0.037304156304009406
-0.01625558458827392
-0.030949575919427375
-0.05094496109901547
-0.022211678794782808
0.2273628870794897
0.03425127756045343
0.06094553268956504
-0.026043234557282746
-0.06069684550234822
-0.3804996741895601
0.028951024544471737
0.046280331901220995
0.0019087126859731463
0.05536703716690028
0.16160716523614793
-0.06214181565642263
0.14747057960828225
-0.01248976126077217
-0.0879741300951209
0.09370843201004053
-0.017401326872422018
-0.17950596828517662
-0.031223869655018888
0.003639438222986402
0.03552006651294526
0.022263249389025463
0.012742731865513002
0.020478241401055863
-0.049191634933584694
0.059055584805097316
-0.31310737791260923
0.010448006730815917
0.018269694873448872
0.14962497779246242
-0.045925745161687015
-0.9775238101846964
-1.0345178641966022
-0.34694480643641745
-0.026655856311981974
-0.08848427529799285
0.026060632936303674
-0.003343779157815252
-0.08492948336791217
-0.09379171909964024
1.8408203957375449
0.1595348692721663
-0.008331004542450726
0.05645032345533063
0.09680726187466937
-0.08502421863407017
0.12394308644975593
0.10478262852529963
0.021602746985913412
0.14854883347182157
0.06758149585505235
0.14257763660663536
0.040386998575619115
0.3353685995987554
0.044069537385527324
-0.1591987856759426
-0.2676976956549557
-0.31589515806228635
-0.32528870797671516
-0.036656650571952276
