-0.17096672383146538
-0.221073517216281
-0.04260726712484919
-0.02344634585605143
-0.005673709999776344
0.0038953220431738877
0.0257978492148625
0.037328624890085926
-0.4705319533242242
-0.2391968197063411
0.10690983155968836
-0.0016969661788351909
0.10150531030130305
0.1707659893233
0.0009664374643376661
0.002067541542496887
-0.03847877943250544
-0.11521553025976128
-0.10330243149996388
-0.2272622291137537
0.08860854864579604
0.04415367799824321
0.014677917396769047
0.0094111141670159
-0.0033598792067408567
0.020445999685680505
0.32306199742183006
0.0649925942642422
0.03114550791078352
-0.16387713840825235
-0.04388501262966571
0.08675140762982503
0.013987819128424062
0.10196458012802867
-0.015034693401949406
0.6603717423702311
-0.0013624528076818798
0.006328606824954286
-0.15780746944372837
0.24704942701000232
0.0037925896008127458
0.06404439958142827
-0.05959624087837001
-0.17776916159185796
-0.15241857728468622
1.0873912612062462
-0.09961929923527402
-0.04330228250123547
0.03762748307417241
0.0550160486088247
0.07845453147593567
0.010727456782678835
0.055397509493053
-0.24430114753020005
0.03546183337713382
0.059393916324384954
-0.07400701558274458
-0.09419969981279275
0.0016103385177782537
0.14831884975047682
-0.10824822605713735
-0.15631110230783618
-0.05374635021072338
-0.047737900099873554
0.012068175738639386
-0.044021748637640634
0.016432122738091248
-0.15000145770923146
-0.339207234839241
-0.1645950960631174
-0.15130831515680299
0.07504786502383598
-0.23789785867458457
-0.33921020812549907
-0.04786110477033856
-0.3137244730859059
-0.00444479353904037
0.1830458224727276
-0.07909822459387095
-0.2276453745675191
-0.10354029303604928
-0.31283400880916457
0.05852078764144253
0.025909129804928543
0.08353748657754623
0.005943683701462588
0.030960836515016688
-0.27236838171171107
-0.02178219914193802
0.23711323252415317
-0.5641684272526659
0.04126853435948541
-0.04833304822941886
0.00210641835692138
0.047593527188384166
0.04458187400397651
-0.010062047967697496
-0.13629890488947283
-0.05213549707585041
0.029931581132764506
0.04321276540227437
0.02981408070693592
0.02500789229851408
0.07912875400644187
-0.03288932714582915
0.1587031488264239
-0.08406608806717286
0.22039730761217147
0.07549295961553892
-0.20036133054597294
-0.11235158172363224
-0.15067331112197668
0.33621288982881703
0.29773965305148464
-0.003994207651197679
-0.07977863714485633
2.5009421526717066
-0.22326130567696445
-0.2510241424031838
-0.15395250090360424
-0.055046145245280176
-0.007495164502809848
-0.008968578802175386
-0.05684343930555713
-0.16195034695205335
-0.06535399073295434
0.07194470653382234
0.06305507955310946
0.030275623498242865
0.05833442908912567
0.01428620031670691
0.011899462880450296
0.057934433734918134
-0.01614641662547156
-0.03397027503274508
0.04018491586636852
-0.02894443014313497
-0.025479257102752784
-0.014909913890742033
0.024415391564610645
0.007179390536851127
0.02842110472023507
0.056191976720429415
0.015227695918436368
0.05158878594611238
0.06071191723899916
0.030012529203423233
0.0345383238988034
0.040585300758967824
-0.0012884155416175158
-0.05387144080689665
-0.21623695254885672
-0.034107127077781185
0.040513731339391734
0.049396806371093005
0.03541137845603082
0.026166341941093796
-0.0329302324520675
-0.031247130091216158
0.018868760216404157
-0.07343393227657247
-0.10527441765335688
-0.11550919876790378
0.22957129091973583
-0.05376192237457367
-0.011692279961306062
0.0415893540834843
0.07170874182897602
-0.02383846498357145
0.03034688383308093
-0.04183040939812699
-0.10694228043404697
0.019378096562788105
0.24350399262982947
0.040381431553541236
-0.02457826464953239
-0.09684413524391677
-0.4027229470775051
0.12045019312629623
0.07931488286529964
0.034814898191681265
0.1329015513339864
-0.05060408997082133
0.017203119653933285
-0.11069360825250829
0.039288247382322394
-0.12505478039176487
-0.1327492395921347
-0.026029147632465888
0.05030149608432488
-0.02772371782756944
0.03316844001384395
-0.09882657978222409
0.14577937061544155
0.0044664253614539184
0.017343755121818294
0.06420964620477121
-0.8872283191445994
-1.0805282781291496
-0.11311646713508194
-0.09662965831954373
-0.0025697198352068185
-0.033981563792220504
0.02617476403456731
-0.031146915889784577
1.806199232462598
0.08201502516234727
0.029547443970777687
0.07329500266150535
-0.09747733383388446
0.08138082955129744
0.07943307256013876
0.09370535321904228
0.06137067689053877
0.0989625024505697
0.05921027219015318
0.43608607267116906
-0.03972805050619621
-0.24976920077367393
-0.2115141808949519
-0.14567749361887009
0.06080980978353018
