-0.160614893904794
-0.23917231747077894
-0.18316725330044203
-0.03482696273042829
0.1004034783074037
-0.012714951540136132
-0.010629994262934206
-0.004237087138316165
0.01591854436718998
0.015322395624555396
0.08969635626691408
0.029895274103453495
-0.46533642469472936
-0.12713934522024373
0.1917570585817876
0.05022636766577249
0.026987561903496493
0.11130419577103623
0.029935797269102338
0.13636119614058306
0.04751314843206755
0.09874776658751694
-0.05619484485668558
0.003353990459247891
0.03207563556227511
-0.14995347237417966
-0.0664853957722229
-0.15500298045398797
-0.12665200294914924
0.0710802623338671
-0.02764629085639969
-0.013999558197016704
0.08527158239437771
-0.01813403758372234
0.14169003043071893
0.04353902342287319
-0.03706200067962473
0.10581915157682431
0.5037423081892061
0.024009834781308026
0.04224891357861005
0.019369620025351475
0.12912567484616955
-0.25811919569600583
-0.023467275190169445
0.043574662599963565
0.008192693735045387
0.035430957408236874
-0.02052178801885618
0.13569372423943804
0.08563275120264913
-0.05726799669362004
0.05520090148078305
-0.016486143146667187
0.022213693526353717
-0.2270470480400073
0.1539915877274809
0.34446026303732236
-0.01648973001433518
0.03688786175156333
0.04555075224828958
-0.03398403789399884
-0.05050967710190846
-0.13436720993480766
-0.23026227660983634
0.10769901805801751
1.5626780149240411
0.00193251046031373
-0.05327849268178908
-0.011165228330464405
-0.018178656455654085
0.05118725795341894
0.0008020211738304917
0.03000197209929245
0.019237887405288923
0.03292898184595938
0.016222102470715982
-0.09433210040974638
-0.13295952273465517
-0.11641849295878459
-0.025638445629463602
0.06899667543187105
-0.0005728523788887108
-0.03413089317463003
-0.08557246475706504
0.06430298267579737
-0.02409624561192958
0.16963651706585425
0.14126418632150628
0.14408858053689833
-0.3843438072823356
-0.08100505562373606
0.03486772092126522
-0.07404305047935134
0.0007293723503113414
-0.0203272845810214
0.14077956742759867
-0.023380907888401303
0.0618197643431988
-0.06909956261473083
-0.25932754857511586
-0.3216527447177333
-0.07143549944867655
-0.02462798664011312
0.18888853047711196
-0.1253555160209614
-0.20176156834115022
-0.38558712251655347
-0.04529775629954802
-0.11031508702114956
-0.3596441574703064
0.0038568886402015057
0.10913603807362104
0.2279142642831533
-0.12847395868893274
0.041872793048804535
-0.18780907716282869
-0.05517637612001314
-0.3561746260423384
-0.10477177945941196
0.10034289827223852
0.16876041808335374
-0.002606288459324979
0.06829978603706677
0.12217705539873847
0.3971419912956389
0.09770663521753953
-0.2950916884217727
-0.4946262681189042
-0.09205869741706763
0.165152695642778
0.308912163152093
-0.5274497190889729
0.08174478970906862
0.03665380943413721
-0.005948375337156309
-0.0286715987889008
0.0955456142715978
0.04049818907724467
0.009375493179812011
0.22127404661915917
-0.031820309979079475
-0.11601880556860289
-0.07903163150606518
0.040004141393158776
0.11779563484918087
0.017237620563633538
0.05822177855070898
0.019070829664617373
0.03802653705868475
0.04543916655714497
0.04767335547492246
0.06877751353535122
-0.053365913429805345
0.283535049887488
-0.0033039298928344563
-0.16334830174385395
0.1981554470024136
0.16095073018565764
-0.020042954871354657
-0.21251664768248324
-0.10917704786829918
-0.036190184292488325
-0.09781122729704084
0.32957751155056325
0.39357787977741965
0.0009520613357967833
-0.026920321692456617
-0.15452463909784453
-0.08309303754421205
-0.09123484810890248
-0.318023181769321
-0.22229929834238993
-0.08938940686007735
-0.21069612258598358
0.3830981315767481
0.0012369757878971654
0.04922324577265336
-0.013024749779356748
-0.023131080766981893
-0.14767215256705146
-0.014800494714695578
-0.049557013312398035
0.046065457129923826
0.031554709005081394
-0.06948851955385499
0.01873557864810249
0.0258383376698349
0.10548653310609901
0.058961972480956915
0.05259721882856816
0.03002449477113034
0.052585704049311066
0.026272516422515935
0.02393145317823142
0.013730882886921036
0.352542722298804
-0.09839210865656156
-0.07584910784792043
0.014841213801735531
-0.015389445124697643
-0.016161248659447347
-0.050007784933633836
0.010176977001478016
-0.005322935814314977
0.029188934820115198
0.039480681341087065
0.021314071237738652
0.04532696455234575
0.010028692218340907
0.03313528137713506
0.00856700546514333
0.0648566797246044
0.02346138713229723
0.03299293086770594
0.021177897793452694
0.1538238698871579
0.0916233116354026
-0.021685045233401756
-0.035795145965125064
-0.03806601493474171
-0.24790693531160657
-0.0653773167701327
0.019648095639431595
-0.02999926581635426
0.04206594447157619
0.039704583600931764
0.04406949396537263
0.008306668067700196
0.03834450346585172
-0.0503581101546009
0.06449766448121963
-0.028100818789585258
0.025001329459988453
-0.024672448938141578
-0.03797163668128212
-0.03368943631347299
-0.09836519511022845
-0.07157545177333746
0.2846886331688965
0.2805333043707956
-0.08181291975553828
-0.05942511547734419
0.032833037312361424
0.047126296451351024
0.03954324411939836
0.05137538877480696
0.020445432281217313
0.023306323785905636
-0.0168630671099248
-0.008530210808095129
-0.039652426502208016
-0.007166297691090229
0.0003698107552385643
0.14862154886403633
0.014303103461208
0.04125482768569855
0.01988551893584034
-0.0027167417909927938
-0.08165911860839514
-0.40764794759641476
-0.18317995683769106
0.022903753299950758
0.06604340021141575
-0.006870988648872922
0.05463949164009385
0.11665840722049603
0.01859593450134933
0.005366148048404518
0.06601953818870276
-0.04568166573554788
-0.0046846922595102924
-0.09429384452451073
0.08356528467248481
-0.02020896569092212
-0.2565513719136483
-0.02368206039838605
0.01891437653857997
0.007085849634668295
0.04741067109001951
-0.016818192364472684
0.0387291558162971
0.022984868031800665
-0.05764598841606727
-0.07884935693808282
-0.010487806061041383
-0.02697139724380826
0.033426203194815485
0.03622221676719228
0.06957059368908425
-0.17387378073611892
-1.031762193167964
-1.0347986444269772
-0.6311768039620391
-0.012564589315100183
-0.05686545167837287
-0.08243067052145214
0.029227191861503576
-0.012492269121510802
0.0739309343953447
-0.13504740862887354
-0.012570344355159246
1.8557933379090477
0.17586563847450387
0.001848911455434532
0.04663613900538888
0.14057428655065451
0.10572357221536133
-0.17590994499122925
0.09999523814956535
0.12667625797090154
0.056604971355003086
0.06710563718760931
0.15550273220754263
0.04744177991763143
0.15601437027146337
0.011780013792069943
0.12281833258365615
0.4835446071252649
0.10896488668777438
-0.14596909394843294
-0.3001211726845432
-0.2849065953385163
-0.285793842100328
-0.018891918510355488
