-0.12366836149559113
-0.31894045870017385
-0.16455525563335094
-0.13922453454859474
-0.08351603950021813
0.04927304641710517
0.06863321632347952
-0.04851522387828733
0.01290530063326778
0.008395865747999443
0.03522289489008357
-0.03509153598126824
0.037937448996136935
0.1685156651315287
0.019896426402189582
-0.5019989055228675
-0.3927921233632049
-0.3098448369761187
-0.07693020384685978
0.27053505260709554
0.045657812539406484
0.05447563585204118
0.04505847021789744
0.018396470279238852
0.031492708960043636
0.16282935782754993
0.05991928778316924
0.025090622784686656
0.11029828373774198
-0.05592828212564127
-0.015750392102537925
0.6735821725396585
-0.009996612928107274
-0.1256166558498064
-0.012236927122077468
-0.08059327184901599
-0.17442312051124198
-0.14010761660251925
0.12906330392346022
0.05204346976903085
0.08591686245920604
-0.012041796725474896
0.09675397089174465
-0.024782255097767658
0.11897345671035886
0.05688168453309772
0.04184914181175414
-0.14330722341547952
0.2511890146421685
0.663579727151292
-0.024409094395616338
0.10442329761620905
0.05867583750109051
0.002119655878368265
0.159286145146756
-0.3785986732395891
0.14708272173838255
-0.19793172535055747
0.1432384602239436
0.015137905151013875
0.01990461231096108
0.008021347070257756
0.004727448121629396
0.16054176874228343
0.09760997602414823
0.006710132343434427
0.054432912888944474
-0.01851954751397611
0.0049484898628949225
-0.0034136485484786983
-0.25518649706327146
0.10207945862230994
0.2477119515421815
0.2662566017231991
-0.022677464375547074
0.033696740800459646
0.0333389805748418
-0.0020965749164870706
-0.022970412133586415
-0.15137001041327003
-0.06644910535382986
-0.22495419696076868
0.047720527069671004
1.3019326469622445
0.6008589871253613
-0.1548972108575537
-0.02417715003082832
-0.0019328045536025629
-0.009333506676249215
0.061449347760455075
0.013584365912405805
-0.020167457307895098
0.03741468274822968
0.017165525247010982
0.035114070592291324
0.02075397541653401
0.05999778545167467
-0.10542547251008783
-0.15047302379761351
-0.2810098942013197
0.21366993000117906
-0.023504639261212712
0.030493373643702526
0.017870081726225062
-0.02282131683727706
-0.010319654340081308
-0.11627543335388801
0.006362047364867562
-0.014148244515543862
0.08242931674179421
0.1404326536760867
0.3144555814730454
-0.5654433853018485
-0.14116640461052854
-0.03412802307800167
0.08454266340265604
-0.035704241886701404
-0.006838708003989891
-0.06531422509605478
0.10670789587950757
0.14296238473242218
0.03726857367775627
-0.004466297488326831
0.06035863532353836
-0.09271822702377763
-0.28813868830101064
-0.26617620609972636
-0.2461546610750296
-0.14461370760999082
-0.1306692118373537
0.12796109377859777
0.02906085782359724
-0.1867030349838994
-0.16156066970519256
-0.254378434853054
0.12733253095404606
-0.02246225603366625
-0.13098907396572845
-0.1139050843566336
-0.37116648871289204
0.022991130063372944
0.07970456455902442
0.3538182998572479
-0.03888228566603691
-0.030996200128877494
-0.14476106815594214
-0.23684593455471692
-0.023054641042843826
-0.10010200211627363
-0.525978288946487
0.027750773423073416
0.11883601932035803
0.06180967528631254
0.1783743636890196
0.02811482054490999
0.027343913144326715
0.13165074169741864
0.3915636788357748
0.0933927192057542
-0.2200308533402211
-0.15323046905820492
-0.4647867702414428
-0.10466095240894258
0.1969387726959977
0.25113163329120214
0.02042362535571085
0.10621505404661202
0.09423372674845898
0.009985716242051357
-0.03843418311609792
-0.02619607784269473
0.12153051805845827
0.03428240157948681
0.03107536573132541
0.1062139223552494
0.20585751363866178
0.031594633443577935
-0.22282027027532836
-0.034945272453067
-0.05486655625114378
0.0815491390535108
0.14684502603631344
0.013718574620449564
0.02378014202091827
0.03791388499770121
0.04568425852588798
0.03140891409830371
0.03110898613976565
0.0903787220259703
0.03892821528620838
0.0778143137232673
-0.0589830933983454
0.007776988525512563
0.2661013166210042
-0.022800798588653026
-0.18448898537765612
0.17843790238046697
0.19322680221128952
-0.03160215082095086
-0.003849333953723777
-0.25511954484405097
-0.20540860672413097
0.028705436618157387
-0.1965136582253093
0.045072217631171974
0.3083531516799143
0.45686861763287423
-0.008027950249334892
-0.01884195806250827
-0.04978858110926032
-0.13090987688575484
-0.10286687661228022
0.008437054671398103
-0.41371668164988606
-0.24003532209996026
-0.19866893155430398
-0.025911779760382725
-0.2271760753001275
0.07484038469669985
-0.026983468257386067
-0.09764129600518356
0.0428773167406834
-0.024868705341864028
-0.01015663247080667
-0.054329488252472746
-0.12459039529231664
-0.06015157861305587
-0.0053351612437804175
0.03145834239437684
0.018233176493991476
-0.09863815939446458
-0.028253020645827964
0.027474131752308395
0.03366343440067021
0.0911694897612122
0.10261344108559767
-0.0004642551747968682
0.0698199358747087
0.014614029489405711
0.05214032611556507
0.04589371403086773
0.030513948562781446
-0.013093560992079478
0.050780939381305235
0.36564512524634774
-0.01975611585398518
-0.022003672846778954
-0.033756790611281784
0.0497468783802798
-0.017967553852341445
-0.010931026864307025
-0.12287148151389271
0.030491798269153603
-0.01026183553839255
0.0005659293042727942
0.028296120761864163
0.041389818225270214
0.011695844959970947
0.056930003906054516
0.040479365371905995
0.010026463793963769
0.018945211047130317
0.03585784952604315
0.03242794162089713
0.08121117216618134
0.037684020531720486
0.009847868382314884
0.01752404643924793
-0.04194540112805312
0.4642230897985753
0.08093088786863922
-0.002654076091072266
-0.03483593459850215
-0.011546205041401414
-0.03490315533974875
-0.12318236710973846
-0.22552363710019696
-0.027900456427882858
0.009044415225471836
-0.0018917192098750757
0.03902490948618642
0.043126155522315024
0.04542388239479345
0.04094136080705335
0.01132898671070226
0.04772551367427569
0.02914309034526974
0.021430592436375795
0.059976346307691886
-0.06538452996739286
0.0064910310618045974
-0.0060812941671331
-0.07970713774914184
-0.06975020742769877
-0.05634538492988128
-0.03838935380873565
0.060863152612916194
0.2946403804010971
0.27016270177796775
0.062159845328913166
-0.2546633756604489
0.03697799466888596
0.028179543661034256
0.046011346376114814
0.05964651533989551
0.05668721438350882
0.02736994700860662
0.003333208940070942
0.03038069867299442
0.006717683808121655
0.007060991359979618
-0.0068397215589193205
-0.023250554269781953
-0.04687308115183986
0.01685783619641046
-0.08768277752560083
0.01238036345194432
0.04304076476513197
0.08433144925676062
0.0021164691748859488
-0.010486516333359841
0.01204934771577304
-0.3860476948512473
-0.2971649991860944
-0.1670427188453243
0.016580926527738626
0.03656639103944814
0.008408120360945404
0.005733167334438849
0.06262139387117682
0.05642053377156536
0.0682037158546891
-0.09054072488077136
0.15658182595789427
0.07292876603547027
-0.036899062749192746
-0.010529655858949827
-0.04950426863538926
0.14196819992316168
-0.010967629715639804
0.018442429666552962
-0.27608500924151014
-0.037699222339770744
0.023106740530841274
-0.010093032913010891
0.02623668305896243
0.051425208584203075
0.008673529996119811
-0.007115704803775769
0.028963506712863518
0.011104092068467797
-0.05182477320806378
-0.05083969852570225
0.14714346017338809
-0.2031286745792853
-0.0426727461441595
0.047428433654737034
0.0006193331111123968
0.04091054486019574
-0.010207323067661145
-0.05215723253727533
-0.9321528459243626
-1.021163843062534
-1.021430230776331
-0.518048469051835
0.008831955973263472
-0.028810175615173628
-0.0871978337544872
-0.041603509398138616
-0.0009314730100407065
-0.00677195129356889
0.0721189069086936
-0.16670118650968613
0.004794100343530783
1.868437838632735
0.24247189075193298
0.019065262868329325
-0.0023851664392718908
0.07638147772358816
0.17815614137859304
0.057342678011189196
0.14782865258856748
-0.33734227146736445
0.26456941219932406
0.09170986517963375
0.06952934503440428
0.016691601913553233
0.1437937968127755
0.15365818593968528
0.04319578881595032
0.09098895438282006
0.10357162454570057
0.0329470965730263
0.3093910719465547
0.40561890229487085
0.19057430432301548
-0.16153631897643939
-0.1576321680988878
-0.3331352824217358
-0.3184452279473072
-0.3168103285156744
-0.23009224789731733
