-0.16562916384445536
-0.1532797317864345
-0.3101410019938151
-0.3068363784937964
-0.22755465744804093
-0.06963751377791283
-0.20625309795271507
-0.04542619923826052
-0.05806460743133801
-0.10644681183733806
0.1317675911901095
-0.025463172330779882
0.07520894106757503
-0.01840938757566546
-0.04330492474829806
-0.03618909607730181
0.03572693422612083
0.00964839227344455
0.06350139992339077
0.022984766402928458
0.04416721203614821
0.06471683069213141
-0.01566078669159554
-0.028009218822287574
0.09722771698057153
0.0610765615503433
0.05775175023128892
0.09076655984749094
0.05447119784794241
-0.0034515035868681876
-0.41185623406613314
-0.5645017776845231
-0.31634753800313997
-0.16779887486250555
-0.09626714715211704
-0.05978886215801116
0.17505391373513568
0.2590945700804035
0.09666730292162806
0.004569500713278329
0.07816675642376048
0.05798024536315238
0.02739373204240292
0.07041828733790001
0.05800936791549449
0.06625814703240307
0.07505988846115913
0.060253020398445045
0.15124430227461216
0.1527733901572379
-0.007811892280999544
0.11179378390300798
0.032619602485705945
0.0034351499957527842
0.21314127704647134
-0.014776986866505304
-0.13282035748677734
-0.012485862642739654
-0.05404977612407447
0.02858604909362139
0.6760088619769469
0.008127120609121796
-0.039842483760594405
0.04546948402036777
-0.33840493513602654
-0.02088696874033258
0.02394156957118665
-0.03615305393587165
-0.12188493507130405
-0.17718652891878572
-0.1675880172857327
-0.315544051737825
-0.010215376927146469
0.043721578529108296
0.06252306862852702
0.06720759347046068
0.06869584532675133
0.02196698758947624
-0.0478254265716922
0.015436367132803275
-0.03599562021050895
0.1671415067182893
0.03732808056351855
0.040807277951481535
-0.07494392206617162
0.02529072597083659
0.2015396776266103
0.011946959882726538
0.10594969889696959
-0.027496578378300773
0.12009688447088007
-0.1402842382346312
-0.15120207318325218
0.2867743175160591
-0.029212648984196843
0.6073618610604448
0.10035442707812325
-0.09422781742945663
0.04343171756110764
0.07846767876123639
0.07315880993779511
0.08674999955638896
0.10256078993161344
-0.11001034194901693
0.06294713461634227
0.04425763984108433
-0.023651665807441935
-0.2223546736407822
-0.4973664054402134
0.13993217160259241
0.0070094979343753305
0.011263087001996297
-0.3385736734511813
0.13615668645890167
0.14491563168926147
0.04113160652479675
0.03873570272446436
0.04617894327209443
-0.009487279949005112
0.07860365443441958
-0.007703081006440682
0.041122367119635905
-0.013479566177762137
0.07144598606081853
0.17466881149718505
0.004479898881916133
0.19433563334505521
-0.01938403960933388
0.03270913335079828
0.055161264914290076
0.05871261533704142
0.034258537589243465
-0.05105273011104694
0.02552361762353539
0.059814696799183886
0.033366068559403494
-0.013135035662864891
-0.2887473498939647
-0.18845889976382973
0.045876695021294656
0.18801864954885827
-0.045019692524754795
0.546344211261161
0.4059561141235666
0.052980877626494505
-0.017839911844557466
0.0028803841610324232
0.08281340014894295
0.06136078538545431
0.07471950012768502
0.09414957727240736
0.05482071980960618
-0.08850814943749796
-0.005789681940339797
-0.01323813265886209
-0.05597301504229901
-0.30770002766691595
0.027136084945230232
-0.15845720152040332
-0.527085488327723
0.05226020788612007
-0.11302947602628333
0.4486210097873804
-0.8586635842093979
1.3993424501539904
0.39901383995518414
0.17616528428285078
-0.25141067319088206
-0.048297233749260204
-0.012109767233641655
-0.029005171603014634
0.0153523661764976
0.02357736298293689
0.015900392946644915
-0.01161436341253963
-0.012355487882000027
0.10017938803528165
0.06244624117001152
0.06476626487976095
0.04309743470966115
0.04350302653490001
0.04419579373507554
0.08510729203942358
0.07329606076373602
0.09238298466897371
0.057545634672101276
0.044989673168439936
-0.05408178222481674
0.027593663305852445
0.049204304219966244
-0.09466343217846074
-0.05479616181056768
-0.18690007232855033
-0.173503717453236
-0.38254410093731506
-0.16582815053784883
0.20496433744983222
0.060943209997853576
-0.02897174575784467
0.0068818713456753056
0.08465764483272409
0.06278280851894813
0.05406526691376712
-0.02638539058824041
-0.03700549664630537
0.012048790110454344
-0.0437372440275271
0.030193462972539775
-0.07626473558767533
-0.17817552229791422
-0.0019524485504889277
0.025820202719204433
0.009772107955968945
-0.13429147551172305
-0.08752339416498334
0.25056511279019267
0.07006629347845461
0.1567463002231193
0.2590573817308841
0.20610916855010109
-0.42628087643520757
-0.14293419891119885
-0.13754842158341507
-0.01690170255860024
-0.04666315218762085
0.12261772387612269
-0.0627124850325198
-0.1752808638562
0.05552240684101584
-0.04620847953234053
0.05420132985999204
-0.03519366111395816
-0.13520674924345233
0.08480152747213454
0.12602704487227423
0.34425011488177537
-0.07725665588310693
0.0221661827620252
0.055225506978599403
-0.12042647672252671
0.06295901703109963
0.06228856302430841
-0.37115137413406973
-0.12004200989822333
-0.2895149330852367
-0.2812592187052334
-0.1606942369253146
-0.3690033673847677
-0.2626101321414367
-0.3416684219646924
0.04493729392942969
-0.3637429191228046
4.446404706892615e-05
0.07320475050238762
0.12554748442642594
0.07460451099050014
0.03363434499575213
-0.3637524539213801
-0.06814745677316725
-0.15186202825846595
-0.17769801453982415
-0.2036305052224101
-0.3658590331023781
0.1496096036486234
-0.1991346361407853
0.19589578854898626
-0.1842685259808774
-0.1181556083914359
-0.17998170891836196
-0.13050327371942827
-0.7941813460271097
-0.013915724190270762
-0.03840877197515025
0.08363453582896763
0.15777023268799484
0.02897941892813849
0.3882043559500956
0.0077385191518708485
0.037100185170251265
-0.11790028850391221
-0.036303642745207476
-0.07721328755452883
0.0847520488395932
-0.3978299613943741
-0.2642459301434843
1.535865880186825
-0.0115006858010821
-0.010419008682951203
-0.13401196171783947
-0.058881570208489276
-0.29836065487248853
-0.006421451217575758
0.06341248110620529
0.08653446856789715
0.16822165617854667
0.015116254310389599
0.02495645264365476
0.224388526256867
0.019590564357227835
-0.03454786234851015
0.08597097215674965
0.07396309606263612
0.07192195915941768
0.16112323456203326
-0.001327828859444935
0.41648191857135775
0.41876806293920943
-0.13318165983979746
-0.38972962288332846
0.00031067420039798677
-0.4579574179016417
-0.28556600689751466
-0.5989295290245625
-0.31911183713688596
-0.06916449505943056
-0.13541141129942602
0.06826154407196494
0.35254370267839397
0.011083349001472342
0.5412702827035933
0.265524977177769
-0.5119621173587985
0.12104856147696763
-0.021494957324760366
-0.011078673131255767
0.03859269165087753
-0.0180141524653602
0.048054201036884736
-0.05977197686197
-0.02839041085428584
-0.008405150762751945
-0.026617634928329803
0.2025702791019275
0.021005827593663318
0.06119013333548173
0.051626949521085264
0.07946384547551721
-0.026630060435777314
0.10711629763373698
0.09775844473892525
0.21826564538903193
0.07962123857971876
0.014257020311789048
-0.08867439130159416
-0.24520385144449197
-0.20228954365606067
0.017340587533947183
-0.09476024367606739
0.02144019561872501
-0.14364137824856016
0.03144819655701703
0.14813821977922892
0.16381953803995652
0.1112328824115667
-0.06856661762487071
0.028007798131097994
0.012124733904782636
0.07377608032330069
0.08577152882503569
0.03479854618275746
0.05454970508472745
0.08973291960062812
0.10163911581072693
0.03473008524272131
0.05080687231747483
0.03126757524539525
0.11151901254067231
0.10162195079242364
0.06792534883712137
0.08228091936215143
0.10521676001814612
0.08719466922741625
-0.12138854726856174
0.022259040778365824
0.04163890501750167
0.03696693687021352
0.3701788735991225
0.07063280549933304
-0.003694366918276293
-0.03185482793752192
-0.11158539068268225
-0.2534381354340818
0.22388691029602548
0.29040289967055877
0.014072408439000372
-0.03027685963661564
0.005419190462804591
-0.04718631321295841
0.04470866133350104
-0.3254546342800295
-0.20725790107394626
-0.19552947112958607
-0.20613318080903342
0.0316987208144226
0.014418523339961853
-0.23361655701770556
-0.1741757260253407
0.027444144060765563
0.025206878082740136
0.4448293763385305
0.4514119648207344
0.37422992997955573
-0.07913067364601878
0.1092446965472742
0.026986719841274653
0.04176716299359873
-0.03200065107642991
-0.08590512966346908
-0.21260098285850537
-0.045719428044455945
-0.13764447966687188
0.2092208270929503
-0.41737093192432145
0.3791287837574362
-0.30870612752979376
-0.5144649177188829
-0.2266112968334164
-0.34289701694073704
-0.21140647322477535
-0.17198504030264306
-0.22327149807885038
0.0681460807867249
-0.22984787097026338
-0.1767020521340914
0.1188572175960032
0.0073000770446008945
-0.027383385952357564
-0.14720572563654266
-0.0412678912991149
0.08253316996977467
0.04927616863411666
-0.006121730464258568
0.000947979580265601
-0.07734070585424324
0.046120623345913936
0.03563500067723524
-0.1603971108690525
-0.1665383445489086
-0.100152110347272
-0.11197991801010676
-0.005443277059472673
-0.017800725248726668
0.03003399273138907
-0.05034698903627799
0.06139854869196926
0.07120816458692342
0.08301654973054257
-0.10010718571563376
-0.18213849596131546
-0.033100429272812204
0.03858974039971508
0.06175196895516566
0.05966761179131397
0.05719432454942841
0.06275692861372717
0.07032595333782388
0.07625709929461522
-0.074749752936899
0.13692903183458038
0.019983970780356852
-0.014251430820536592
0.058010197044633394
0.1210478118555397
0.05608349155112713
0.0157988000153223
0.03480730736578208
0.09029362821848957
0.09912709772550543
-0.0062700509378583735
0.04935449735932124
0.049685152572236935
0.10348382174886184
-0.12162452976387228
0.022965290709582198
-0.11382248209982837
0.3675915107737384
0.1825415242484958
-0.193647612520214
-0.1572153443537463
-0.018122296486706935
-0.027671358030347593
0.002447887197439269
0.004839342337756625
0.028582623143046604
0.02592392670228194
-0.10610575607170014
-0.07107902329015436
0.05581804437238469
0.1236214707033812
-0.32013492168319596
0.00766880699724326
0.05080027620119665
0.052316621367559824
0.03368492729407585
0.024942667558617848
0.021061809568079792
0.07258140198387841
0.01899677532004429
0.03394592424730147
0.09189612494155874
0.08168310458616784
0.011132322062189504
0.09491788933656009
0.08526407388141033
0.10127614519640271
0.03119523793407908
0.029872929742552623
0.05503157658113378
0.03578639448565585
0.08447571361525208
0.07383830153523147
0.014909033852956166
0.015011437155740381
0.09308754261817598
0.11825136409368942
0.08567249669234611
0.09587906059524742
0.057314616196852464
0.039009799122642186
0.04936863383140366
0.07564725468245403
0.034573931908758904
0.015811273953102112
-0.08525528488618483
0.46656882032261837
0.03639560979950174
-0.04979668859434305
0.0019078019159622928
0.011227470506897319
-0.013266870188400448
-0.018808030440334966
0.017200340108727508
0.05224506198183476
-0.06769712817810902
0.015662064516075547
-0.014530004658934392
-0.18468943997370685
-0.4613323083690612
0.0551547422980847
-0.05443578796489312
0.02816412076796193
0.07164771588346808
-0.022838707242271106
-0.044361337095187636
0.05912056774167018
0.026798872898621262
0.05811265967683038
0.06221573834336791
0.10211739871303815
0.06968615029295544
0.08090547485605976
0.055605253074871464
0.09306910294437187
-0.011413584732079762
0.07246713273304817
0.09049544358578798
0.04824280167283146
0.05756571449398962
-0.19257230318018648
-0.0691675837830148
0.11159702430029039
0.0015352826585846024
0.06234606025889211
-0.06768613764403442
-0.05036896445571781
0.037700945747953796
0.015885257881769088
0.025400506507625487
-0.04991159011874724
-0.08936706192833821
-0.02232485005784346
-0.04416275199788666
-0.09508148358032842
0.024135096166907344
-0.14615329585977754
-0.05714485611007736
-0.0018617064240239456
-0.15244614604895879
0.21815447101034557
0.3788487890087353
0.20023264825452136
0.21368818651318522
0.14423924934540444
0.09777463370251982
0.07811978965834199
-0.288917045946599
-0.17911222093976975
0.0620435521852854
0.11382432579500645
0.05175121659275894
0.06205137904869007
0.059778042080609106
0.08202532869007007
0.02218444536393227
0.06892717662560477
0.06506409610857017
0.13603138207042276
0.06199357049041965
-0.0265096792456877
0.004662227282882236
0.04814559084848513
0.03711626214367025
0.09778418898951968
0.08842805861406267
-0.03158091746689218
-0.019217589843396055
0.052767024237447724
0.0257094085679892
-0.04249379105277806
-0.043657917724119755
-0.017271976869111416
-0.15893356029474937
0.06874437861576455
-0.015051972415350612
1.216784138884655
0.1504658783550874
-0.3793589221828646
0.07872988381592083
0.03820077724860926
0.07159047645687588
0.036330704693276816
0.10056601248776498
0.07561312244603435
0.048315443377818124
-0.023844922405627633
-0.055653778792801645
-0.037806756625787585
-0.0012858966461862797
0.0463729668354077
-0.19259353563591375
-0.5841736829910716
-0.24712767721142703
-0.34377044458886197
-0.3016825842531663
-0.05873184364013828
0.046197865938030325
0.0905674907920252
0.0692826571498466
0.06652370071340241
0.06626053584236757
-0.34624762453893876
-0.049790141885741046
0.06954580353338236
0.10412057986482937
0.09332793203593448
0.09981002524960836
0.1063597025824281
0.09948445973408426
0.036929178411361896
-0.02569045109785484
-0.18604180859100472
0.18594612010925515
0.09507045308444839
0.06837221466468812
0.05695530707572205
-0.03088165029328782
0.12113382085243973
-0.15490038445343357
-0.19751745940230725
-0.004381175376921065
-0.01616813803078765
0.13976556000878193
0.08264962123179753
-0.09490047127987011
-0.02402646795350527
0.0590074652949133
-0.14098815331338144
-0.41529836746832555
0.009742083356011233
-0.060560947824715994
0.016051322259823086
0.06457272712789996
0.029410945694525736
-0.009865789213676202
0.034408181540626526
0.04752775875653359
0.08148984581842
0.05955801094897817
0.05901977990484031
0.005171569898496209
-0.047170577757206456
0.04797058674382704
0.045133816903735746
0.07805297923597565
0.07590878125507577
-0.02589611436524608
-0.038375758996510134
-0.07754418408274111
-0.008170554862950818
-0.08719395189918144
-0.06948418719256688
0.02452695849062403
-0.1085241420905092
0.014411616442129183
-0.07697653140626681
0.07065038870415613
0.08716664813936104
-0.033009825634983
0.056711783106165314
0.04654984883724833
0.11252003545417616
0.07464808875359275
-0.09426181357244423
0.18527142196815372
-0.2598284572680465
-0.8426331056392118
-1.0198126935569503
-1.017442119035632
-1.01621935283533
-1.0202240623410799
-0.010618064506659253
0.03255917408693221
0.00714918265314235
-0.023198901021271867
-0.007278404091556223
-0.09732105052962048
-0.09203646855203962
-0.052870210309588384
-0.03166905435895617
0.07322209050684125
-0.059613247006471304
-0.06128351696391854
0.02773308595717472
0.019086530685210157
0.07163419839223728
0.008287028641420724
-0.3962762732233638
0.013749481933400975
0.1452765559951823
1.870672191245574
0.12532404488410864
0.20498622765494923
0.03642762521166687
0.015556207568868219
-0.009117756101081786
-0.011349430519315917
0.12091844076927127
0.09485976862393553
0.05412534786592682
0.2134254958079651
0.01909529200566218
0.09350153247758652
0.2121942640197363
0.08893413861422506
-0.5178660068162868
-0.13349939402413524
0.3258653854496907
0.2100236497436352
0.11486684178002493
0.0985095240258812
0.15448812319050476
0.0758382583691401
0.06679184015690603
0.05291805861033749
0.14074079905611825
0.17395102289475362
0.19215919338780596
0.1513925200656342
0.07743612033523184
0.011278687526788844
0.07463628191084848
0.16884953261940938
0.1914139626833491
0.02998307363316921
0.019872656044421455
0.08493941786630621
0.11169211176435667
0.41452547093495884
0.4091296042344932
0.32830256644671785
-0.03849455079868036
-0.21723149043502554
-0.12924452885454285
-0.05586404817994661
-0.2270667190443808
-0.19082375563997012
-0.20985735566390076
-0.22452356617658278
-0.20963902109638707
-0.24833691036720107
-0.24833788896251052
0.039837129812828664
