-0.1951932913403147
-0.316097600577093
-0.25081972018559684
-0.20024422157919997
-0.05630336658628443
-0.038915539874323946
0.05108626276080086
0.05288488689796789
-0.0455339747028618
0.02754557219528675
0.003306732287941705
0.00128740930719895
0.01869223116525076
0.017548485431435834
0.03798797371446094
0.1690133913117271
0.043230483536842335
-0.4408664797585169
-0.38435797646114545
-0.12648823752228577
-0.04466519433641003
0.29699315064195786
0.02402013402631864
0.03275601104992665
0.10772059951746704
0.05269215447335518
0.0022608711528490644
0.30562782318650816
0.10110904052005831
0.09117773572412124
0.018257977257260194
0.10390702659487316
-0.07556712661070264
-0.04062499129869468
0.18299853277555056
0.002325211838802188
-0.08512827958911184
-0.07012541271474182
-0.011811271061917483
-0.13872393881914769
-0.28336803195316834
-0.033211151833977715
0.12784792024500813
0.05280150209173273
-0.048344730678112846
0.019949466596844267
0.09723554974446857
0.05091998182360935
-0.03907481405724944
0.10842976229887769
0.040324130610078335
0.05613378436913563
-0.12282500655666007
0.08682052042440547
-0.18176528346235088
0.677139979028059
-0.027323845501502575
0.05609493071071037
0.035736350413909324
0.0482477356190375
0.01927727418184766
0.09217216351120472
-0.4168528141728669
0.16579834038210217
-0.08376810143715963
0.026860530331583643
0.07971974447399355
0.025129875598417173
0.025145035078173006
0.010651363750275755
0.00043171465439273415
0.12272328966843005
0.16108044053999238
0.00131698737715924
0.06246797936710702
0.07090213715558846
-0.027710772509222714
-0.012451252760639242
0.033813405857506584
-0.09380363131198977
-0.20484715180244606
0.159300223710246
0.25078705630404796
0.30749108577349404
-0.03441337753572582
0.04817930789741354
0.02796777395059008
0.04204674252075902
-0.03629719700302714
-0.010988523663668204
-0.17531281900077555
-0.04832770935697139
-0.34576401504347376
0.03540432712677011
1.0630649636396727
0.7005099230722351
0.4051576738339291
0.022662738188282627
-0.015995824774623912
0.00875206146286378
-0.003153025331264825
-0.0016377799919341518
0.07068009264935371
0.010325536992238094
-0.01612173092614655
0.027790827296647502
0.05035310237660795
0.019412835521245897
0.03625900402017457
0.045663088925977924
0.036128666489120276
-0.14949508385325005
-0.1950778809310456
-0.3289345467118868
0.16327647505522225
0.0037866610290715474
0.017183050856759197
0.04065805392818328
-0.0028852233908537306
-0.0248457048718993
-0.0059869034128781085
-0.14306468903256464
0.06510562094661865
0.012039958135720452
-0.1186420656567142
-0.00931252904639046
0.489964779256856
0.4051600186395241
-0.6796817165319203
-0.1418554246848167
-0.07295202162701564
0.06855751680258326
-0.05062795377389029
-0.030527348392788145
0.028764359200893264
-0.09467035404546364
0.08153157798537158
0.23260424171647465
-0.03463531216206772
-0.04164778911179989
0.034614708435385944
0.20090032895841614
-0.2508385519860852
-0.2470769356821294
-0.1932642934083555
-0.3364186871354966
-0.10899321484460356
-0.29930960025709513
-0.09496370593008852
0.09502131398171287
0.18605691274804959
-0.16932345835843643
-0.10277796358064395
-0.21935451766403036
-0.4676553049570855
-0.14603514160781472
0.03654915907795542
-0.08046594218202663
-0.533010050812071
-0.06980468786108518
0.19061271765965815
-0.011968223778400233
0.3607956725660293
-0.02137014656588665
-0.12194233260426524
0.10490203092240402
-0.3515051267500069
1.4092756922632708
-0.0027600013269436507
-0.15726571629291297
-0.5210822225968884
-0.07191328108215855
0.0400870974388165
0.11599702277702117
0.14718233256783697
0.11679017724186536
0.03783128986464268
0.05078835090393863
0.1058437300451448
0.0828838407159378
0.013158503882303663
-0.3138584910506994
-0.19061995202072302
-0.4647047695249977
-0.11825607129649174
-0.233665720818804
0.28763171690959544
0.22786544966326217
0.003591455152017975
0.1244505993907723
0.07803976821824543
0.017760378173445
0.024101989962374226
-0.01650112940798143
0.046457134153536916
0.052479625321953716
0.04105073033958062
0.024680794253705285
0.08384682694636858
0.22565460327071762
0.011811462056905864
-0.177861592719061
-0.10542780123212614
-0.011514769032009098
-0.09912386547939578
0.03813018954997793
0.17510755813651402
0.05657673676638031
0.00414473954481176
0.04728483393770716
0.0010016955710330233
0.06849710076801707
0.02915711255382608
0.03263534015360703
0.1012264845531351
0.043752711723379134
0.057845794702472086
0.0010999118147310138
-0.0011224304112501526
0.010503777526957636
0.31649552346079335
-0.024107091857041296
-0.17979756272682823
-0.04104020634170569
0.16046667833040673
-0.026158019396503196
0.02472114071245457
-0.17652231527192408
-0.10327942585475436
-0.13721060580326738
-0.019020476324850044
-0.219452986565835
0.057660288047068464
0.003668207828193104
0.479910506747248
-0.04946593523827836
0.003193252120538781
-0.01822630053701252
-0.15158485003576128
-0.08388325806585506
0.07219464635350592
0.05249626374854133
-0.33154811468437906
-0.22243065809938423
-0.29927839621374464
-0.20162581591763096
-0.03691758571674564
-0.2791869066342785
0.006637663512800707
-0.012679625527082461
-0.05535375603466908
0.08461829967041468
0.011437839869155031
-0.060804010896995164
0.05127811832505236
-0.09823859600006957
-0.11930865039457461
-0.07524796847165482
-0.02659550540540445
0.03462663061587401
0.01754843033586373
-0.008388590686459363
-0.15040659378112603
0.026085653374808837
0.023711867591124702
0.04299972546845021
0.06950255786431858
-0.034259515211304103
0.059454068002049776
0.01270627724437412
0.08366625980790987
-0.002192100623506943
0.06541914588532438
0.05869019186145363
0.03378503689473711
0.05660213196982067
-0.01088376177384498
-0.015048368947595758
-0.020925056806157194
0.013746411588011043
-0.03136335236901855
0.00554930098551043
-0.03747253317230914
-0.09221230316146456
0.0314262002895519
-0.17704281827059942
0.022038546716530383
-0.017948087131802237
-0.0082198727436682
0.03585470971208393
0.02442998434774224
0.049650859044901186
0.004246684692135072
0.06792106548351495
0.046197223209841876
0.011014918382910188
0.006216275317191766
0.025687968773783987
-0.01005692977673367
0.10100570649806817
0.06787092949327633
0.03889521913165023
0.01877753386318215
0.015968950393900783
0.03984383498231403
0.12230009534693242
0.061495760390687826
0.026568200021317434
-0.033454553749388105
-0.04356302157074693
0.013963901055271566
-0.0017169375943425491
-0.22175651993322726
-0.1547317665750343
-0.019244315043891458
0.035037361412785906
-0.036021396911216086
0.032244810777407484
0.02006988370432683
0.047748245947093704
0.036502499275351874
0.056298360773841594
0.020636624934956438
0.058725316588954635
0.04713604203954547
-0.15294750877467278
0.12264786300358965
0.06557282763586025
-0.10788797393497829
0.003976181583100702
-0.012824097324586559
-0.0633979262750537
1.124639128208989
-0.04487412907453625
-0.037599742062613295
-0.08858589725924504
-0.0810923110555749
0.3217175684882396
0.22906248449649325
0.2366049495528073
0.07284043726831024
-0.3054259007191139
0.029769064121430655
0.04206453452368364
0.030394290954119052
0.05578054340902805
0.03733516898236916
0.06407155711092072
0.0012070323313483344
0.013772097083820878
0.015443849801655862
0.057984207392030473
-0.03770620399638913
0.017034259516085948
-0.0423129693569817
-0.004303583543620038
-0.022962475335996935
0.006916889727786701
-0.26689975471917693
0.042812428796074165
0.03924260590403844
0.045061212412706664
0.05409366774254487
-0.016473183242510014
0.002686501193286839
0.017913844702866277
-0.3589847702912569
-0.32584886553449666
-0.33420761595293746
0.13957968615030802
0.029730836105938074
0.04656406679306624
-0.09325770965689562
0.018541094893155585
0.06495262579285532
0.0653984327451485
0.1563458175944168
0.025359797122814887
0.0034374323123698147
0.20385577729635806
0.024372157196338007
0.059412476957933835
-0.23641339243843285
0.003840890704845834
0.18485901741880828
-0.05005794220251736
0.014235368469313836
-0.32519633694679306
-0.014899506947578467
0.03489509508331101
0.01695661625052458
-0.0021763961881194893
0.04896832975665233
0.05791349380369393
-0.0009106588788649894
0.010043500299007468
0.02661369689132309
0.019399262434001363
-0.04964021322753054
-0.03006725082264161
-0.08543456670131688
-0.07667190883221675
-0.018237098872763924
0.001083478205315458
0.0257406452519241
0.013939679454390563
0.17154293013851296
0.059841922719793494
-0.13589786891824374
-1.012560461368998
-1.0160201233859356
-1.0178002595656448
-0.9635838698139343
0.09416740413872382
-0.005797752233472342
-0.04060197712561364
-0.10076608173383006
-0.028283666963381027
0.004037507209736946
-0.061018210329751965
0.047955293837970925
0.0630912129136425
-0.31618927387534024
-0.05714936455164832
1.8662719060739068
0.17478311354404208
0.1031689337941245
0.056696720509241794
0.0319736401693721
0.04542001694595621
0.15085258018899084
0.15211346365362455
0.10158626519097202
-0.3964569611561079
0.26329891819803675
0.1417350000476909
0.10235127392106669
0.024834906319908645
0.03042509507093183
0.15547931056006636
0.16774443341930967
0.051755327549033225
0.06972384397872744
0.18514044007937236
0.018126623605338787
0.06434666001535538
0.36360727202632326
0.7519785852444976
0.25641022760920107
-0.20951070431234353
-0.0707817079523958
-0.23291381685919765
-0.32763729180268203
-0.3267320450991984
-0.24934366392058707
