-0.17535571999791388
-0.2970243729225799
-0.29041222330144323
-0.1495247905172743
-0.25248898290096844
0.024606539517211035
-0.023596356409977037
0.006266844479578815
0.05438461789193649
0.021360730331734468
0.013368537583438811
-0.0046030855990670805
0.02746939976350271
0.034773921511274064
0.030924883130659664
-0.02350068551558726
0.07538940070246214
0.027440857762418724
0.0915126890290745
0.006682329152225663
-0.4972299043293039
-0.36885286112191135
-0.2476851089944302
-0.0857793928690942
0.10159076647458631
0.18074691227424977
0.034653833256368394
0.051795574273494904
0.048183071086262075
0.08135252286398031
0.04205776960259783
0.0721252384324535
0.2193128670820581
0.10677691973898629
0.09147872108934896
0.03770609762478472
0.12349340313542378
-0.01093802728446125
-0.05708379098408234
-0.08730721252650042
0.3035111964057391
0.01588714167092542
0.019670818291819936
-0.2377864735435513
0.03118406886861047
-0.09073458594719219
-0.12564603832328614
-0.2991777485982628
-0.0351302447028734
0.11273743623106247
0.04204843498446881
0.0456648556144269
0.09937526764320603
0.03825066231613361
0.09713691922493095
0.06663554536035066
-0.04817204636265826
0.12120131747960672
0.07236527710606677
0.06031509731542173
0.07780814767769395
-0.14706267371751114
0.13838777383692857
-0.10970475094952681
0.7160988105418933
-0.010934214619488847
0.12952913645672726
0.040673940174389744
0.06435013976402615
0.004141841733109164
0.04100589032001767
0.10858453427902481
-0.410154255223079
0.02470321064611214
0.10672706271447652
-0.3321058855922594
0.1899194251986096
0.052015352253404035
0.03369320239055329
0.03723668539381264
0.05353674396705155
0.004364228469927012
-0.012351838853814523
0.21956022278135712
0.09928705836148954
0.0199841748067231
0.02875516212971596
0.044795015774254265
0.10304359598800006
0.015809068965522144
0.01950642928612445
0.03571306448267619
-0.2287585539905096
-0.12088816700204852
0.13936168867902055
0.08747095073391331
0.48531986499967195
0.029672654907859086
4.681061885569715e-05
0.06108794835350023
0.05650394925959812
0.07875053747750832
-0.011194295816542965
-0.039837542306311535
-0.0006968122930365306
-0.233128838170936
-0.0890589196071041
-0.37482308260708486
-0.052301008494986645
0.38685305637213174
-0.24957079353390893
0.41446771230398394
-0.0052335718735471715
-0.06056817572194406
-0.02618596499564574
0.007038583506012053
0.01723379800985292
-0.0015102661578201282
0.032299729928288445
0.052083201758824915
0.03793359751059827
0.007766394015513045
0.051310971478988665
0.07362529188714795
0.04152510636466028
0.06075674880821902
-0.003466914881908645
0.04030221258725153
-0.026950843016562587
-0.26764331810290365
-0.2726146021002073
-0.032341896672092196
0.16514126179420296
-0.08095182330812711
0.12030984859179328
0.05096608691896398
-0.005251144917287287
-0.04132911834445829
-0.0023208444177353904
0.018881250213119483
-0.17733096418298566
0.03207236705507821
0.013999241944257612
-0.12713632396492236
0.14154546657094502
0.1315786187520378
0.5207375098111391
-0.4122191812257981
-0.08085559059457426
-0.018354825602285407
0.06544712523387763
-0.10200686132204395
0.004890020352395719
-0.023712158240485226
0.010871995110994015
-0.098305146783493
0.1453388064175467
0.2108863878769498
-0.027831628040627443
-0.03026280760793565
0.04436483348597331
0.058522856019316505
-0.3969844944405163
-0.18295940151945533
-0.22208515277355256
-0.32814847416956416
-0.27961257186633137
0.03489981292848143
-0.37204856370738004
-0.2582099746182535
0.06195814921448517
0.17410726458053727
0.020794994427225766
-0.3510716562714249
-0.06240501191831238
-0.21360760861337136
-0.4589067501996835
0.11889652247471894
-0.20956588012808997
0.07322985946429883
-0.04403891440695484
-0.13085018235910106
-0.4858399782787294
-0.036804197622380075
0.18617738537837125
-0.0468521593530804
0.3582918383643119
0.10022989467389554
-0.10108649850980878
-0.023485792382125892
-0.13577033930708637
-0.30211382479529236
1.458323044196855
0.002516196047547159
-0.11096256079605638
-0.27557911445215333
-0.44400423610685913
0.03981628921974134
0.07276745343701063
0.13555929937983913
0.07124665473317837
0.2123892663954816
0.01349434189852361
0.09712104036479241
0.050656462073077946
0.10543355648061004
0.1152151654815472
0.038943341992105474
-0.26735157958094113
-0.19686342005683155
-0.10539488698591137
-0.6081076060768879
-0.06864930457141027
-0.158295020134672
0.3044343370546314
0.22226438836213447
0.21333199738285868
-0.5287028170561425
0.14394164142310317
0.013866987046058155
0.017506035586764113
0.033359741096232964
-0.047320261287968846
0.007089019170777533
0.0410798675708095
0.055031129734291806
0.029229264341213868
0.08783871485921757
-0.002920411747411533
0.13804606520548757
0.24795591062030842
0.022741208122382894
-0.1560962344204353
-0.20276716755621582
-0.07305748001383483
0.01708429113586729
-0.11541412457773403
0.11223919178800668
0.14883109242144288
0.026809477128441728
0.010355632252586289
0.04573913913013966
0.09220011800339245
0.015817067794130724
0.09185632151760126
0.028012225440075533
0.026683657048771736
0.1021003075644229
0.07230009909968521
0.07557349927752988
0.0839297011486776
-0.014562461177686226
0.026969163049463396
0.01837426965690281
0.30761222016027334
0.01316448009434168
0.020199524799279445
-0.23236077034300062
0.16962367353860053
0.15213117996449488
-0.016348081839894002
0.027411630804952458
-0.007959823428067558
-0.35598079944725836
-0.0505940983658566
-0.0825459435942113
-0.008552254986734953
-0.28792085131072365
-0.012932095964626411
0.2876977031269812
0.8572336146052972
0.6163925329010662
-0.12094332749813808
0.08657205206710905
0.0003736903068378705
-0.04677927060515086
-0.2027310496623902
-0.08782346650094541
0.10870401051555723
-0.030784200253326954
-0.1943464557614507
-0.3818517591474158
-0.40509195478683724
-0.16540979153985225
-0.24511739997601767
-0.011181671360247059
-0.29458696200417167
0.06599543412625986
0.003870967149431137
-0.023056284693420137
0.058037976331609675
0.048164265873430034
-0.008102128515449558
-0.05740668661931725
0.026804893665973495
-0.08799435262119171
-0.18431044894511306
-0.12436537563012795
-0.020364832721981196
0.0235913109487621
0.023327927949058025
0.048627948433762724
0.061866457112162154
-0.1319581695336733
-0.011102177601904961
0.03575674079463742
0.03473682352527985
0.06682843512618697
0.0800362500544387
-0.03864593698807672
0.13501752529955202
-0.03350706621425481
0.07791663837509721
0.08332688570805058
0.019817718615537827
0.08247395285074743
0.08268942526793521
0.036875911777458414
0.05192124286579658
-0.06545090093398498
0.057354644643372366
0.0654139540356129
0.06624345429900114
-0.16055508000526708
-0.050430482157068246
-0.0013951413405536295
0.06587900762353494
0.0007169389838473372
-0.14258195095494408
0.032935418188378474
-0.0713935695656662
-0.05481430920765584
0.0416839903574554
0.016938993458824214
0.026688047427425976
0.03239743592278266
0.04437209855802016
0.06072558669933825
0.0524464477534094
0.04738787648467735
0.07410416791946195
0.04844287327247149
0.028141185002748814
0.031634313976906414
0.06258017372640906
0.05251212803910843
0.04795480021542231
0.09460065808713858
0.08516492786979057
0.06631707196876424
0.036738082141589135
0.045221286909762404
0.012777000027940133
-0.0642502420714881
0.46607693405737116
0.06701681514824576
0.01553672595421074
-0.05821395467045121
-0.01872651937384623
0.003171096749183089
-0.03429694101424485
0.00940373193459132
-0.13303485729698
-0.28246769650616343
-0.038697955902468495
0.03242457390746001
0.01260028039752803
-0.018879465241103843
0.044765864145624557
0.05526336122155967
0.06258681901031149
0.07884545836342094
0.037469239556781664
0.0503075316372501
0.04668948301344822
0.08402899501455019
0.037713209326695196
-0.12619066182963445
0.025769611025111994
-0.008539403558025294
-0.0009896653406227252
-0.06029954008667404
0.021604558790028483
-0.02459041318838273
-0.027366561884573093
-0.040004548139537466
-0.04342359793917683
-0.012088857157382948
-0.1489844437015102
-0.0010997856926249217
-0.09136262706080966
0.32747234893072896
0.25309082863736654
0.2140169541335588
0.06719517602077196
-0.14464687708494367
-0.10478546967982066
0.06384198249885586
0.04387807441544922
0.05102386897010758
0.07895802144142106
0.07168614505971305
0.07850220011376408
0.0817535766919395
-0.02984333352364088
0.03309128286752261
0.03870548136169738
0.08305151326344351
-0.025185399447738233
0.032783171961535684
-0.008673736582584746
-0.0298846378460057
-0.09724628853839401
0.019140621590608142
0.010925557021003618
-0.1309699647630258
0.038648184726620016
0.039386184738970376
0.05663843285892467
0.07511379477448699
0.08418864865069975
-0.040376599886171816
-0.0160504679846305
0.01973630211589994
-0.1191970254019794
-0.45516622900951986
-0.3133892919595995
-0.3919781473330839
0.07451614487434743
0.060165163577376
0.07359271389686683
0.07592235600782149
-0.031324300235398006
0.06017176055689366
0.09305798829501277
0.0878478418850327
0.19601243414360714
0.008082264461974797
-0.09537508587691634
0.11065275587742374
0.06539948762737846
0.027481466732448112
0.1169443161976722
-0.28061762973879323
0.015532821888217807
0.09887864170268434
0.0274565536380893
-0.047957163753364895
0.012876349854466174
-0.33407515591039627
-0.014668561969215732
-0.010608557304904509
0.07246613946170588
-0.028389157665580256
0.05242543376754272
0.0651409855231534
0.07132235718591928
0.016441239574256583
-0.006979117241220689
0.06514087886758624
0.06292294614130622
0.026499215126988496
-0.030955508303275536
-0.03243768938611846
-0.08317286136866842
0.13490028930344744
-0.20886120118267737
0.004312186254078143
0.025153677690526344
0.0690689557195987
0.009318114459994642
0.0672900710515959
0.19898778081031065
0.02002038934907735
-0.1140623287902241
-0.898092118997331
-1.0185186104977133
-1.0177478435882128
-0.7319928583194824
0.06656199306639077
-0.006747509412500241
-0.007103701020564901
-0.06091700150735879
-0.08138678517406417
0.028491156939421503
0.009324022783108399
-0.044594937365650233
0.07213622503294448
0.03678934562939484
-0.26722026806635535
-0.022148312643894386
-0.023653539077079788
1.8659660555900617
0.19475381917910095
0.13949083444587784
0.022946932665666275
-0.0023198597526966624
0.11469939195852863
0.04601804125843201
0.1347738744882241
0.09595356982567038
0.13053523765098007
-0.2921946161168463
-0.04467223760112382
0.28967897394177977
0.09523564488938097
0.13605528376607734
0.04386705140496866
0.053206425887662945
0.1735870190684905
0.16319328614524453
0.15322659043693498
0.004150349553363464
0.09193998594179109
0.20574312999660005
0.046578650329499593
0.05283724963946912
0.16940088954956734
0.49072273720293236
0.35324605030312783
-0.22857807831910149
-0.0943107294914054
-0.18555774941729897
-0.30842514918040065
-0.2669255968954033
-0.26790008868182774
-0.2948212106688552
0.003292546146422659
