-0.0825968933475072
-0.3095736332549288
-0.19121219643481346
-0.07338410415296859
-0.026579446613600677
0.02438593358238661
-0.022941156899595416
0.00601254660167172
0.023520865714633077
0.015265950291951436
0.011274992586787436
0.04270958615832582
0.02985487068646564
-0.3563996902528477
-0.40627289996636423
-0.3278259017266286
-0.06345394405689153
0.1775978761168835
0.020883491856023673
0.025131840171661368
0.10763950806571376
0.06124221481701336
0.1759087794202534
0.048127014958547765
0.00549302135063956
0.06492864764230544
-0.09566888024703657
0.047833428245454
-0.008336720056712155
-0.17928953335076303
-0.011870962067524471
-0.16962592691406964
-0.23083202601340325
0.05774999349082344
0.057275379226557566
0.056937739035034074
-0.02036719461779679
0.047228122517740556
-0.0454481360718022
0.11350168397561577
0.04066674189438557
-0.09469101854820416
0.18246909078300177
0.5923656293514052
-0.004356894000800304
0.04818870669593567
0.012991623500515193
0.09659289175102459
-0.2369102644756197
0.08833512751529193
-0.12521635648282814
0.1315073774402713
0.0237709423766308
0.02904271023033589
0.011468438867155872
0.045985763563520354
0.13066050178100808
-0.012507642446479617
0.6926308396229133
0.013844376595877117
0.007057367749642385
0.014301357000017667
-0.1626838066309233
-0.08075018560684927
0.15841067568480716
0.36819706370111294
-0.030517186423071108
0.05366033467337067
0.06674851748639038
-0.05026619551466005
-0.03184230422087919
-0.16086607719673052
-0.29898917793172486
0.07041108979087896
1.6213424894937423
0.11980527679026731
-0.07514295202902654
-0.02321911900983853
-0.019656389525556595
0.003195906165944451
0.04708905136505903
0.031958187422645
0.04332788240784169
0.05589081507943611
0.01866603527841615
0.034114463288209995
-0.03845828327525069
-0.1525310052018245
-0.19747039441582726
0.07078899741270195
0.04061185815919777
0.03287878146792983
-0.055454924224911606
-0.014229066106426935
-0.14703320035285938
0.018198707923753887
-0.092739349936521
0.04259296956771097
0.6468489190666831
0.20227117557597007
-0.5251921245610078
-0.09898755203188947
0.04620143983937852
-0.09268360317574342
-0.026843399078640973
-0.07387100715100459
0.07862658459380256
0.10978222543920091
-0.04731164925634923
0.007639993151623559
0.47043949036348476
-0.07224065168332228
-0.27620652723987615
-0.3251464313948418
-0.1160218218187763
-0.39723322170653264
-0.32199610310209403
0.04629163278149684
0.12571611987085451
-0.2631505187789773
-0.1732475713113093
-0.3643488911544792
-0.0158363126648835
-0.14818749325338798
-0.38222595406058335
-0.09864351519028403
0.06403590648871349
0.26500426035384694
-0.0018238006403992202
-0.07028308799184013
-0.07908476790657648
-0.27092664434820257
-0.04971873898458934
-0.2598254406259811
-0.33406854257719987
0.05060090637888004
0.08106553197140254
0.1023628848461422
0.020078220755562093
0.061874382484659596
0.14567612321371204
0.13734499472450734
-0.26885943309777005
-0.22654779412925463
-0.2335883383133308
0.03092957278166164
0.26656803080191205
0.0416932370696661
0.06894380867123284
0.04766709399015068
0.005402998704784334
-0.01057102679938382
0.06259997180967769
0.0626579712452684
0.018672624438135443
0.09532443568152948
0.1614376203347868
-0.034692265060940364
-0.13052964327323424
-0.06835195875365485
-0.050000700739485704
0.12111377313803606
0.016833340669351715
0.035394865571172884
0.02843911597861082
0.07106927941398522
0.042523832426781705
0.03846338541539385
0.07121995723966112
0.06490723663967468
-0.041369531720786945
0.03253189078202878
0.19469498792389883
0.024389208175034982
-0.06664852724338477
0.15754758561219617
-0.016563488806269455
-0.11429931465847454
-0.21325012909792962
-0.07925414699405797
-0.21048911142485327
-0.0005769800663950608
0.19854070867915397
0.40607831467524
0.020324184554562752
-0.007426550150998468
-0.1592283813493225
0.021521898646373216
2.5361615709752154
-0.07420785383937867
-0.3623202352589856
-0.3614420243191505
-0.19705880867241077
-0.09105285654275175
-0.0620455640798121
-0.023002352521233393
-0.05652269564611312
0.01688867869282673
-0.06644842446578503
-0.010053126283392944
-0.18349086244439272
-0.11829441421763764
-0.01311949736879392
0.038263525503964724
0.06212397748395071
-0.028286931030577472
0.032672422973316906
0.015007513745336376
0.07227659829255584
0.04460705388674513
-0.019307630329813197
0.07185947845287488
0.009068824865109182
0.07889682047966878
0.025475270940046868
0.03761990961756967
-0.02034382147560332
0.04207152958198024
-0.04767864085242213
-0.13771258027674682
-0.0044173819326635
0.013685335859019598
-0.09091001350170458
-0.023070226402134242
-0.04652187811525521
0.024777541223643562
-0.0023096573575047685
0.04221494614240617
0.057071927426113556
0.027865226821465527
0.05074241434006166
0.025934199222864607
0.01988608362703248
0.0704116718224036
0.03250518839602279
0.07899703204368569
0.04075653309680699
0.03956785763972559
0.025840604070819673
0.09223034783384443
0.0802029004516902
-0.07260732634029754
-0.009594717427719057
0.0071102040509808395
-0.013300807041246587
-0.29940553945391624
-0.03620971439811049
-0.004561031616631461
-0.03949380835836358
0.06231729103524575
0.04915239026018503
0.05289316202652927
0.02441312899968695
0.05803409728991016
0.013676988800180534
-0.03801776756978836
0.025512998028421663
-0.09617508449461698
0.05233350557776195
-0.03744544741288447
-0.04819368273609159
-0.06485455856567568
-0.12195702258869334
-0.0678699412984185
0.23004312648555736
0.21533272182836205
0.04394731377646366
-0.21526874220408043
0.07075922616299868
0.03289663840964263
0.05439156925525934
0.056884714305334816
0.0737547838937096
-0.005250560713705332
0.026692632495795454
0.038152099925706784
-0.016219122177394074
-0.054020350026064756
-0.05958158161854632
0.041690480700514954
-0.06120202174564504
0.023229794367724654
0.03655262087435096
0.036648876343279624
0.060775508240856535
-0.02388213558077157
-0.011458968120202528
-0.2998378238345386
-0.33768384829714404
-0.09796742751920395
0.04391417131141512
0.05812704232085353
-0.10286863671432589
0.06284400499172926
0.0808064610713467
0.1288281952829191
-0.11388215791681289
0.2316407812947383
-0.011881265938197494
-0.034622076889684106
-0.050262755885363664
0.07504774295763394
-0.04797653299273996
-0.12273828793955799
-0.1526232927138288
-0.005088489020148246
-0.018716532056835322
0.03580296414291895
0.05930055394639877
-0.014822118121382344
0.027064359342231614
0.06565433608624666
-0.07342338604894305
-0.07648000242237318
0.09848211631792148
-0.1069219583590133
-0.05714968945683829
0.0758405377607958
0.003533743233320119
0.17123806278613074
0.04651244128043197
-0.7316338377711886
-1.046896919266683
-1.0477503329077948
-0.4647093932870235
-0.032746677179982475
-0.0661303853204318
-0.094680376031828
0.06603294606377741
-0.09498624439871406
0.050011540047281144
-0.11208120970565805
0.07794647411946753
1.8409623932442942
0.1966763737139552
-0.00500552325386916
0.02577114031555816
0.05349452879408512
0.0872166327550461
0.08613186915848203
-0.297176296076314
0.2284556321965019
0.0860058942732077
0.0807758226746998
0.0614006525785491
0.14968103761789164
0.07966471492075233
0.06909947777018666
0.1211094678321516
0.03278563962666403
0.3195376797035028
0.3004219908354875
0.0931076720304862
-0.11172637487321091
-0.18738817717152212
-0.3152256746901424
-0.24189718036686683
-0.2279269020875181
-0.1297708244997983
