-0.029718766961639442
-0.3118720050689867
-0.24252502528268627
-0.20833242343488534
-0.07086936217386386
-0.2699552042947646
0.057143179702403124
-0.11473001204896627
0.07134510562112295
0.1034070286087021
0.008103213742079785
-0.068858356121829
-0.01973274900294597
0.020358030984589437
0.03462101972195203
0.026832124994861428
0.05553501903551861
0.023524578392898787
-0.04035959993365623
0.07310641463020107
0.07395987301216944
0.1456087770334189
0.07427758009589547
-0.00871207768034521
-0.4720577259236746
-0.4315122982691715
-0.1508308191147938
-0.1014028985156944
0.01379781505853983
0.36145662596731687
0.054050464866381764
0.052458734103878246
0.013379006436475827
0.06166003679292975
0.05742276290403536
0.08375920193910197
0.0774170676088004
0.07185618791341986
0.14141770254915764
0.059892671196432934
0.04752931388028947
0.050889406847446805
-0.004179382584613589
0.09924433507847885
-0.09423751360689692
-0.03301639232239273
-0.09785609275561769
0.17056664168847324
0.009634365034879133
0.04860417009421725
-0.2662619288966397
-0.06335081061582315
-0.02585622033024504
-0.08569705081727663
-0.12005831356903629
-0.17569279035031282
-0.2529770646744849
-0.01854439764381577
0.12248045278505204
0.06761832601800599
0.026865121434223593
-0.03926327007282221
-0.019194541845263258
-0.032860595018964656
0.11902566585674168
0.06825580787893504
-0.04868854868392314
0.0058909246620026945
0.12251663829334514
-0.002295612831909377
0.02696939238269125
0.07209713617297075
-0.13244698916047382
0.06151707156905961
0.1388123983361753
0.7050299234018818
0.019244340189330744
0.018663553470092742
0.037066766550152064
0.07309605966915411
0.08227346028776106
0.01750574665589444
0.0387629845842723
0.14812022907396993
0.06627062173772802
-0.5974916523945348
0.11239629402797069
0.15110527649367533
-0.16805378245959846
-0.05759890855096916
0.13086123961389795
0.02903947874661661
0.04472065790770563
0.028625334099152022
0.09085124414715351
0.010321886088364263
0.006833655882011458
0.0025049772220073763
0.2058297862412779
0.06954598062603035
0.10735659028738098
-0.07548737269718298
0.7104150875554933
0.05832018896058733
0.05063296991750588
-0.044514491071016016
0.015018750394772684
0.04621348474398351
0.04609484436006772
-0.17103452522698193
-0.27486454404918764
0.04945857790742203
0.1944083459098056
0.24224824604334128
0.3930716505547276
0.01540734045240133
-0.014699309178115683
0.08545434136300156
0.06463630764986761
0.08542936045911953
0.10638093622725875
-0.0009188957263260855
-0.03295472929745302
-0.02008736181140247
-0.11879573202686244
-0.16183787796964122
-0.11708082757411176
-0.43529138015494984
-0.12566896212993495
0.1413605043331172
-0.669725346478659
0.2300074760034354
0.1692350099294273
-0.11330436323794191
-0.06351448862304487
-0.03556852968455715
0.015513191166139917
0.0005928068580999257
-0.028711815225343162
0.014740453775882623
0.06727419308262772
0.07991536624491252
0.0790490538682761
0.057653971754472066
0.04725273575176725
0.07759837099279276
0.08594442364964733
0.08490884943789861
0.06517375946723103
-0.017507811872532364
0.030053529016195013
0.013598902581343997
-0.072884821665395
-0.2288775096087956
-0.1259095454991015
-0.37657021943483554
0.12437267038846445
0.06531671770386038
-0.1176186675437253
0.09780063999603872
0.1030398238580712
0.04390066401509951
-0.03888684350559912
0.001773345457797948
-0.05055242796226822
0.007770402692329537
-0.18409766111980108
0.03583351162306703
0.03114462038207849
-0.01117873878347464
-0.11950874451023785
0.0530114569927822
0.20608151857340573
0.1429785785807507
0.30255826930377205
-0.45830557933069327
-0.5570495180716706
-0.18692761667443725
-0.13959799362510605
-0.024670939593584018
0.06462681769883083
-0.012968061958507082
-0.09849212837434451
-0.03697678323202935
0.03526804652943227
-0.028527858367915493
-0.1469178987238422
0.10235253656930632
0.22092884741310903
0.06288711780545952
0.03152257788646762
-0.09323047508369142
0.045350493186816054
0.0613961884764791
-0.3809302500955094
-0.1543168931228205
-0.28466750342134195
-0.22737922082488238
-0.35439084741810856
-0.2933117630625566
0.009066305908548511
-0.27086674790762316
-0.15997034169906876
0.08344297564098357
0.1064600273458769
0.02555736671810699
-0.09365654166172699
-0.16106293428987994
-0.19575472333533828
-0.20866746401197012
-0.3984117623590855
-0.07637076040370694
-0.16601376067278295
0.09394250191988274
-0.16642519736056716
-0.16101389245700792
-0.2876013050166023
-0.42714453913677675
-0.10581728590378403
0.1056980668357641
0.07949074824603874
0.15356888072010033
0.40713921240033724
0.05601076377280445
-0.06034294982031119
-0.19432347500133207
0.16663452663734857
-0.3551951283510335
-0.10140762225432631
-0.022258505971909592
-0.07260285740668215
-0.10188893879751593
-0.629540263179724
-0.28066904003289483
0.062181345247153685
0.07767299555223472
0.13331889102022199
0.021460196122180808
0.14537293205584012
0.0379944105912855
-0.029661421813028777
0.08314304816926066
0.07326196439130944
0.12926487242591156
0.0004744967082548346
0.42048103350525246
0.3317000808706094
-0.14336830986707172
-0.21852186311211597
-0.3007059709904434
-0.3213184024820702
-0.6532937909350542
0.007230598684570211
-0.22575829739222986
0.2027312072664098
0.16240762965467725
0.4857637901098384
0.13673421168640232
-0.5182709607440568
0.1441856929779266
0.0069315169025852
0.09982313740962945
-0.015318830102843073
0.008917117797737184
-0.05641087675462719
-0.04531390288436432
0.008811927635275385
0.1753853382652384
0.023600148279556254
0.08724629978998677
0.05983229552758984
-0.007663092062667465
0.04349086575832384
0.19819562269348756
0.08211715513039786
0.020299846425079482
-0.20472167269880592
-0.3341574070221063
0.060350011508207624
-0.043503987091497054
-0.10848444395275292
-0.0769630633029521
0.12903005386298505
0.1355141463185483
0.10877780253104152
-0.0048357735227444465
0.005937982498499972
0.11767260004819385
0.0740686915490475
-0.005289281563549464
0.09986254886099666
0.09092938804757866
0.05386359000210528
0.01638300224875977
0.09565716465150675
0.09383727213878468
0.0943180733202208
0.11494772713742274
0.08747558895131824
-0.1234334639265472
0.03668976895310572
0.03517686439523332
0.33720879665175185
0.01986646286267657
-0.004881538749467396
-0.06973512701593743
-0.2642865993448249
0.2412844364323492
0.2410165755861562
-0.04524148585678378
-0.015274510592748314
-0.03299999294378475
0.015032948581208183
-0.449285251288305
0.00023244464506988471
-0.2622740561705945
0.016380602075566797
-0.12121371401402037
-0.1898086440417548
-0.026166353001019438
0.28547254474086126
0.3724387853979696
0.6442926542705161
0.10562062246048987
0.01879281313728076
0.05128710169446815
0.038575420050369735
-0.04050183284073583
-0.23749956989072296
-0.0684108138982944
-0.09335056460399427
2.55286162110146
-0.30061224216619986
0.10972368183406411
-0.3974650149785579
-0.2815605933177505
-0.3278469297164279
-0.1511386682252147
-0.25617638561028033
0.05208509884261536
-0.18867206213727528
-0.18755253088679158
0.4650575581649026
0.008314801091595991
0.0020788614976947617
-0.16078402948669646
0.05117074245990905
0.04063001848416503
-0.011762969591900152
-0.0982161843436119
0.06947848642776189
-0.0141023650072567
-0.34193911019533596
0.012751772325509059
-0.11219662327266278
-0.015369395689639354
-0.056089132146936005
0.010871917798760622
0.0820213099254552
0.0920220972286725
0.08805846384415544
-0.09963603465036175
0.03045563563875603
0.036803435074303614
0.05776894137302546
0.03218967217292634
0.0726093516402736
0.05250257524125046
0.0506259011113428
0.08607269205949075
0.017750086947539323
-0.04274373222542294
0.09492061933856344
0.10372152021744796
0.006793648099264971
0.038082919959925965
0.10413513487507631
0.05203908515689515
0.05078277827209243
0.05824714135253983
-0.06265392673039338
0.0011537650217252615
-0.056473676591546784
0.35437586333194604
0.1434776253402319
-0.28763293446862903
-0.06899751140554788
-0.04967386301869969
0.012486732584873317
0.06541868506306814
0.034905057545984386
-0.05303117702645277
-0.03876028955584798
0.049462881895767086
-0.021321266134361694
0.05807972071365847
0.052820219880207464
0.012695017953456067
0.033467274492331334
0.06622613004420574
0.03608535156747761
0.04833973526953417
0.0975344669910097
0.017942480380195802
0.09707807751055597
0.09195631216618749
0.05553958367988743
0.03087169175288257
0.06729870023879408
0.031855023942944816
0.12187137876812038
0.005002563650372882
0.06091335918730767
0.09938398318854935
0.07059547455656423
0.09526386061351022
0.035282712863796584
0.07314349049554769
0.0663218701169922
0.029310718620239873
-0.054856832118377774
0.16032883918268848
0.08807698681801712
-0.015948071912143647
0.015112150394205881
-0.031692616592613465
-0.0014929839833046077
0.043025151274034557
-0.04878223054934472
0.000652652855057001
0.0023616725599764354
-0.447250659981499
-0.05178641516658006
-0.06045693428192511
0.030085008321083517
0.05260068959170783
-0.07253128674255416
0.03496279606665864
0.030769342009580813
0.0925321733545802
0.09267138351561433
0.052880013236060175
0.07183284428892539
0.11459870728683746
0.009053347121308675
0.05775807837465963
0.09385879458265067
0.034906250135639416
0.004244659093430969
-0.11785858401599936
0.10828589032526037
-0.014161136261286122
0.0379985047707172
-0.09757955021029674
0.03964220629893911
0.04783152233966237
-0.019780708799649993
-0.04028649308812682
-0.028079873308065384
-0.054160200170940254
-0.034952235754475036
-0.10198996701111462
-0.08652141507398103
-0.026814874527815724
-0.10286805435671853
0.3844878923336168
0.16940074438142227
0.25540993016797486
0.06599018070536677
0.07407590194094515
-0.19060585240816819
-0.14025947814722656
0.09153314813544478
0.056861782286680373
0.07357261341058619
0.056289381298989305
0.08142089898971694
0.061549085835099104
0.08285294827984901
0.13202873099556323
-0.04355352148618952
0.022245503156372193
0.046556311302911935
0.05729075057261512
0.06845742931664567
0.05006020961151969
-0.057459105861865534
0.043627471476103574
-0.010759782041333654
-0.04645766524219652
-0.024100303473101548
-0.10569131378336039
0.08710391654530736
0.005125906968480809
0.045657113560097606
-0.01428694487663451
0.04678019326762273
0.07114582568441069
0.039735722847707655
0.054408881317814295
0.05469314188482188
0.000715566225515496
0.010669816637920437
-0.0063147148403803754
0.016245040747013495
-0.18429123115575485
-0.49969549385897405
-0.34464417337161246
-0.29187180131142854
-0.07278113802071928
0.06324755288276762
0.08462069713778947
0.0771919961527513
0.0801479407524961
-0.15761123267944543
-0.033515712809820575
0.09251882271816414
0.09528082920183478
0.1172647072072458
0.1664626465857435
0.05521731928966722
-0.04536545145167281
-0.11374121341107002
0.057567083280689935
0.09368916589312959
0.040029956269715505
-0.04026206677415023
0.12193765757353936
-0.13247803026693683
-0.18476912825641678
-0.009310295145563807
0.18835996291078438
-0.027616192966510855
-0.058371850103837275
0.03851481175355853
-0.22769559899768244
-0.27486074764476287
-0.006310038730375056
-0.00464211437348605
0.07476417514808609
0.005663655784959198
-0.04064756386914736
0.06589157178913951
0.08756463445775342
0.05746539996339051
0.030331189302333472
-0.07122054227750885
0.03851497122707248
0.03868068173288586
0.10399598971179369
0.009583198847901708
-0.0264828697569629
-0.07837222296326485
-0.059214670139238645
-0.08692762402301213
0.08481186655468065
-0.22073067063134255
-0.014060086477182265
-0.018706395951963217
0.10721082432291873
-0.022196015942388292
0.05430606419134154
0.09189317370487382
0.15071908443340631
-0.03853381972496872
0.16831625321550625
-0.48472580612182636
-1.033667784391956
-1.0338504424613508
-1.0308849744867816
-0.22229723504966603
-0.014012314770651901
0.015562597146450918
-0.013472935536621211
-0.09068484493551032
-0.11603675799940216
-0.04643713945319683
0.09776284982895289
-0.015455270542974797
-0.10210826157968989
0.07335589745124982
0.06527001321505854
0.03712107970455181
-0.31489773443327174
0.08341767303095349
0.006979246962328656
1.8578462413123695
0.17763918158536973
0.1470308723020879
-0.002055819916854551
0.007503416677032693
0.0010300417049545763
0.11685580995241984
0.05714126515947748
0.2143403963482584
0.017235195952634452
0.16399088095152692
0.050648903543328405
-0.395821340930573
-0.08491782602866094
0.2903995330897675
0.16598654030042748
0.09830426860040209
0.14674672124212906
0.060193332014873424
0.08591942288009341
0.10793292958310308
0.15813857365668949
0.18578367491512637
0.08097828574639043
0.03847726450543265
0.09291833546379868
0.2642275456993264
0.024576628993316474
0.015859433377343635
0.07994973370029124
0.1713162811063056
0.4867215461161276
0.34061315773787904
-0.11702846946713275
-0.2089111669107495
-0.05957916660717
-0.21721171224830282
-0.3502594290215889
-0.17996122023390965
-0.17097682099367228
-0.1920653107851259
-0.16439780167366344
0.061393373366834425
