-0.2994698330871852
-0.3167379949535212
-0.11890172299360025
0.009864872488783982
-0.02744044748289387
-0.002174098177507744
0.0009643052234415972
0.12056845907450742
-0.22375138975241593
-0.428459112749311
-0.10617840829069847
0.15745018149562617
0.05432263464414533
0.04128533281034119
0.1714299845210654
0.030831531932847822
-0.0028998988612627397
0.006443325727619409
-0.07691626529175677
-0.06487868506019823
-0.22679720256329194
0.05496707002396761
-0.0039662160289080095
0.02231019450135374
-0.02196719032942429
0.10701750444633573
-0.054162562722799734
0.09646970971078161
0.32450849566269824
0.08717607698055219
0.02416925554331595
-0.14416716273951824
0.06577925300382592
0.099613915816954
0.015570461356099519
0.0017118206890501808
0.08903856040857416
-0.01992807387095108
0.017782468510082916
0.0021875095461746374
-0.15495083541029242
0.23221858908650472
0.11436075552925318
0.03568136982558412
0.02978955259242777
-0.08945048451428006
-0.25388516692416085
0.012522491474704411
1.0990395174847738
0.03982258421050511
-0.015096381525487534
0.025214126409091153
0.004467148398691889
0.03946136549001478
0.06118656540805423
0.037121082828245444
-0.2750336164888858
-0.24186669105705727
0.10230787033909516
0.04688270873806366
-0.03542406906860196
-0.09439399883563793
0.03765629265296688
-0.12782474011180667
0.37276047157959624
-0.08509725325333739
-0.13690273293598476
-0.018515483156323453
-0.02228012238418886
-0.045954840919401496
0.06023762495658169
-0.01988158762312109
0.13900216680050126
-0.2333323703831307
-0.3210816853150673
-0.11383576761666725
-0.24884559444830456
0.139204626871807
-0.16644431113239566
-0.2553996400580023
-0.09502503984471211
-0.32222116292688185
0.00011236117526824962
0.18609327672220366
-0.11517290348673348
-0.0818081783672513
1.2678277578197417
-0.09242117174505038
-0.3204970472721963
0.08003637961382837
0.10667840169965337
0.06960189980289055
0.14594027159877165
-0.22353368206385715
-0.19542333382260257
-0.1759593564114399
0.16475484398253126
-0.08247759995307424
0.05586911389960014
-0.007197275368868494
0.003995799233163844
0.08082982179478537
0.03714544328500069
0.17518021427495511
-0.1746875165278562
-0.08795045537755175
0.08579485106942575
0.02943142798886811
0.03139660584350601
0.04587642864272601
0.05358671525741099
0.05003709929961869
-0.021525791943345696
0.21010498742239814
-0.06491326120059004
-0.1507830208461809
0.10151424358698913
-0.10924229810240471
-0.14334516651665852
-0.18109397710133845
0.19904436075447585
0.3140600938535789
-0.007196217304214381
-0.15171370859918842
-0.0547010750031478
-0.16512554546017766
-0.30481085060733837
-0.17655389616316497
-0.30916297717230723
0.017664721994683052
0.036516769586304565
-0.022323212755266497
-0.17038614297389443
-0.07558920426905058
0.05932483718876358
-0.0365730692318581
0.020436383960730164
0.04297863508999766
0.023482821542484933
0.0628662234447227
0.026931759153938528
0.038514589556363554
0.0036759166926401132
-0.07579522795538152
-0.027049640169574563
-0.03080230017315977
-0.019089645222049534
-0.06130213683094221
0.03790754722331213
0.009931994978605418
0.037350885857376004
0.029581797574954827
0.023643398049888353
0.027193319418614637
0.03284168413045452
0.0567469736827253
0.012272909255316877
0.054678281328651046
0.08523178419046151
-0.018449577876787304
-0.00925693490487367
-0.20047863374827768
-0.008470333861163803
-0.025868343287960838
0.03443431599679386
0.04470087916888871
0.029307468727511
-0.019942933351627223
0.057869162489660564
-0.028676430970397626
-0.08755293834266298
1.0356331381750272
-0.06365955262215439
-0.10947043606497753
0.21081881727175333
0.1641702767200066
-0.12066632236939157
0.03010640759621097
0.057224663862465386
0.0583647871207591
0.009245499553869885
0.002920335823862974
-0.017829060977731293
-0.046238780291799175
-0.0669690671926555
0.2483484882193514
0.06412391794313921
-0.007297037728323241
0.0018259352063545453
-0.36578894764782866
-0.031340169242538796
0.044978619036410095
0.027738607235857637
0.0626085925300286
0.061742903463835375
0.06815351058420038
-0.047294254714901784
-0.12795599997888507
0.11238041460945514
-0.04676508248938638
-0.17948206618724283
0.009819920221152856
0.01912330826970854
0.0176014860481013
0.03551260402600798
0.013573580885058889
-0.0879351392560318
-0.20150172396439814
0.007883255592630256
0.015808279088507238
0.11419895631991461
-0.5880203324216837
-1.0529716294640707
-0.45669379603907995
-0.041835881429681865
-0.11256709353051231
-0.01712445763549386
0.0444097024528638
-0.34198631226005816
1.8087511093174253
0.11329687654873233
0.033966082430400335
0.11320545071742427
0.09375226276971116
-0.091224952606207
0.13571432724750443
0.026362421091329857
0.14187422432346686
0.05708525858042923
0.07783691132259296
0.27710619114050794
0.7176726901725203
-0.009318613670709519
-0.16863442528799355
-0.31162279428824957
-0.22770032462973824
