-0.19475706916238122
-0.20648395211961912
-0.10844236816217889
0.03288616371278086
-0.03185411900732671
-0.0017524354360780592
0.019749132185651108
0.02875413980403274
0.0959133807744188
-0.3744876104209885
-0.4131283462403669
-0.012471119807286435
0.07969451910627323
0.04758408464619779
0.05788423760315975
0.23293191493350784
0.030699134089778424
0.02760541902432534
-0.07190977787618669
0.16466873501415102
-0.05160197638793229
-0.0900143249347698
-0.15606913005286294
-0.12379660845008444
0.039786640200675016
0.05687664284928684
0.0456735742348966
0.043298592383693935
0.016383568297330564
-0.04210342926721555
0.08810055734499045
0.36893682102799463
0.07646564963094349
0.023516673672903665
0.02287653058635908
0.03972667133515517
-0.03445871386116384
0.024145228618783543
0.010600535108253761
0.06251467085647144
0.10827231088455491
-0.08507498720235462
0.025245289323241993
0.007434470184260467
-0.18226054670951786
0.09680053157012392
0.3381066259509109
0.023798129174552707
0.05772197573808441
-0.05792878829554138
-0.1348327474956017
-0.2464029557864824
0.09030565714517724
1.1799493992011028
0.023178179412714606
-0.002987953265334964
-0.0474990872338974
0.05456388551349162
0.040632311064252524
0.06387587920451004
0.013418730340507556
0.11318730355899365
-0.2525214864746389
0.09315625293123786
0.04323392290187378
-0.008863374500188148
-0.0329571853642987
-0.027303386062114354
-0.009858079864801583
0.1713267934164433
-0.046048257116275026
-0.21185171592441776
0.030144967589563976
-0.0736148302918509
-0.04009421386110157
0.14117091164434914
-0.07573337753501508
0.056269697445598954
-0.17160861366680358
-0.2965118343079636
-0.16121196355375855
-0.4103986726563126
0.040429850489263286
-0.021348133796804447
-0.17661289391999557
-0.37973041884067404
-0.06044592606878885
-0.23697127518268002
-0.15583139207176377
0.15644837382891597
-0.002494789484914328
-0.05623333050265655
-0.1780476493543719
-0.09653421508898208
-0.36373900616799126
0.08971129827534519
0.11731507604780256
0.013209451268033745
0.09664980925784528
0.08813152074306219
-0.03079620107759906
-0.09803792947673795
-0.19842805466524616
0.08818180630662553
0.20349632766069892
0.02773535693935436
-0.0008202820987771586
-0.014529315197770787
0.09100261300327639
0.027813250339920215
0.13962890815197104
-0.039647689862440494
-0.12061318910378893
-0.04552380201619344
0.10149087242135857
0.047157788427992786
0.037485753135086175
0.047191531365976314
0.05219224535043565
0.07042523958268204
-0.01937714477570729
0.22599857107980026
-0.0037055668175040024
-0.08509082361354814
0.10883123942240935
-0.03425940194064547
-0.2596444376394791
-0.06371625147223803
0.06641488652842553
0.28156013668222535
0.3280077595295863
0.009493439175107976
-0.13699316037920783
-0.022169559882834644
-0.13357757775567602
-0.2859728458695405
-0.13007548204593378
-0.13392985206504404
-0.020297388145451567
0.09419174676139064
-0.03967461994011423
-0.0836958869466291
-0.07550805644979852
-0.018881546128069582
0.033240856847246814
0.043639407337427105
0.021954727970388555
0.10969989185626838
0.010546757824374753
0.06151839929014824
0.047220214047833164
0.03280019641555143
-0.0039028915370180606
-0.011201423830873303
0.0054884173205667075
-0.0558193285399502
0.04361427306761961
0.03053248488014665
-0.08746881305857285
0.018438619542673007
0.0024507854248451144
0.032788344973176675
0.053486211567215114
0.0245496210086798
0.03987767474344828
0.03971279956642915
0.04863458022885403
0.030144820460024035
0.046942509859615456
0.08597971378388292
-0.023332116002645842
0.0013113585179398424
-0.22359901862874504
-0.015410607082454786
-0.02850265599022883
0.0510183408400362
0.056538980252189286
0.03816746634987722
0.037860806969481575
-0.023802090048313573
-0.024777911171137812
-0.014423896923684287
-0.05782429007322554
1.1170100846337028
-0.05205595931446427
-0.10330775192714758
0.1780051385736905
0.2468653793161657
-0.14797579156885948
0.05682398262600147
0.04236712763767192
0.06651162348906081
0.004323904766218023
0.028237255502010505
-0.00835523760704171
-0.03931028184770813
-0.05195489101341044
-0.040972334468761584
0.23731679840947906
0.036765642152109645
0.02188268560954343
-0.03573512061241879
-0.2627020765020994
-0.3433364587951848
0.06038231292346519
0.09005113376447249
0.029412621353842927
0.10925633137659374
-0.052946008128662125
0.10056600257676385
0.005771693446035009
-0.13665284617390583
0.09977681311225117
-0.04475137781698635
-0.1747229914612054
-0.014057061569594076
-0.006130328782550154
0.048612460434807936
-0.022352054584155012
0.05382361894347215
-0.08039405418433765
-0.05355711645029437
-0.04750149050070096
0.00980809931471005
0.016758270780096396
0.0904610294960968
-0.30141878516113196
-1.0553073640989463
-0.9263902856242191
-2.012554662800259e-05
-0.07554833264100536
0.0453719304054252
-0.05905242671159028
0.027095387173810437
-0.020930182133007236
1.8274315876979568
0.1186426068671842
-0.0010608538528185107
0.07740684532871389
0.09620193231646401
-0.19321665689679535
0.17501984332361564
0.0805874631848052
0.10141982245272196
0.09902687653215558
0.12190864426155668
0.02549596835945478
0.30070038069352245
-0.007027182092777529
-0.15490575611967405
-0.2845642644076027
-0.2223756412185387
-0.1520145858876331
