-0.2808199649823022
-0.03700216868389017
-0.2061993465237788
-0.31386720024992965
-0.36482076786636686
-0.18092778064256265
-0.13277747430655618
-0.09364973954012612
-0.23344092531966654
-0.2003086407581809
0.021704333944529086
0.04269092488004733
-0.0222948418009854
0.019337898963530886
0.038625991857194064
0.01844649178139246
0.11672790010819245
-0.06380304933565317
0.06347824619195408
-0.028932028875737092
-0.03925460921232138
0.07616837666432741
-0.0198517743822908
-0.009778185983586263
0.04181540814078499
-0.008369483445299086
0.04380164935991776
0.03148160822948737
0.0679550022359634
0.001938880103945273
-0.0418103351482807
0.004070119121567295
0.08719808256411343
0.06602389865867975
0.033681535231320225
0.03229971474404619
0.08270135217985364
0.11151656089458828
0.002893814617397572
0.012755192275177074
-0.3245851580091056
-0.38420724029528375
-0.10515719555308334
-0.08252804186881035
-0.06896835867709106
0.06587018783580412
0.13480742200217044
0.16959548427915072
0.15729566357253355
0.04180117664445915
0.028508446426264045
0.06326841993473664
0.04820229008224641
0.043424993507356624
0.06568487249602095
0.11388503038184283
0.0071492660761143245
0.07284254774837318
0.027150760192685586
0.06168306214353192
0.09566138401657531
0.2718413094189389
0.11292273674823017
0.18477516849498876
0.03695506270231519
0.03483160540002217
0.102797477365417
0.038587594128209
0.030113604041027586
-0.02046465006341691
0.1691104764454452
-0.028517253425389244
0.008230282377049036
-0.17143930785523442
-0.003209683755461157
-0.08025337304745395
-0.09468476881259957
0.3104648899605529
0.06662915026243055
-0.019708330632945303
0.0346559096900001
-0.0016505427974260467
-0.37362385690978916
-0.1273410977521443
0.010689193096361405
0.0355579756338269
-0.015240783778180833
-0.15828189808988846
-0.027059451058021433
-0.21283522892936302
-0.10917684333707134
-0.48862740317097303
-0.08045918957078402
0.03292867192308502
-0.020572912473114435
0.08316407848071328
0.05032949865613434
0.03536391341206763
0.07881898425662914
0.020375884226199736
0.01219935942151662
-0.16422109539340646
0.0029145754504620314
0.02990753719251671
-0.09424303385883159
0.08491466219631405
-0.007586374036254284
0.147618134421847
0.034872307984149975
-0.1328001579164385
-0.02768777789269694
0.297661714541434
0.021815327307542542
-0.023660615168916155
0.017821110878727398
0.06711388394095597
0.09130602180690073
0.06420340660434243
-0.10678033052971259
-0.1752391512165863
-0.11004289494738995
0.41277217885191053
-0.01945169187625817
0.7954521764313212
0.10309862571036321
0.1713706884320323
-0.1724886782317112
0.08783859691864149
0.18812427601203163
-0.08764932163011774
0.04441548761192621
0.050771973460884245
0.0716197613924664
0.09304964520859493
-0.10868919631091001
0.07006463362217807
0.015274008030593367
0.19277845623672962
-0.05523907810602857
-0.04488733048158455
-0.7741644588690573
-0.13174721363689623
0.12046160733005662
-0.0003475329050113274
0.27690097456997353
-0.1969854780753213
-0.3571954665744559
0.1595234946116435
0.2611252113742708
0.013048765202400392
0.06201601737778084
0.010746714225184695
0.053670804647447334
0.03433520733136486
0.01627942000007787
0.046637271753183995
0.07002615080127195
-0.005206217105862776
0.02168051466780696
-0.016675828188436825
-0.03970132407260274
0.23863565439361234
0.16441608518468698
0.0439062471390852
0.1767329676714764
0.12686979808116416
-0.06306655674557238
0.01670242204255512
0.7365489810076569
0.0778323591719543
0.054152769909947995
0.04060438111405107
0.06594925978431598
-0.07252999871991372
0.03316641686905947
-0.003564911128941639
0.05046020736380208
0.043247160737567625
0.035087171388363925
-0.15230671591271616
-0.320430209949974
-0.2682621264700365
0.030486787469217902
0.05352793502780562
0.20779420701739326
-0.03210227244339792
0.23615398475291505
0.43415124196366883
0.5164238021488352
0.047638538307196665
-0.010617357413593487
-0.037586635436088756
0.041878825172455
0.06247595354583213
0.05088195717755384
0.06964790882429417
0.054147080791251745
0.08502357658244203
0.06734364834069417
0.027604746757909915
-0.11323739979979996
-0.04466148496681288
-0.02722829224941281
0.06219389570870126
-0.05560315895229184
-0.3153572178648323
-0.09135279326591106
0.009986392492869367
-0.15733818132516486
-0.5185400077473683
-0.15385445691151434
-0.16575248163517575
0.0024485443850750244
0.4613400337392233
-0.9543839583725032
0.3408064645955995
-0.10434500948423153
0.13400129116036763
0.24787913148201868
-0.2504098622677103
-0.09085134250007099
-0.01563720410423164
-0.0024533841048142158
-0.03098703182624285
-0.024018120396866904
0.030680293534354974
0.02440404133723273
-0.018241021925995637
-0.03267636012680131
0.0303309640965842
0.036820775866734046
0.030646634332954892
0.08938258299774526
0.007475331659552276
0.03321476598315842
0.05992637310899418
0.003873798553813257
0.026824677383585294
0.03411760044621015
0.07473137969113253
0.07609194746408354
0.061661071817138924
0.07107942008013618
0.02890455716751461
0.06638221608199568
0.02634421943617704
-0.08736463273253503
0.0653994828425144
0.032169746936122234
0.04185920840988411
-0.08222407791736597
-0.05322092318719385
-0.24155427235259497
-0.3134683220810084
-0.07809007205772656
-0.4592971771571717
-0.1872212739039264
0.09983149085128806
0.20589862956060734
0.051423627616153045
-0.06257311907202545
-0.10040439508088694
0.15101155214403816
0.0823961427943588
0.04145472394321992
0.06940918265900126
-0.01725944346548569
0.00705446142616617
-0.07064680870314377
-0.007309188588759397
0.056853539744576964
-0.07585444168683753
0.056125222686555176
-0.01869674890183992
-0.20664368203534167
-0.10849480161618663
0.007077776716262196
0.04181340682152923
0.02845291541359124
-0.053293754250130165
-0.1730126134002581
-0.04263980008538226
-0.060319176517361184
0.274512953851779
-0.16814486119400707
0.6799112216431848
-0.006550463623871128
1.0532584503765388
-0.46282893660001156
-0.3545580538766167
-0.0022219166651191724
-0.14704083149794744
-0.03300985742338591
0.020477781213089408
-0.006987122358348752
0.08437561043015018
0.023920800384021224
-0.20661605439633535
-0.03397700611757082
0.04250203136036579
-0.09552896787179499
0.028194026092076108
0.031035738691832515
0.00037149381458434494
-0.20247783169377898
0.040882240109389345
0.1899037048663803
0.12850420571732535
0.2679588376599136
0.20428653473028402
-0.04468177432240905
0.015109235760336848
0.0507242878188785
-0.11187271949987432
0.019800231729890205
0.06295039019480009
-0.03561627793762634
0.5144743976393888
-0.43654612477044186
-0.432206969543238
-0.07926150963689538
-0.29819558196127516
-0.21924946893893926
-0.1880399655583218
-0.20199245331743465
-0.4174901941308353
-0.23914257601488487
-0.38140998299450835
-0.04647626652017012
0.08259217631465288
-0.4363180625867613
-0.3356019336053923
-0.13315750986420827
0.03745889855678208
0.006137101999148076
0.104556506419061
0.2660726769151378
-0.009286641314756205
0.042242214387901544
-0.3360257207625197
-0.34713226865257063
-0.09319190570913993
-0.03021222335963447
-0.11915329258662899
-0.29269268467977794
-0.38018307596894463
-0.4200162471983493
0.165676297675442
-0.2599953737271732
-0.09386414044146862
0.38884265902250625
-0.25761388508423955
-0.10617575936254797
-0.09821958452356627
-0.07268073253957374
-0.19499288966221395
-0.1261442598136886
-0.04953602031497484
0.008222831311959444
-0.002685966873784862
0.4001962574301614
-0.14831438791629292
0.12802377182530122
0.35673255494903033
0.32697128336838355
0.027608706085384793
0.03870119514609449
-0.10671627122923122
-0.10145589114494213
-0.14917333224890084
0.044887861178197874
0.13009987988917127
-0.47165097929615385
-0.01720501983364553
-0.43330672380035473
1.5461236368902629
0.0731268538890707
-0.06045347068191431
-0.07741431086636275
-0.12846745053154685
-0.048382997505178604
-0.5338338328795001
-0.15771620376567375
-0.019512785017427925
0.046512001536388514
0.06290744987421792
0.0905738256971742
0.1912344563064894
-0.005945482474646435
0.02163881370130244
-0.03286454814710216
0.2989794404091006
-0.0003401804416978127
0.02138737416467995
-0.0520863710106223
0.10264571605874062
0.09559019514756306
0.03360012557212111
0.06679799224653504
0.1854021796062787
-0.03194202329833895
0.14771547850366096
0.516874107860291
-0.21987670008497595
-0.0118150323724584
-0.4186131587705195
-0.03178186703490571
-0.25517514336974756
-0.10136724855375512
-0.28356620595996596
-0.5573170452966614
-0.6503574716084273
0.054878812267577404
-0.1515884861252874
-0.10191244327488835
-0.14597997708318577
0.43970612647421925
0.22711293574570046
-0.008724951017080151
0.5737355400134767
-0.07355684275352892
0.5376289023576244
-0.49572617915509
0.16980197039697287
0.10598788845288443
-0.002172965383875347
-0.017812191375637276
0.00563215305657172
0.0037392825754026804
0.026342988035928716
0.04700069242524807
-0.013915784030542167
-0.04382125445559337
-0.05270631677726845
0.01126073582869802
-0.0287990256984042
0.09368910093669325
0.14664514100916715
-0.014421315563416526
0.036680972765606
0.02472048887539069
0.08111189154475307
0.08005952487830403
-0.09935356651085159
0.10781492448498531
0.11446059056854652
0.09119505325275723
0.26482533239938477
0.07253893153842084
0.031105839398015367
0.01001402739374968
-0.04790734631082194
-0.24089773797699587
-0.2393978713907674
-0.15478320620867214
0.04914347837262101
-0.17173475805923522
0.045402962041302675
-0.037011520376270535
-0.15995515245185343
-0.046655757592449776
0.02792223843636299
0.16373409452687193
0.07474118390470963
0.010365704981648904
0.15325752833507478
-0.06986459958361735
0.04251908187755926
-0.013771017463999335
0.0329311653776001
0.0652402733698535
0.10334397149299346
0.07759192778793533
-0.050720743785007016
0.05960928386723957
0.11741212553010427
0.06275856381337219
0.046357023197747316
0.020616088589580694
0.06364281227873347
-0.010142079390847214
0.1658395409648996
0.041741898195418625
0.10067701701660114
0.05160825796930857
0.08849710266929667
0.05921768963281493
0.1061393302580671
0.0417889843039948
0.1101074506798555
-0.15650941253503126
-0.007421503072297164
0.0678463782154356
0.020293247462424058
0.021905086943437457
0.24239059267240703
0.40103484477638096
0.0008432712476843518
0.025772611278137125
-0.029140573688565485
-0.0803969863470737
-0.2097772523567809
-0.2270261840888994
0.23763611823545805
0.42244407689541363
-0.07266617299856648
-0.010553308723576404
-0.019025219515104497
0.006357177931829883
0.037396317510000054
-0.0245871264134494
0.031821793113596675
-0.22742439041169837
-0.5396473827273466
-0.20764460083002745
-0.09705371934558515
-0.33899755005205545
0.200950437138548
-0.013274117544097574
0.0021015177207936997
-0.2197321383523443
-0.2911218749503883
-0.055198923649464104
-0.012895548850802241
0.10731504262605918
0.12462503398631508
0.9076615450921137
-0.059303242690217806
0.2758140525306345
-0.18464196034101021
-0.06675363544049706
0.11150916150174317
0.06710998055730588
-0.017680885987707118
0.031358868671913065
-0.03511989161962892
-0.0633029951204318
-0.1955993169038237
-0.18175964580388415
-0.08787005468812215
-0.1665568437781908
0.09607204170018724
2.5799226126134904
-0.8870470076399886
0.8548856976127537
-0.14324239236742298
-0.23866007254748178
-0.4841493792074011
-0.2768386539324783
-0.3810638218269977
-0.3357594848384977
-0.2711488318174762
-0.018069586234106483
-0.2698014876077448
-0.20352980868433757
0.10609205473950123
-0.05104955943208456
-0.24972588749444125
-0.21687287864233706
0.028349746003318188
1.081500745592531
0.014854500634581547
-0.040150872773552004
-0.0001485432413235177
-0.21273274993346192
-0.061858428764344886
0.027782289607299893
0.035537657860438054
0.06855134255445006
0.012188990839891556
-0.022462217812028507
-0.10763608445870088
-0.021325804324216935
0.03240541837551647
0.03311566216304829
0.008445942544937468
-0.1617064870300986
-0.22928150476708353
-0.09258057191188929
-0.1301456539400494
-0.1015412717568197
-0.03352321386434998
0.0022398543236046287
-0.006244254156176909
0.06298683111422376
-0.05513566006610826
0.07155727729457484
0.05246309628593765
0.05905727175487563
0.060213678914623814
0.07308743746444485
-0.23994687796896447
-0.3231431453492075
-0.0777227456539239
0.06490516770748994
0.011435987242400136
0.021616895363646693
0.07053865982386553
0.007240775885572759
0.018314756113377628
0.1047627178493028
0.06233912033276212
0.09823776744682522
-0.019706189946596453
-0.0672507763225445
0.1760857669042306
0.10898275831815352
-0.007180474790775548
-0.0611354193356477
0.03749946029326823
0.05185615687266709
0.11631796454627474
0.05706856183350317
0.011169724930246816
0.0353243137572371
0.04316934429906971
0.07690036215132812
0.09234966550631257
0.044899412952430384
0.0191642032563053
0.04893260253524839
0.04838840847172432
0.06218670296098683
-0.042994376767578446
-0.089754679509217
0.01377825468571131
-0.011866481023124598
-0.016386348294070263
2.9129772698606904
0.24109633956291399
-0.04731164349446004
-0.304884697351405
-0.25897605864640383
0.005839689561167538
-0.11068004537866372
0.01588767764637622
-0.012763929591806389
-0.028311707772976202
0.02960306623918496
0.010683276956221677
0.006416814802040871
0.006725562541560648
-0.2948732566758189
0.02649228653018726
0.0464004111868887
0.07027332876969622
-0.09459892551188864
-0.017676243103216804
0.03031428802287739
0.0397016781175174
0.01649896465662365
0.0209347151242516
-0.0028104905868658325
0.06498020282140016
-0.06142931032286669
0.09696793085598465
-0.009117229647032321
0.08720612222908619
-0.01167180838206383
0.08177080791214097
0.08950103764725492
0.025595135812992886
-0.002020173395574032
0.1012382058583271
0.07154527729746696
0.053668025642379824
0.058979855441240625
0.031624253915786105
0.02825227884781939
0.03570883765021393
0.058015810618565866
0.013588229107509231
0.022470403699575148
0.11450991510390068
0.029760724267231586
-0.009994462931244064
-0.007785315825416972
0.10862195734743041
0.06553377342317201
0.12561271816718167
0.08678377069925991
0.05179232148796992
0.09379612635008427
0.04597648730735726
0.016948386319609654
0.05374585577869284
0.05453924460243814
0.04570073239590494
0.019547273477967475
0.008104645080342587
-0.06583546847889576
-0.062203222775068845
0.4778284667328583
-0.01789184491388074
-0.06219638067746214
0.05758034948765245
-0.011958921281282398
0.03959777084931515
-0.16002952233786605
-0.010732473220124938
-0.016040914691669905
0.010145640678701384
0.01215534596352058
-0.05676755786536736
-0.0019914754299908966
-0.02101881459349686
0.03236744087025323
0.01544234646491871
-0.27847560606211685
-0.6547370939368551
0.06383377208198704
-0.01808344720293853
-0.050218930034299
0.04506767026414116
0.025040101409062765
0.055784977327003604
-0.026106876375562527
-0.052901739606886156
0.026894580802450108
0.014851696234630674
0.06935860685450734
0.05204636345808705
0.06269206803741856
0.027722956307141777
0.10640663766912939
0.05787514462405363
0.09217434167913446
0.028076964159880147
0.054673571795913034
0.08664232191622767
0.016589320009937625
0.04018694600052808
0.058382875484128016
0.07900950843572141
0.07494968505936528
-0.004573729543848604
0.07656722967583673
-0.1510043062947095
-0.0712020761793577
0.046196715436079616
0.03050120854711147
0.0028164774795520486
-0.018019934161938478
0.04410745428958118
-0.070665916121049
-0.10150137813225468
-0.006878958649745082
0.05686833440016875
-0.0046036052566070795
-0.026222914350142457
-0.0025532694208938445
0.06668233417534841
-0.13289715324652196
-0.006049160401432108
0.012189532908426504
-0.0698639084264654
-0.028848285110210647
0.012480491805221705
-0.12943568143827355
-0.1486568202535743
-0.007154278358726174
0.01260834649761422
-0.12609333426332603
-0.04586263004114721
0.43837632102032176
0.27168623264110536
0.23226038455123144
0.3095237601892009
0.22413279163991007
0.06160217714972149
0.06930671941478994
0.01800648906611768
0.11296974055295028
-0.42443869317946187
-0.2969805007088714
0.08552144178047139
0.02395020347551391
0.10256914191476196
0.024012843867071365
0.06743929351616262
0.05812015702550227
0.05306220960259367
0.0790679142236752
0.0850873777516824
0.007870380453569137
0.05600665046503206
0.05710542782990985
0.10106840402625406
0.07846162778456955
0.022443386322800296
-0.04496595081831867
-0.0076235267012023655
0.03626817154872691
0.030899282706526976
0.025843152552412485
0.06099383589743457
0.0616345137130373
0.11203301989400294
-0.0015619101789219325
-0.04697198502479771
-0.06175067222791819
0.06248701592746542
0.007012639181210978
-0.016768400343836753
-0.13669959503779938
0.016589058675594792
-0.00926037138134006
-0.18085714179107315
0.003022811867038566
0.04742551137377182
0.05829342012095373
-0.01978930817299318
-0.04606468056673485
-0.30261480963786713
-0.10735295946537649
0.0507706966445956
0.023365697229524973
0.06411087251026265
0.0961665952687224
-0.021276491148349952
0.05094693859048072
0.11241611269588869
0.11675987379267716
0.04503220050998413
-0.03451750126610276
-0.03898990718908313
0.0528907876437712
-0.05721607630526804
0.037614038826475404
0.007309362208045789
-0.07268525533610393
-0.16841476675274503
-0.6018260848105834
-0.3161376689229253
-0.32098186875374
-0.283155527092944
-0.31959405287672915
-0.44203128192728247
0.12127812003758998
0.02197459944180863
0.06738257149905758
0.04887940726037521
0.09836152880293636
0.056752600994171565
0.0760908548637157
-0.21216215896457813
-0.11947791646701189
-0.05783164715124278
0.07117662913101186
0.053956240406585754
0.09786253738912515
0.09014251553111385
0.07681808965698839
0.10324889999265274
0.12857395758550572
0.0406443369936742
0.07928717676780739
-0.0684765013858234
-0.027378135980032914
-0.15765634807019224
0.20222483634610366
0.020516874554530884
0.23069394596863102
-0.12074184864288151
-0.07825278233583055
0.32992461116290794
0.11875901301512859
-0.047664140258268484
-0.2830162246593082
-0.24217334243852506
-0.02811130162445674
0.04172959436071144
-0.09865615802461813
0.2200915047774581
0.06597985488934044
-0.014434977673250415
-0.054293049654161374
-0.03598078834582441
0.0040799178437460615
0.03038645624795755
-0.2930414250312977
-0.36030824979331355
-0.011769003677575718
-0.01151875691852533
-0.05544978007156798
0.0307801166559436
0.0842608823572254
0.06528953328484288
-0.037086449096905616
-0.013146978310500823
0.0012074822998038304
0.05377975042548189
0.054268526421997976
0.0837128352518336
0.05340668451302388
0.05883455112701036
0.02998289420584055
-0.0042889799702395814
-0.040296468421171294
0.03365132426583206
0.03831623332328815
0.028878438680305873
0.05952126689520343
0.05108693531558728
0.07315664527139815
-0.07830408085327534
-0.07188633304936809
-0.013603723872025686
-0.05799861249454297
0.006724776924266318
-0.06876001088008699
-0.08939004325301525
-0.03508432963733443
0.04746588695679943
-0.10234182294729166
-0.00664777374999892
0.014150859771622337
-0.0944421353635243
0.0814737663198446
0.0837930735295811
0.04448047978392333
-0.018164459790648957
0.03152895101395081
0.025942365928519118
0.11690708140377892
0.07494692370806544
0.07235309262668665
-0.15551765464185463
0.125179590013479
0.1709863816779993
-0.4067043695308764
-0.7797208485493086
-1.0107619938692134
-1.0089727332640177
-1.0111922671841593
-1.0070302801792832
-1.0098899824563825
-0.440712523458612
0.15270999320733403
-0.009649173889253126
0.009949156066479059
-0.04112280909994315
0.0318049660872205
-0.04027124152733996
-0.11285069566746342
-0.022931783305353948
-0.13757413595340995
-0.01231797560514658
-0.07968608212059825
0.09615191239971899
0.03498290685674599
-0.10138110697763048
-0.07773096247866162
0.0023179998232010224
0.12552530222778313
-0.007924794187394446
0.060277463936221354
0.0473387318040035
-0.13844513856501983
-0.30264682962379164
0.014909018180910394
0.06838052350991752
0.0217834491343587
1.8848963037071886
0.011631673448524005
0.153761672913987
0.25379064703353205
0.03422732337316259
-0.010665336670508174
0.05974714603919273
0.06962972971424786
-0.06798401177572333
0.12922922483424648
0.1051043452146685
0.04964965464503346
0.04755984903546179
0.1335259442075616
0.10774224914572184
0.06481971950561549
0.09953070008731779
0.2665799895764309
0.018104138350147014
0.14518275240000444
-0.723501087640195
-0.22070748008368568
0.13879164510153663
0.3852461112604555
0.2146797204383828
0.12516380138832484
0.06803337449195279
0.10732655473656272
0.1741994610779175
0.07869749013402866
0.019779948004640335
0.06422402664635524
0.05188332646003657
0.10871757223102751
0.1957944455331726
0.11858005709632002
0.2154848802045769
0.130088192569897
0.16851675211086192
0.003367805440623872
-0.0014671892122929409
0.050839985781769736
0.12471234901174766
0.2841893660654611
0.13720891743133368
0.03740093085402074
0.0528342538477613
0.034869561179164954
0.06426560391261615
0.09136479088482419
0.1865278301026938
0.44216688194291054
0.33198095775307745
0.2284972956342508
0.08508414651363821
-0.3291659919763059
-0.12257459051859332
-0.1592146591045176
-0.025788641550490432
-0.09672197837856555
-0.2696132846549754
-0.1073403231315968
-0.5020377274779565
-0.25329841057471414
-0.24817035421953315
-0.2631018818194931
-0.32000396866159236
-0.24799168230923863
0.015050950189510914
