1.0779077458629098
-0.5930471445216154
-1.2231247763527193
0.1336464142958027
-0.09437323246791318
-0.12818785529948684
-0.1172230574199511
-0.11796738654139749
-0.19584797985938107
-0.7684990625070125
0.1302954883057983
-0.14192590121880588
-0.5589657129457175
-0.06762179599925933
-0.4135353563262405
-0.06808671286520296
-0.1507716114149269
-0.15020741229433954
0.13353700318141648
-0.47175956827559107
0.05365895275989074
-0.14922000176414718
0.3016185965033653
-0.26158023276128617
0.018601387774418665
-0.25507621091899546
-0.289454914264871
0.0006870426298610788
-0.7633721884145895
0.32198381541835586
0.3665445578295605
0.18064484764352828
-0.2895298346676858
0.23035306714597192
0.1554371733700941
-0.12897980180569424
0.09797077574697122
0.06969577518426595
-0.11580283671172387
-0.2535556127782903
0.007454351763208189
0.46466697080872876
-0.0017894584471778163
0.2503288547621687
-0.04484851103406462
-0.2380252282569244
0.2871900591011445
0.09690197637642184
0.22078830721116605
0.03995303663395877
0.08488972944110029
-0.023970210985555296
-0.23456073423485257
0.09131970005560808
0.06705657531215437
-0.07831972034474621
-0.0327177133597073
-0.06666919999386134
-0.006232072607652905
0.05176499230978593
0.1556039575246353
-0.11904179992637332
-0.10801656594093889
0.012755059144294534
0.13519718004446513
0.11223720154222183
0.01138603260159643
-0.09941426373229889
0.02114947920922028
-0.014488494141561226
-0.03320062259290635
-0.05999843360020285
0.03984513587425592
-0.0552922864098328
0.037035405366138696
0.05182080001302147
0.017143443952993942
-0.08083298997807908
0.03462192965880123
0.01969838834108595
-0.01104111999305385
0.020007842744026616
-0.04980235667479843
0.08516958740869063
0.0697575282437003
0.06164934645547737
0.09206118561886967
0.06561487781339648
-0.038968180397196184
-0.003009428278345605
0.024469390087795584
-0.011512053273203482
-0.09695312614525164
0.036125974056893106
0.009890116502898949
-0.03907710638238837
0.08567867894505243
0.0242286803704308
0.07169876829613808
0.07778689127312821
0.028994663554398947
0.07512757822365168
0.028931597508697948
-0.0859631772235297
0.0414762270333095
0.014743869022827427
-0.03638068133510686
-0.012906742338550159
0.06957175891413692
0.03909705040520084
0.12229839075443172
0.1889397242310551
0.17039961698033412
0.03105376105068869
0.051270033070026644
0.07526566910430965
-0.029908205297159762
0.0782264512366424
0.01485083694594902
-0.05950956266019547
-0.0012956189765109816
-0.2703102072898175
-0.5713177316666932
-0.33402413579882206
-0.414805787728328
0.08739037432308416
-0.07857603395434953
-0.027294628807025045
-0.04508471601705222
-0.06408430105335894
-0.06820774946125552
-0.0999244270450349
0.05644182137085174
-0.04884982220045653
-0.03078624090172266
0.3423836951417423
-0.25524296804698055
0.3004713054975938
0.4933503449365424
0.19525547386469744
0.18361691294548688
0.14550732197367178
0.5417369943089807
-0.12147129318707206
0.012742677841174332
0.0498570514813752
0.05308894068911907
-0.0011214005358477497
-0.0074320900663280565
0.1892338452801594
-0.004249377171824942
0.058384598659041886
0.11934892550536613
0.0243916400307157
0.1247555462384492
0.027241836193611535
0.016693067036695597
-0.04420765365205037
0.2819534330322522
-0.03926424707169163
0.17010455268648594
-0.003539230783166314
0.11068637702293072
0.3299368495689432
0.11600635546380267
0.004033596416220364
-0.025323429078103254
0.02794647332459088
-0.01265490954063292
0.020067355715833568
0.016274759980843545
0.0469868559072954
-0.03441545498769988
-0.023172541363399746
-0.011267275128779675
0.06428176567090693
0.01932294742544971
-0.03822268835299897
0.0010886705027718935
-0.007236375101534964
0.18244469066004498
0.006236965051807153
-0.14277971863980077
0.37109801066900916
0.25106759736332185
0.19476020444275388
0.07577483227730109
0.20777076414746443
0.26344126465416173
0.06023380803778622
0.1519653710482034
0.010794245166213967
0.04814918291401982
0.02917870931613953
0.06347316532191627
0.11669983449420873
0.049239792586162734
0.08064518264073883
0.08416460094056133
0.09783198222368306
0.0489612021600746
-0.03435347366431918
0.007658016071848572
0.12416097257604175
0.010548279121007198
0.09896019583565407
-0.14468287602155372
0.04686861934321396
-0.28976386189174574
0.17290406529034996
0.07391389306969565
0.05158308253424271
0.02212553397246153
-0.020441924696902314
0.09359618918895274
-0.01860973558714729
0.0474250129039433
-0.29977849502438936
-0.105741740227415
-0.04776324218794814
-0.08594351476166412
0.014535641931762433
0.031743099745903725
-0.1252073311253703
-0.060246627965007016
0.004621178019903471
0.06981554838738746
-0.22355430601666293
-0.059955047074413126
0.4347709938956834
-0.030461234451644947
0.729219262769808
0.3320639978500215
-0.06637174907889798
-0.06871933180645962
-0.060029060884132956
-0.07080371788200612
0.0441456113975669
-0.024616246297975763
-0.03629182922657459
0.22062378977499464
-0.02416990070130609
-0.07187900893974164
-0.09870233655102933
-0.47576226634745256
-0.3333779116761342
-0.18476344595977678
-0.1803447973437814
-0.08266077036001518
-0.05416320128132579
-0.06280981106604644
0.09623298167888539
-0.03584238007548912
-0.010706296758917211
0.022105802239385075
0.1678965190967674
-0.1398066679691129
0.09874321198989866
0.028387341543470557
-0.07021102422440306
-0.1285104334544499
-0.23977421555150558
-0.14125358667980814
0.12129436487904321
-0.05866320685459403
-0.18092647720736654
-0.17482778078692418
-0.18101051797650958
-0.10691775235988754
-0.057833080252009506
-0.12820224337612907
-0.3654105820650184
-0.5337026411088069
-0.5205912913053241
0.28922430353219086
-0.07279862836925677
0.15539113714317088
-0.02665668401435839
0.07813056242001659
0.022035831064117994
-0.0023353406789066167
0.0704259014730182
0.12363733806362665
0.041750048200602796
0.04427573145255037
0.025557193979811765
-0.04004348972342342
0.039983090088091866
-0.028981472414647047
-0.0063624358286393234
0.0392688350158501
0.055769885524418306
0.09245122743039969
0.09826073746106545
0.04345542995598728
-0.08336916131792727
0.029612109007039922
-0.018279639138159276
-0.029996571686102202
-0.007371294513346616
-0.5290498637173858
-0.011677295696235657
0.09842351360843171
0.13738584375801066
-0.19209397367228542
-0.1558921419921644
-0.03701146599602578
0.09622261870225923
0.05015481214680306
-0.2972212725945982
-0.05159910869940809
0.22063631467662814
0.11480658240106112
-0.0030422100609113767
-0.03568520358956495
-0.0455998229001513
0.014020460685638225
0.03861395222386366
0.048983076830318106
0.09479275510471641
0.07904524968542825
-0.015450521240650161
0.02681338229773267
0.12818233912941346
-0.15378574444030735
-0.10990050161767939
-0.08935013449729634
-0.004461762496887789
0.04082763400633849
-0.14058153536755302
0.1731909892209632
-0.019442053108484236
0.7145010974875365
0.34608312952196063
-0.03381409392489032
-0.07292836714331763
0.09063541386265261
-0.00975297580585488
-0.1640558592592039
-0.008375317703659402
0.037895997021288985
-0.005650087857180908
0.30701572589740866
-0.015745629532387007
-0.01971293555946385
0.07860396545819226
-0.010770819965332468
0.09534383001072866
0.10601093873409706
0.1756287493929245
0.02355038644285612
-0.05820568837936002
0.0503735908554539
-0.23467979317015986
-0.13833127323796157
0.004967666062240195
-0.28558638571795303
-0.06389017291592003
-0.13483270464809438
0.010633087933773266
1.0262609462984384
0.1872810825258524
0.1892051419787526
-0.23019366808501474
-0.2957993748024732
0.5499374737591785
0.9541772025860649
0.6508442440633333
0.908406639651437
-0.12622326635241254
0.06700971047466442
0.04740622394891547
0.2763241443285045
0.054826706543574244
0.2209347360521161
-0.4161744549794838
0.07209534741284629
-0.06897566483825512
0.11450030539054734
0.047587330812109974
0.14780833503541058
-0.023434283569567782
0.16159933525871306
0.2999646308036883
-0.14916837131210725
-0.03357971152201955
0.03124587242731225
-0.0047698719907340315
0.05342342716745785
0.026275979331271737
0.004777253515510227
0.048331528172058824
0.009050814761944248
0.09054691005699467
0.0629581583532024
0.011925845023566861
0.0638282210852189
0.19186201267202418
-0.042084672362758146
-0.04397688710157843
-0.10829850073699565
-0.08592780882023798
0.029219882058997948
-0.012075402383324385
-0.036679342769445455
-0.020387645299690227
-0.0037328782275671823
0.017992956319407116
-0.03433429672841454
0.11418937929721629
0.1975941137347963
0.24172434419483224
0.04190739019079959
-0.29598942410050966
-0.05492772779134991
0.03107484204547417
-0.1583950407590981
-0.7422217200014333
-0.4443251938006001
-0.05434621133372042
0.052673883394186216
0.2347440081472576
0.04062902111607114
-0.02297547002842648
0.2788047146915198
-0.05534938234172504
-0.3708683850883203
0.08672591267300445
0.4350668660312129
0.047786326242492905
-0.2567686529287818
0.023520899343647095
-0.16504514556074668
-0.21911912248124565
-0.5187825964453698
-0.23755119367366606
0.5071862941535898
0.07015179027583929
-0.04604746341405941
0.17008091284441962
0.5264890774530162
0.217499805407656
-0.1230570237677222
0.13420559996322545
-0.05266929989421726
0.04485706022024888
0.011457127668394018
0.07805667174557895
-0.04277519406268315
-0.0120508462584763
0.01630331361937054
0.10720760493701287
0.0012039322105013017
0.01476878351187405
0.023064771902708836
0.01526868693355904
-0.050591798618260464
0.010070937247643741
0.00408218194642429
0.0850743294772276
0.06682693396020734
-0.00304669108333111
-0.009450925905375551
0.07322584782291414
-0.014266371258051136
0.064419497787371
-0.10342317277324997
-0.0267031383468444
0.03311476278995423
0.009268740766064432
0.011222473438175562
-0.03779507237103119
-0.13162616387426018
0.0988086530059391
0.012368559901919873
0.010280670650975376
0.022670511973778007
-0.04781507472559032
0.24418826657683512
0.26511306681661106
0.2886566098818275
0.15888493918293678
0.15750265682822784
0.3330453960121118
0.08583078918148779
0.07162771019600167
-0.06505927779221132
-0.02110959448123384
0.3788192794695431
0.23002673767279513
0.035718182065399784
0.04979240798696416
0.19097619743389793
0.09451806050551359
-0.14098416136459568
-0.06176138967614375
-0.08184397946294031
0.29595037569129734
-0.1320411642035888
0.7940273784918044
0.48812877777125685
0.10836271419761401
-0.2951320014755858
0.089736389014893
0.13491687950858688
0.018349457347529796
0.19912011845783173
-0.1233075954787819
-0.06176574863693074
0.16071322756990658
-0.006680976673582639
0.024262548946587414
-0.15879113053903204
0.052998539951555346
-0.059966961290716325
-0.03634908458386377
0.0692586544109437
-0.005116893839636927
-0.029105472323510073
-0.06934803444509785
0.02948252980127397
0.02849435083679841
0.076274696902903
-0.007737285133237792
-0.02139947611128956
0.11918064678567852
0.05802387293061417
0.0212052125847767
0.041805616092954634
0.01452081517541115
0.14295763994119914
-0.33742129213339445
-0.1741579206472751
0.05241415284677842
-0.49053455183851685
-0.30272715166875397
0.08704815381991093
0.018978552241783297
-0.00836926127610893
0.037676740399140374
0.016888060989795117
0.050261698310903324
0.048564818296095824
0.01640724291124185
0.13502326517763263
0.4161437410904292
0.22780912229785666
0.06001674292088088
-0.3031644462933911
0.03066484882000675
0.03541909255794007
0.7674965026174863
0.90559115415622
0.43968599325703095
-0.022217849084751773
0.8834599735595541
0.0631539256675242
0.091701865935645
-0.020424243393083685
0.021335289285883685
0.022197237237060352
0.027802437629594223
-0.18616203094231154
0.12550313308369798
-0.0002399168742809321
0.03765180921227662
-0.10522938988313646
-0.0030581664568443134
0.06485288228162278
0.05948055060434909
0.06558098193568651
-0.005641657107319342
0.02619322117196987
0.06878456007616374
0.03486305582535365
0.019478496708703164
0.03303984517658132
0.027841468631499944
0.0671108322123502
0.03382301043177255
-0.00911341988797193
0.056481442482837374
0.01989524701555373
0.050698962471170894
0.055214774336263595
0.012900855002719036
-0.014606520714851245
0.12082252231638202
0.004487047828794555
-0.022817635215720722
0.005695808542583114
-0.08267107922798655
-0.08758672938742751
-0.07582999222399744
0.001468391100457378
0.021990749856894642
-0.11902471275665061
0.0745950731870676
0.05689278149964361
-0.2165066687206776
0.07361360453249954
0.12347172132930917
0.023990713425459775
-0.05576625101603594
0.06736559966868882
-0.08110992218005397
-0.04015628857813058
-0.344518380765209
-0.4076443126540157
-0.16024361881766724
-0.2841727866065067
0.22647052590877514
0.06553137598976111
0.15457357381111336
-0.05987783326220453
-0.12810627527116925
-0.08283328183365257
-0.15282797032734408
-0.5886861813093656
-0.17521889319571216
-0.6110275718061087
-0.4286601972805473
-0.08934590147757282
0.021080248140397106
-0.04246538835407343
-0.038573365271685645
-0.37896359077107156
0.04841202183516935
-0.22179510770195754
0.10677481584906312
0.08991669701730398
1.1241434726697994
-1.0049302437416483
-1.200165952589945
0.17262203279509958
-0.08150115600801122
-0.05625890766722552
-0.06881711075440755
0.12898877144412424
-0.02670931279887767
-0.11892800113600688
-0.08128070909250262
0.04724404136148885
-0.27282204054066905
-0.029854065631024995
-0.054359841885112115
-0.07792517096683638
0.036092493455205044
-0.023897618910773133
-0.015298158618535673
-0.017961523466442864
-0.00158771027639093
0.10146281807731228
0.036329133949945636
0.05522221527910509
-0.07305104738940771
0.02278226682742357
-0.02619523248762823
-0.03146919699973216
-0.025264822711817514
0.13515049755817532
-0.04595549937005239
0.032307684141534065
0.02007086219244919
-0.020364908652713898
-0.06647149894811255
0.03612364326901307
0.018278140720561775
-0.0033880651589812683
0.08991594256405777
-0.13326008537215595
0.1283491108412793
-0.027495398252655234
0.019161307934027927
0.04938283722364034
0.03772546707180935
0.09083827477810236
-0.11190980988390264
0.03558292173757438
0.04425046595180132
0.006045941194992188
0.013354369666993327
0.10904733487516893
-0.05605119549844417
-0.027529876632833128
0.023294503019940627
0.02969653910014708
-0.04594963128094143
-0.021634088465088464
0.03391829189215789
-0.007882825736214072
0.0193317237845953
-0.0636904849394081
-0.030560127929916636
-0.03751665288889505
-0.008642333480611497
-0.05856792733439414
0.006732769517256376
-0.018352568512609135
0.05864032363615579
0.061742343730076144
0.04611438427994918
0.08295181944081564
0.07785653587239183
0.062336819439790525
0.08729729168047529
-0.009470145687359821
0.04877731659992568
0.015173349257454505
-0.014984078376934329
0.010786167773239319
0.02386580438114616
0.03826494827357979
0.03463207354976672
-0.025081059841195075
-0.048056391913716856
0.09010979579164169
0.00872749893129754
0.03343234468514139
0.048146569483618284
-0.04959207820619105
0.05822841401319723
0.02100053596021989
-0.1393121143601359
-0.09404357664931551
0.13014338800432435
0.0051854459481867066
0.001241054280513576
-0.004262314093154584
0.0347714533427092
-0.006626205315336808
-0.03919518413808343
-0.014868176245251274
0.18050438262490365
0.007831242929474347
-0.17351648644431794
-0.10348684957917964
-0.08738697006747742
-0.4074643114763732
0.7846221292473325
-1.349575268980756
-0.35415765648046
0.3960606105272886
-0.18613197381443913
-0.315573425337053
-0.37639331947787924
-0.05594001254332004
-0.0009232381863398809
-0.1558780954199313
-0.09816876371376426
-0.5974946951064967
-0.596066926243122
-0.06658030814068006
0.153088770398768
-0.07252004885793384
-0.07048868583008339
0.41488307365327604
0.3213731675006244
-0.02217591082548398
0.00524422940395286
-0.03666839074050354
0.0803381126410404
0.0033116729638924536
0.018585354081085748
-0.20053653070923783
0.0006300821905980136
0.07230393240936095
-0.15018610098545504
-0.21887424591711224
0.2761402444883524
0.12325046127933215
0.040329420075168154
-0.040547412789353365
-0.010281875008123886
0.15806006074081924
-0.005409808134359484
0.020820654747350342
-0.017362663718523408
0.02668625379844236
0.05835789069602537
0.017065545400875903
0.042426639352327156
-0.12260744502072174
-0.08567179609595921
0.02743854787585631
0.07800067284040368
-0.03351593367015582
0.07064048528182598
-0.15357733606609492
-0.045146433315594536
0.08498315636077691
-0.04720549491391657
-0.011601324126408574
0.15295295095248618
0.01497928791318337
0.009767132390849032
0.06181056964614573
-0.13482005646884998
-0.10131972906121833
0.09276685166568754
0.017216457339102043
0.12862322866676723
-0.07675487705575557
0.03758722353427135
0.02138617977940316
0.12898629009917828
-0.35774717960948843
-0.2685666065216463
-0.202615434027001
0.019619473808160093
0.009574151462820257
-0.0366898035471519
0.026217394059466992
-0.06588928669539762
-0.00037863569884255543
0.013528869972857405
-0.006458188633722828
-0.012985456163409903
-0.03877569541991621
0.07337959668380911
-0.03530060264021173
-0.026734127999456403
-0.14320420173428738
-0.11976348746279375
-0.16423495056057935
-0.08147115964557106
0.09295079405807849
0.05577981797893394
-0.11323826620358757
0.006583759916670928
-0.1092088665208385
0.005384413265090537
0.18808001864016655
0.18005902613696678
0.6349214383176283
-0.4691657700665688
-0.35551714430542836
0.40750011779250217
0.533009070489074
0.18200058984937506
0.41067894642110936
-1.1693484192768042
0.2302745549782932
0.3992984495440095
0.07632871662315921
0.33179890914565036
0.1975038603084318
-0.6380155933296686
-0.050242222474460974
-0.2928126370622426
-0.4235450348680674
-0.329797373274849
0.13252896277765158
0.020658094471342814
-0.05174145348240611
-0.04407465259064813
-0.1856846848127084
-0.11621869217019487
-0.046508300240788
-0.0661169228552374
0.08936615381347357
0.11989173742507986
0.015035264067315701
0.05215117011904358
0.0983052493816452
-0.19899989671755558
0.17239612719542352
0.0829806976159867
0.13939904331270458
-0.000508900719373373
0.02115281037469352
0.12226251441104052
-0.2553301707643205
-0.31957814102509485
-0.14845844560128896
-0.12904557427380348
-0.15019334102042414
-0.10663318677859701
0.04015562969054437
0.05768403810365719
-0.01399582531191712
0.0944489351606923
-0.18415199310897734
-0.07072068680019217
0.05512813327684074
0.05448213296429649
0.07198697729856007
-0.07001512861167436
0.0403513927629352
0.10448322928179032
-0.08339940312921845
-0.05539929046545988
0.07710232021946117
0.040702429802219386
-0.0936427133623492
-0.09286772902575402
-0.2794730147383362
0.1683110080244148
-0.0953673268031674
0.032334921035545916
0.3133421941530785
0.17567291670152851
0.21635451999052124
-0.029516381342748255
0.12035415168217556
0.3355497769343714
0.004698625578755333
0.25503172766343774
0.4347949677862615
0.690860028409984
-0.003966897394859892
-0.04115770314705802
-0.14114565344538033
-0.037866967280867914
0.137092387381883
0.005868778217730353
0.04191779699403919
0.01949670833647099
0.026363551544762887
0.0037365507731558223
0.004974253434730347
-6.456512884955856e-05
-0.24781894860632359
-0.05382592361397487
-0.0496320218336741
-0.009213876535903665
0.0710019471832184
0.03397059565074034
0.19617268030923463
-0.009358004536227815
-0.16520571418515395
0.1244441878125444
0.058609161480716265
0.5698720036155045
-0.5726300210812383
-0.23270823912579353
-0.408721479652133
-0.440932087077067
-0.6381659101867663
-0.16136656303713548
-0.026308968006938493
0.02579014404472324
-0.16391227997563984
-0.20902976654159966
-0.22181920231864227
-0.3908658000829792
-0.4588333139273635
-0.11403850289962136
-0.0009418470220368125
-0.3736062580451205
0.054225780504489896
-0.11248826557669545
0.08173336589095093
-0.41393491277586314
-0.1440672663413367
-0.396972129314503
-0.34191432654042786
-0.3550447355405586
-0.16626657055906757
-0.3004411844109881
-0.1498179266401597
-0.2924683585371586
-0.3404198483963654
-0.3554714094274307
-0.26264453336808247
-0.08854324639372813
-0.0010364155654513096
0.1124897029702372
0.12624931507579396
0.1339657047355569
-0.594486907870764
0.02941718221828049
-0.19706875739912016
-0.07588873872805657
0.036570406007965905
-0.05562962346756972
0.09694423010707043
0.16241088056221908
0.04095136053381643
0.0572465149711594
-0.009525245525429882
0.007456239029437706
0.21465698093667518
0.17371336458224018
0.181530937682036
0.07198255584194668
0.053666529208933555
-0.059399324621366933
0.014732783275547612
-0.03525901152303895
0.006290177012780229
-0.00762650651711938
-0.008567603938286261
0.07127447192585068
-0.3973600375325441
-0.5171580662798494
-0.4072353426500266
-0.1863289329830029
-0.31164441516946106
0.14273277325887856
0.15965069297379664
-0.5740717669037947
-0.22949997755511986
0.04998479638292208
-0.10476184921582643
-0.24993558756661216
-0.07899541719567793
0.08167937916119805
-0.3962591009517502
-0.184345078019841
-0.29462306045195785
-0.4001416720928517
-0.40979561574350365
-0.26127626356937794
-0.5844938723838595
-0.4256559898602603
-0.20976486598882893
0.23183251586191034
0.05783689984244322
-0.6344166308776895
-0.07204390821693885
0.0485484919520891
0.014588457331065285
-0.23041401601744194
0.38665215015955656
0.7590045615904151
0.10417406221554382
-0.30363201205396306
-0.21320520788681518
-0.1565274388063579
-0.07353530510167183
-0.10381531272839073
-0.06848298667476616
-0.12338758051203569
0.05690402321359289
-0.31287606425259185
-0.08493984026904
-0.2037674888149097
0.1566695867063408
-0.045772301284593864
-0.18349716169294716
-0.37915884841424585
-0.5046365215533672
-0.08126260622907222
0.15518725793369104
0.02718635391686952
0.04301706595886001
-0.07403484924490589
0.03854298928057465
-0.18841452360095712
0.3170948822957649
-0.03166209386019192
0.32113304709714807
-0.22102873643690701
0.3377985192763431
0.5434386497547568
0.38800299593308485
0.1314508547557649
-0.22353956756987614
-0.16004821924318513
0.27465519225340573
0.12129901954285183
0.017916263664155663
0.3098369622895971
0.26679990707585377
0.6101611985145334
0.5851531180094818
-0.055794824760729944
-0.02063955263072098
-0.03183340102946869
-0.01360937038850607
0.03365481945566229
0.10457127377828734
0.17261681195250356
-0.07601598891003469
-0.23779575404623732
-0.04561967894681107
0.03506164246325327
-0.08259460406686792
0.23013360750651324
-0.32764023678844034
0.2989826105732747
-0.1381199633519279
-0.4929287318392024
-0.00028985609135867563
0.014854080625056554
0.05631656812583008
0.09106363954926178
-0.16806890414721098
0.12838906003062878
-0.1943263552819312
-0.7749189020972995
-0.25968345180117636
0.06701570624833808
-0.3351995475678873
0.3275253353495611
-0.4481443544247061
-0.44441845612650166
-0.430575369474671
1.6085115847799152
0.0858670269837638
0.07880597026206293
-0.02934594941259694
-0.2654551991249554
-0.0417450025681414
0.10288490236494763
0.030559753065325324
-0.11650360042054653
-0.07476378139475226
-0.11300727224526652
-0.09159874160092984
-0.08899350611912382
-0.22920470627650302
-0.09732637536478439
0.24075107045696442
-0.11808483003964687
-0.24437149107684797
0.10444847881009833
-0.2732453580973928
-0.10268997864126128
0.026535643595021363
0.07260056776039514
0.014851029526844362
0.05393336891327688
-0.032376035400006775
-0.03485370829970308
0.07004997188201967
0.044901576945931
0.0499582398405099
0.044990037056173104
0.07418320773343867
0.00941783562273879
0.522108034769384
-0.018502090634019086
-0.020737785125079566
-0.041594477922619943
-0.01325025000379465
0.0297737170621315
-0.035721274212154874
0.024352237854677328
-0.07712185167295948
0.03515933378773517
0.055099571896542354
0.4689221806249586
0.5619397464076046
-0.0017616115768017693
0.00916725790346784
-0.04572445183223528
-0.03537870301587964
0.11947930957347919
-0.003566652651618263
-0.03483121412995849
0.06705948812296914
0.014675092854446126
-0.12176585377671811
0.04768174983978701
0.12676344010222473
0.11977509514751683
0.04410173736290879
0.08844503125088787
-0.009921506019010096
-0.06609401103963675
0.04654629229410906
0.004057813944732647
0.054588147261997066
0.02243962435601854
0.02134950459573809
-0.02637328763123331
0.046658413394463305
0.3566994834071997
0.06600350813256761
-0.03507052579656467
-0.011710111129939582
0.07533759171624288
0.07301992366763654
0.4988263124737067
1.3947770179342625
0.7391595006922191
-0.5350531965398786
0.1764843192864971
-0.2852494716787324
-0.4039846855760105
0.1533056702319362
0.17926145275242966
-0.18054681516002935
-0.3950902829209102
-0.4599384076292048
-0.4324346382133757
-0.37766617429193583
0.10827042875733595
0.2927472020123254
0.2144792385080878
-0.5374264413075687
-0.3353407890969988
-0.2662222756129462
-0.4851442945607727
-0.23985824281357382
-0.3865875157568748
-0.1934108279740513
-0.17490115729911715
-0.3886565945722955
-0.5665557547203276
-0.5415621720268275
-0.07591731124212409
-0.018277651196945355
0.2736007532273703
0.08661564513245934
0.004950550932003583
-0.4940426944800824
-0.20621835108219044
0.39371855907732867
-0.5441201254166974
-0.35271342074342593
-0.5309144256586114
0.3006062209794713
0.3155682180521433
0.3357988996679371
0.7992936521492493
0.24792254843143136
0.192577245138148
0.3945379465346752
0.3258798067825448
-0.10892023912051396
-0.05119463856977369
0.18384739129470606
0.6191342273541638
1.0994272325334933
0.7627835477026808
-0.38271094439721876
-0.46584439713498504
0.4341234816125743
1.1308022900121797
0.030994043668850724
-0.4820364072272345
-0.48682006757736085
0.58660502334854
0.2339089056651984
-0.17178627042850003
0.08360930214026929
0.01332045115235847
0.020705814214563634
-0.04826234174042987
0.004666312070289225
0.0850271412182877
0.12450071873429436
-0.19143273553249296
0.08975248268692715
-0.10983336752439188
0.00919596767405495
0.016009238850015595
0.08730163775288613
-0.1026073718564895
0.05508582469609569
0.002030818212968466
0.012341419778120644
0.015369234281746413
-0.0008614723698898707
-0.04885027902893252
0.026610536252049455
-0.033415009307558474
-0.04970776237875718
0.11432289455679756
-0.0850689486701095
0.034540651524262556
0.04540868980936974
-0.029998465146257924
0.04316754174238002
-0.0934203871018211
-0.14885198273673061
0.051743576102990296
0.02787114228043497
0.07808969399222176
0.035231974316371484
-0.15360881954570882
0.0043507238137093784
0.04625930061800543
0.20040386208023186
0.14820757134282703
0.2172358884070027
0.1633993504093978
0.1398483984612
0.08228858833711516
-0.1337064554605345
0.004841406374933244
0.015024890824258952
-0.009879136875037553
0.039424148361355826
-0.04560888255057338
-0.01032987167371946
0.218488525557067
-0.027727609464700542
0.038296088953731044
0.04528862449418625
0.05055691212473312
0.07074784982274018
0.14280984600305868
-0.3308768706455808
-0.021930638532021596
0.13316065619195872
0.16357086107172147
-0.015104464176551646
0.21566491020508005
0.09097253608504463
0.07358933281377977
-0.04241474998005568
-0.036993718505662354
0.4576045375243796
0.5745808802747294
0.09959712882745975
0.1599938372662757
0.043347259884767286
-0.028938197701202095
0.0763313947834201
0.07156288601702465
0.015070666061561155
-0.06352357687142174
-0.01139638180503566
-0.025983659974289197
-0.02549044727588884
-0.01807295920633545
-0.13574589071573406
-0.04990866332434907
-0.13039883990885115
-0.12420207863948984
-0.34808860861720425
-0.2605277483494969
-0.12294002591219388
-0.3322222730833925
-0.31563016654173076
0.3635558772401437
0.14519753752887987
-0.03981904779216716
0.17371896617352456
-0.026079729064881985
-0.12908839549644846
-0.26823600449557894
0.005100048365893839
-0.003512458439743904
0.04484916194599137
0.06025953108798965
-0.13174004357484792
-0.012225443966038418
-0.06531402610956283
-0.3317839609650446
-0.1256240380565461
-0.0043542671296736835
-0.11796155724658319
0.10477387955177608
0.019303873169640773
0.021318572743611874
-0.04422686195682757
0.09469644871296856
-0.07315714521233252
0.2985664327045243
0.30304738804129716
0.0451736475294231
-0.10127398427803203
0.006203181247428802
-0.04012762892127719
0.017327565720584248
-0.015758686212490547
0.18926389209139938
0.00986732631344589
-0.0019374717346065662
0.0012306491365061678
-0.09700301122379895
0.16814415739093314
0.003168430853627613
0.012180935134991522
0.02918338944672738
-0.05442211525516649
0.0009582861042769508
0.035911953072551905
-0.013969406280461671
0.009787884279642334
0.005445051553252922
0.002765441839595595
0.08758470977123411
0.22735771895151635
0.026124687219956477
-0.021393030358749898
-0.015131017091594923
0.07881605223788168
0.11958223780903088
0.020700173260896237
-0.10529134947077923
-0.061393183306570176
0.02248970802162198
0.026908367294231905
0.011009312603339927
0.1932341938489075
0.024765992643457524
0.08984421999397174
-0.03195733674193757
0.04803944749025135
0.18224500186388237
0.09143077675373501
-0.037844591298430874
0.012519398829927142
-0.005627890182603845
0.0035575746036436984
0.0002847812773817404
0.03292790901857667
0.0987920800972184
0.10097688166481233
0.040043317739453355
0.0068477495588930015
0.006143369419837064
0.12464266380895161
0.09622234365311244
0.3371146517768764
0.06109837263410889
0.10266182130900214
-0.024102036279926242
0.07814790808359018
0.07787058715591966
0.09496270612882085
0.062070885160923406
-0.023140732569040923
-0.0182275038354624
0.06502047845740105
0.03278640416387546
0.08713810274438427
0.016832049171910446
0.05204906274455867
0.035629437810052345
0.06821817137207564
0.01575709269484432
0.0744791505954322
0.004719651659820023
0.060308540203551475
-0.026811917995625323
0.1837926479638512
0.11413807021111178
0.01643736624343406
-0.07441282514849357
-0.2238297894357274
-0.10857673346835339
-0.036547276179240695
-0.022218667222930977
0.0005522892330296347
0.1480949663601946
-0.06874913631864166
0.07813110038949211
0.012385850385179864
-0.019984336161258
-0.03823808402164547
0.005975607613548262
-0.024339557290190994
0.015789197833498858
-0.03839977330979538
0.189667234416925
0.5666738561138844
0.7647702849175291
0.2596009312370058
-0.1012542434083043
0.058071393419039774
0.08876619823819154
-0.09178004213364355
-0.06979755147781519
0.08029864748556514
0.049915670526213596
-0.034189062260822634
-0.008533464945901237
-0.016813469422953142
-0.1307201670977387
0.08782696104635379
-0.03468711364475441
-0.07937413383650571
-0.2299937682487776
-0.2127393228275296
-0.17942151415327712
-0.020069666648065088
-0.35728795502978894
0.07178916055557583
0.2282346171936851
0.7208498811628603
0.5933239281179246
0.8438748164319287
0.0007430777328965021
0.00700661216311782
0.14835191688976068
-0.258269266992351
0.011378061695379138
0.002371404676582256
-0.06940561059027617
0.01546355283060541
-0.035508996209565935
-0.009337097297408503
0.03714301047716384
-0.03166088517911669
0.00940464813204489
0.007528401882512692
0.09412724146625207
-0.002291925726342958
-0.15439377282705447
0.03830124627556608
0.16241551555166978
0.12267374002038967
-0.0302723673128511
0.0560563419883533
-0.0035516973273315156
-0.20991579700564023
-0.48574447541018695
-0.23221960482270132
0.17612315089650954
-0.039369912722657996
-0.7172350802039655
0.12143337395530285
0.13143036222451832
-0.37251179683535196
-0.043151176837257
-0.37093263448590363
-0.4494349015076673
0.3177188587133508
0.21299772788529348
-0.026725673907436964
0.0971913526399546
-0.08326074655867521
0.07331447813881398
-0.02638398768645933
-0.11061234363944794
0.30614636676181606
-0.005638988141606349
-0.3735887648395475
-0.10790389216217067
-0.15406148338028514
-0.17036101884702592
-0.3728263273822663
-0.027798862717878903
-0.1135103608164203
-0.02798799702248811
0.0038780065547726617
-0.3453883240311919
0.00843876785323161
0.28086016974322714
0.23872819174461402
-0.05178972321474262
-0.40132461730741165
0.6432374065173994
0.12027960273331573
0.9742039005751479
-0.9857496758026462
-0.18271260946862689
-0.3560213071747643
0.3056722765413822
0.10073162887790321
0.41148454249159716
-0.32933888026835867
-0.1422757449379386
-0.10943235305124921
0.03536075240147307
-0.03696328113404507
-0.2197253245653067
0.24582110125441703
-0.026016912379467683
0.048317807248499545
0.08297548478235228
0.0912594064857919
-0.0480842168111803
-0.06126230977830738
-0.08124619504496433
-0.025390135378864476
-0.025131306993872338
-0.03246438396184603
0.04291022984055537
-0.06717132381583224
-0.03843263182357587
-0.04585711576262291
-0.04090808285341341
-0.0825230740705919
-0.10466729380291173
-0.137918978606288
-0.101611167169815
-0.20924573834292826
-0.07466824638031422
-0.32660249053812196
-0.030863431309919642
0.03176690220207434
-0.05104234699981691
-0.129134324872747
0.16350611466690146
-0.27219606565032706
-0.40593999912729517
-0.08390904337447003
0.46047784718775375
0.05653209175790863
2.6310303308088967
-0.9695077577427514
-1.932397699868959
-0.15964880235837547
0.3179784910683586
0.14606102587845826
0.4060257232630482
0.29979031729593264
-0.2662296057811878
-0.45643733790475666
-0.31503213826949494
-0.38635296311077993
-0.059354023929067634
-0.1315791262088628
-0.5884948977064162
-0.15675178974202397
-0.08196880200082979
-0.5495094666142726
-0.21425078929102304
-0.40657992806136933
-0.5345363770160163
-0.2510328594589537
-0.07974539511745382
-0.22590143067134694
-0.293995552593977
-0.21746958509396896
0.0893848427027184
0.2226369735494269
-0.24997241767767053
-0.04467052296012897
-0.42092082471584646
-0.18059784417211078
-0.17770657698860748
-0.20003650297975628
-0.11815360204442849
-0.11828648643215356
0.5072210497760561
-0.06604795854703438
0.07693510032748563
0.2780312108917804
-0.4285620442693101
-0.3062617792515421
-0.33275682918144156
0.0487139792398632
-0.22625630585896417
0.01760252800836115
-0.24497099631327046
-0.042233846002005304
-0.20461399741627595
0.26615131333629627
1.1455402049902386
0.07687039325146372
-0.020683439062035625
-0.04694369636200241
-0.04868522182832702
0.01067345409347864
-0.021525765705341038
-0.0553961607141073
-0.059589507797180086
0.04921040806267962
-0.05781821547049293
-0.2310262121348181
-0.2194074992283832
-0.06883885358286923
-0.05250580795457305
-0.013524063886894755
-0.05095093993618338
0.014526611485723318
0.12959711340507785
0.08151356785626929
0.0350363653692819
-0.026468785685702767
0.00790223343426566
0.0019082981958566947
0.12831404847512573
0.02857026104856375
0.004432271487345041
0.017295455073681687
-0.05317721344276627
-0.006384960303595422
-0.0523808053620608
-0.0021650595273551287
-0.009667372908198302
-0.34484665551801263
-0.051706636175428033
-0.04963041545057478
-0.023216451134891736
-0.0006461901884614596
-0.058431982534710825
0.17378793303932483
0.15797876022505886
-0.052177359736473305
0.07451667180475419
0.17684646708722251
0.052082660586510565
-0.08981552581705632
-0.29342164695860795
0.35908717757733166
-0.3876810785681051
-0.14799534796608826
-0.972336412157506
0.6147267162754972
-0.01811732669435928
-0.04852649849851609
-0.20661274643401106
-0.2096266346159743
-0.001253059707769455
-0.09633356700338946
-0.09214342667987763
-0.116511172774042
-0.0752666830519354
0.014581643890059226
-0.049854169143657145
-0.02745743410358803
0.10156701939072088
0.022888040210032323
-0.06650894672255148
-0.003480876962360435
0.0526797895107447
-0.05982627909293736
-0.08449737123751244
0.051620451912140264
0.21267131780245463
-0.13725401747058164
-0.1157493786007262
-0.050158867510769256
0.02070431940752704
-0.006965786427256315
0.03086149008730793
0.055050500605717256
-0.003243877145070573
-0.0019051212965519593
0.005867552450285418
0.05053380435295396
-0.005286717677241759
0.05671440592693877
-0.009720977349373161
0.0037895157751172692
0.04843479334957301
0.052175655600998405
0.03521325373135342
-0.23828947976356765
-0.39021590786219795
0.18874460329676268
-0.261170206603517
-0.0509527421306466
-0.06116718546237354
0.017766753637563804
0.011361649680458885
0.09469140554679112
-0.020528561575737014
0.01973780610603093
0.055248769578888246
-0.050724578530086606
0.028365982265697143
-0.02193893876343128
0.1342997475011748
-0.05842237599089056
0.0916129505623946
0.006012731168808072
-0.04870753419076923
0.034686816422698497
0.05231485815135428
0.1408064069240349
-0.09884979608614985
0.1414261259754548
0.11892916512038632
0.017471920649694994
0.012160592988586072
0.07373900694415336
0.055532861981902104
0.10123986877194868
0.03405711439612613
0.16989077021213927
0.18300191711593494
-0.0029355040747132133
-0.09283324468894105
0.19510984272164622
0.06406573138991511
-0.296121960061841
0.10337118359754949
0.07950877594441341
0.1321371054882694
0.018622124361769687
0.2267258514371182
0.05844153245337824
0.024439918416292117
-0.1213187802274579
0.144721953210447
-0.09416651564624323
-0.054338016116141086
0.08521480988380392
-0.04582806953089824
0.12025271021272199
0.058355333672980736
-0.03986479600371251
0.06320645573488609
0.03688302214147715
0.1907303071616574
0.041168610060018596
0.05727508099499523
0.1206254080426219
0.03592406929734737
-0.014220337152802853
0.05212930249209591
0.029929825836441548
-0.08023298896438935
0.031216001012707495
-0.003492171318243642
0.09428139969840488
0.007598186405459173
0.05495705034048348
0.02721979301810573
0.0021214122331912333
0.05930957525624947
0.0427989428624288
0.08896792219292082
-0.030819291139552507
0.11393861619453727
0.04092512486434141
0.041519483264825685
-0.016703048105098484
0.006059889586833567
0.007841028077350876
-0.026823037653618875
-0.01536111768813464
0.021296008155232637
0.04948813791591011
0.03127310497150371
0.11886495058726831
0.015621126656510831
0.034837596259226444
0.13139448179836122
0.02387161217841749
-0.2422540848886463
0.35297760044099125
-0.14489401716510686
-0.15561083344662174
-0.03934161874947195
-0.04335314508421351
0.009956106181191582
0.005517687795878856
-0.0022452151342491344
0.02658049480127178
0.037274132597819865
-0.22165403352278235
-0.2656084714229774
0.15364982130973392
0.16056208507448666
2.948523956130835
0.4723655138581213
0.3488045603438934
-0.1023776811863164
0.12004900630394655
-0.1499127574255683
-0.14802635226104388
-0.30054527539140663
-0.1156583271461682
-0.3367699115316709
-0.5299522398669938
-0.2796297857835618
-0.06473380199900047
-0.028550254286639487
0.013952500969787285
0.027398609622883097
-0.07726466787741615
-0.09153876121904625
-0.08677824298651182
0.05747377865084824
-0.06501234575346365
0.01812414001304352
-0.02037411316568738
0.037296552283457185
-0.06454979855337839
0.028321864318681333
-0.24814309148431202
0.2035841090848174
0.022640130284370286
-0.019013396130271976
-0.038649076316358166
-0.02774087094314348
-0.018575294698485678
-0.03342096075221196
-0.05333629012285612
-0.04964543393508403
-0.005336211660909751
-0.020804347897499464
0.04165887836434656
-0.0759105663779297
-0.4107583351877804
-0.365258197134664
-0.030510099599603047
-0.06714373275421293
0.032788074391063904
0.015604926006695108
-0.007930300746166297
0.06865556031627107
-0.0065911546113992525
0.12639592115835208
-0.10526197546276894
-0.06419252618010796
0.12876381886555155
0.039805831926280066
0.011969673846967566
-0.048142186008172216
-0.23105911353000075
0.019124955187185044
0.03113048555064435
-0.012541933008555162
0.014221927362924491
0.012419274414372128
0.0006263042233752847
-0.05197612010224584
-0.034668059460538525
-0.035212972342886784
-0.011290375017080523
0.014870637623245586
-0.03492119557123852
0.005629679399170862
-0.072852584063688
0.05650410598486566
0.00931447316187195
0.09236313970427734
0.027758221962175034
-0.08563231939223681
-0.08107245988354184
0.05447750707984822
0.1027552367787321
0.07549901987851881
0.051639741987257626
0.008621540122553784
-0.10087079915235797
0.10171493486102656
0.03922224059810575
0.09834143724618283
-0.013476252986699855
-0.030848247833335285
0.030737299081846303
0.009712169000377524
0.059387156930369
0.07534765363166895
0.004648254219913717
0.08620043538217437
0.09113837586361939
-0.017992716499019457
-0.02760783673948375
0.03565057204386868
-0.07996312659418447
0.021608022651591008
0.02616517370835969
0.04205574492397224
0.08024582038844275
0.11598013025549725
0.03846670439177391
0.06761355482012066
0.0629398303442098
0.06226887383513735
0.042029734450973244
0.09732517262990892
0.09242705149249203
0.09588960563628235
-0.06591920862165385
0.018015281792486015
-0.026651442314935936
-0.02703474383663501
-0.005300384608499353
-0.06454188007692285
0.0435786475563249
-0.02053026566189492
0.019865451310390858
0.07458428413417273
0.04804062196504544
0.01782262426531911
0.02467855551059156
-0.03563678531064951
-0.0017466692277577356
-0.039835268372522825
-0.017479477177002378
-0.040597485146290635
-0.0005780628788864539
0.19739101709001217
-0.01142979881699685
0.03023186782054299
0.04285485406147277
-0.029657490615030535
-0.05284927150090668
-0.00411675938920536
-0.10141850363553129
0.024192853389523594
0.0006575501848964382
-0.017800844522559645
-0.030210884254456283
0.059736259450243745
0.032817162007550804
0.23130718629500735
0.05175276022517583
0.07362080627894907
0.04469086121361654
0.28421344593868825
0.01911451420678245
0.058948462178810224
0.05058176580394225
0.12835442074017123
0.051977729075641355
0.0006853917946016419
0.05711100551996762
0.03205023474960067
0.06845561035554015
0.08160602616367135
-0.02131188031656822
0.0047924224703794205
0.010531308941630957
0.008160588084341447
-0.11684656221635203
-0.021265299208624855
0.03872964312800059
0.0613015660287477
0.03609657891996054
0.04929045605735005
-0.04841303039507683
-0.030223504774004817
0.10727924232200292
0.03906249938889683
0.018078434609481997
0.023425102432209022
-0.05263191254848315
0.0023541426730143145
0.021521675846566057
0.004153452922399659
-0.03509149390678301
0.0005860769046964753
0.11309562010519536
-0.08586442829308338
-0.10048244120021532
-0.01615923818160414
-0.08373808964111606
-0.024810904140245893
-0.03691121024120425
1.0707724514694807
0.19869557905049895
-0.13127728073300382
-0.2306333565416232
0.07090019823493754
-0.11332076717362571
-0.0976435867052664
0.08844821169470429
0.010429834023804596
0.03799323935677279
0.002850149473568764
-0.15261143807747857
0.0818408177950588
0.05043642576961932
0.002074300885563818
-0.13893003553086314
-0.0554548803497088
-0.14262913028225332
-0.2317940015303218
0.030257202061601263
-0.04689619598674932
-0.11898827575353332
-0.01906794819803731
-0.011432083307272023
-0.1038410716953892
-0.02343154027979527
-0.07201007466662834
0.013795731602320782
-0.07952221194806869
-0.010323476912852292
-0.0013882955883662285
-0.025194593778162855
-0.08438867369560776
-0.24996179225444348
0.02039820820358207
0.009896462649797266
0.00713305381429763
-0.04141202793745402
0.0060213592042117625
-0.002785844333606735
0.1212120114365316
-0.03127284379536727
0.0026551593751962255
-0.03296261718933585
-0.0402490507773704
0.053225448578868684
0.016200321721126565
-0.2735879215936607
-0.7440956899265737
-0.5288058323752294
0.07799972756564844
0.005139206715233435
0.03361730889111875
0.017189576401252182
-0.0021688226031817415
-0.03423164800392409
-0.11999118203883685
-0.041282773298430664
0.022090197979438675
0.027089809531755826
0.024950872391076184
0.04698728202240743
-0.01274213804683455
0.01300132245906016
0.04159713586263525
0.09675196163774868
0.0728610843200489
0.001671426806090781
0.08242811904388248
-0.11352933384147701
-0.014198899400019283
-0.10980333200157966
0.028008407853641004
0.006374618841493929
0.014563672038392483
0.1173386040139981
0.009595737931140325
0.190620902263405
0.006457437828520707
-0.10893345772358942
-0.017053721950041623
0.20569688621350823
0.014590789008839922
-0.01638667411283362
0.024124032504553583
0.027012628933583693
-0.012984307979218568
0.03907123490834857
0.10991142209421967
-0.015357383177776351
0.019064732508254245
-0.010353096895098557
0.052627760019665626
0.23720840398511622
-0.012664587289617446
0.06644801811274226
-0.009048350953752116
0.09451200680215821
0.07847043398980569
0.06462113514870793
0.03726471247696128
0.0009573802044096635
0.04898153831705898
-0.03838834902904037
-0.009900003379908873
-0.03114695871301587
0.07473218590722708
0.0038262506311577127
0.2416711686583921
0.0005463776897052242
0.07288571610043948
0.009999110964766467
-0.07010032746842931
0.010272799997366744
0.023865207909437913
0.09917388460840948
0.044042601979219054
0.06085198021599747
0.015764555163725658
0.07075590423003253
0.01705398089998228
0.07167778919980128
0.05534520862520298
0.09686364051936802
0.07773720844973642
0.048150032459985836
-0.08079969227084838
-0.029824508552176
0.11153400950643577
0.03158422446537512
0.02931491030802169
0.07727569113846289
-0.13176463692387452
-0.2809475143359419
-0.21635233654515162
0.027512189107874452
0.018174033363377085
0.013812337324669688
-0.17597512460552944
0.4090709640161023
-0.24759290666924083
0.37687881848016813
-0.034314981107116393
-0.0058450102351134126
0.03525685787443872
-0.043768242526455725
0.00843429061159262
-0.07361323947018678
-0.02923639224503627
0.004579911468751696
0.15419228346616864
0.005842868134460777
0.05954606860111378
-0.09143770990879185
-0.20569092034329928
-0.06392465612605991
-0.085064387192331
-0.13389383482132566
0.14920944084447063
-0.16921013222414416
0.008643758467164586
0.0655053089775508
0.015605951765777448
0.030894921391571517
-0.03705964544358453
-0.017871898608834036
-0.01994873170550948
0.020996813666696257
0.02001945617672707
0.00525962253594825
0.26617475034028737
-0.17722220332219174
-0.02731168042795007
0.12469848016117102
0.07938386953636178
0.1176531413046038
-0.04710367950308347
-0.0496645472224122
-0.1136130682519374
-0.4857354793653361
0.507442011827516
1.241036596414117
0.08148852172309695
0.10800656745595338
-0.012891644233805621
-0.12020463901893086
0.02688020747663522
-0.01289581465729328
0.0007363967462807874
-0.178638653496614
0.04529480745469494
-0.05560558394708459
-0.04042556057493796
0.09718672157646258
0.022434565286870378
-0.15898429447656193
-0.2016397904508489
-0.11497069308970587
-0.015635660574622734
-0.20153965547760166
0.007081084837907481
0.03865535313872115
-0.028018317460290154
-0.08523732406804507
0.010934530324064329
0.037852912090026614
-0.06405742068084863
-0.054440529796619286
-0.18956846011911366
-0.1771642852341806
-0.11654793767941829
0.2444659419595414
0.03395952195344076
0.6104102070999757
0.6412898246814172
0.6578285832529698
-0.012165312565815878
0.1713514219737109
0.0429778901491491
0.46934901806177876
0.17753295159672722
0.20494845169154186
0.1969294510039794
0.6199256002206273
-0.12918595888822826
0.40065584697941015
0.39109530273893434
0.19104272262554167
0.010886139744628154
0.012313082353133442
-0.004667711060318047
-0.01773554610726158
0.1572376919432381
0.1303733510064593
-0.029385456615432126
-0.05175030611635478
0.04007886211523737
0.09984647759999693
0.10993449930916788
0.005055977630258446
-0.4905470012098467
-0.163370491980584
-0.01236355679728196
0.06942775564941012
0.017869350519146288
0.07326857086626126
-0.006996100837883434
-0.07447678437475852
0.006670273630257406
0.07618580324607277
0.16332340429855008
-0.015538058237576202
0.08639067355013241
0.04807932121090369
-0.13894549126910372
0.10054330704961079
0.03349855879437014
0.04252067862386766
0.038122857315537106
0.04438382449000755
0.04319012240077935
0.08139373141095108
0.05842323712635816
-0.041421414497087694
0.036821007515939086
0.0970487654683494
0.10656775592987044
0.09210131170445002
0.08619728559443329
0.10928349460386322
-0.04116200205468956
0.00729018966079098
0.007606481410425137
-0.024081683556110345
0.0329093728817742
0.036683412188345255
0.04241795629961803
0.007230305326399733
0.027632199911223676
0.01650693541681736
0.10798282955285787
0.10308009084232861
0.023475460547940308
0.0643287313988975
0.011673468678292609
0.027827253821508524
-0.022176091069090798
0.033102641811478706
-0.2932446203820951
0.07647164926014516
0.16375318162391994
0.08956351889318892
-0.13144441873819013
0.0530733614990756
-0.008581540404774657
0.04224680497632627
0.02262837544214713
0.03837407377845092
0.06040884642368827
-0.006152674930966495
0.0032937776508158434
-0.007300107385407983
-0.0051330779842465035
0.02073789018618316
0.09253985836086442
0.008411995001997574
0.11579336407658147
0.06040568114353695
-0.02783897896569193
0.03477398206655813
0.16316366252990755
0.07579309735911544
0.016695997034919308
-0.0031501708039881615
-0.02000983178395538
-0.12899121962775484
0.029972706256340076
-0.012208625650817484
-0.00038522129722207143
-0.037314979927338454
-0.07748420524167121
0.04157903650953887
0.011033318211818965
0.04079811861973481
0.006998426310418804
0.020192148548008437
0.011935937796140439
0.03509846466405625
-0.0072983202625672705
-0.1358693141564461
-0.023645504029939035
-0.018326993588428264
-0.2711874642374883
-0.0014866059420568511
0.006205495420772644
0.013459917333699445
-0.055459349714411355
0.0680661198146073
-0.02866363086967061
0.003410269257245302
-0.1487140845411583
-0.25728165374661005
-0.020413970942464
-0.0819863791717006
0.17168620916665633
0.001354265078527428
0.048300898390778224
0.04175380014366881
0.16920262413148524
0.03951550894279787
0.08694667192909922
-0.12793062705536373
1.2791360282835602
0.25662560564921577
0.605090828674558
-0.8878377766161538
0.03547954448301116
-0.4455356848091494
-0.5470158251827208
-0.8546685713101778
0.07056302339926468
0.09020579825467534
0.03211014357206343
0.04585250354893139
-0.01542612137435423
0.04274562059163367
-0.001826812103550901
-0.051005707150477864
-0.005845097471313898
0.09919953001616166
0.029149622615179283
0.002637352877837562
0.05898965371282233
0.17416983683516196
0.003829605397718261
-0.027861995895254177
-0.0012991840536338284
0.1280346652212977
-0.031471565410310154
0.13240145484096288
0.3083247955506172
0.09650095827546035
0.024687204958045883
0.00826819985654148
0.329275592362571
0.09663240429024766
0.023844913878970586
-0.014980835601347664
0.18167977707737037
0.0006778942328200532
-0.08435657158269416
0.015040339778849887
0.05247788557647537
-0.14247348805881088
0.01943349042578768
-0.058357800568227036
0.03628535727450044
-0.05119858974403346
0.07459567646676057
-0.026109580746448646
-0.23740801093251984
0.050994370672411304
-0.00442962445228362
0.04390136181660864
-0.09747041232830922
0.016045361055116336
-0.025181425154280568
0.036461456798803527
-0.048842601737060676
-0.32766318424675944
-0.22532885567118366
-0.2728010528138355
-0.21009998296357849
-0.484834644436824
-0.5293325915460866
-0.17843716040443947
-0.24877088785897405
0.029278258189509354
-0.4742774492901256
-0.4448942306666769
-0.3513636995349071
-0.31819670996615557
-0.08216893736381692
-0.3617167694972925
-0.19770762168164668
-0.3788370724130541
-0.26215463100636827
-0.7427802330784736
-0.15081493546218505
0.21633280548663214
0.020552488003148794
0.03974006433613669
-0.02083458689607043
-0.04315692410651978
0.061954309681493125
0.02307902240567089
0.011452620259307877
0.03689872955415807
0.04772136006375183
0.01432006164535038
0.0076921524128371055
0.0300167176222762
0.11068730000138582
0.07805217779424167
-0.02761789083413735
0.08149362447278885
0.08455313791128305
0.03435579933865973
0.05151735842502769
0.14554763821931438
-0.2522371061718842
-0.5011235301117034
0.26988754439446705
-0.4876058880818235
-0.43912451331811875
-0.008600081101051926
0.07457067220849356
-0.23462163468816633
-0.008705350594441663
0.03018309676640374
0.06429043806360746
0.056733305317550276
0.0005966896122491794
0.024261249957578335
0.06868269464810017
0.1456168574531017
0.030682368877273436
0.03805080374430542
0.10811634148605076
0.0344968779655177
0.09217521767953707
0.036351817380082974
-0.020924824297578914
0.09118695650499786
0.09271570205413704
0.1340177826440957
0.041143531412633605
0.06486638369175735
0.039194872060803965
0.16686579402171808
0.03448920931552735
0.2226234206816542
0.015425762236686014
-0.033679849026031716
0.13439151070098054
0.09983333193875754
-0.04397909713369774
-0.08087565072263936
-0.02661072537434439
0.0449622977565971
-0.035068696539749755
-0.1830814611783933
-0.2623527431074557
-0.04674610161798831
-0.13336680508716603
0.29792245512040205
0.12292817669374079
0.08149638326198139
0.03613411413858564
0.0400693800808235
-0.16829140201107518
-0.12209853640117485
0.3973227055655799
0.44084980447063904
-0.13158754286218421
-0.04966404956922843
-0.057292510423222476
0.3193505948699329
-0.04696682407435038
-0.37796973620577434
0.5495261917203189
0.04439389979147523
0.2707448559320489
0.005324332655642916
-0.01625707290968681
-0.04560989884311173
-0.01324535157368778
-0.07337884160758501
-0.25753979474468514
-0.47355030538983645
0.038794565451259366
0.1961970263552486
-0.23238869750394464
-0.6022199945668278
-0.40012858358503856
-0.018616241868843364
-0.02008649504012683
-0.0030899075830038703
0.05120455335127394
0.017640785120123348
-0.08566693730857855
-0.10842783673271383
-0.06505240678327251
0.2658821258523272
0.48442247731139476
-0.007133709983454084
0.11666780669412669
-0.01853796314906908
0.09684693518034604
0.16886941890919704
-0.04215902367614999
-0.05072628900298559
-0.24084861256814916
0.029090068235614552
0.003757766041533106
-0.09055383956620422
0.029192965432138784
-0.05302947939252267
-0.0897843563074453
0.23060430992733139
-0.22018132879096242
0.1770979872832027
-0.0959206169970871
-0.09561802810009778
-0.3451558197967921
0.0005394951204370502
-0.5827355682820772
-0.22868549550806794
-0.1831307258160927
-0.2364701649888893
0.02973973326829804
0.009162056043857558
0.01075925941548278
0.023287798404615145
-0.09785485258253246
-0.06415151671642594
-0.024852544547197764
-0.020830962110217288
0.027918647188575618
-0.004935725424169202
0.07013429959421791
0.02951112351786611
0.15756655368607952
0.043043024190460355
0.011402315313844724
0.0865051969246543
0.07047077456172635
-0.012938089332166669
-0.07583289195086418
-0.0024665413306583783
0.08796361301462441
-0.13820659168701788
-0.007776210365729952
0.05747129900687653
-0.021037560891048468
-0.006499537615015205
0.06423804249161913
-0.05230066728507082
0.047541866669754185
-0.02367469238910319
0.016094050410123406
-0.00473064696801595
0.01897040903853453
0.07712313019919964
0.004962561947018718
0.028347447725170838
0.027372816067330774
-0.40141008986493887
0.06083424744944299
0.024506512036872152
0.014643547562244674
0.05193693584579134
0.011230816173864677
-0.012566348812632189
0.041120370747026014
-0.009206496381582108
-0.06618650342695376
0.050325099666594486
-0.006041439893792133
-0.0836459831729206
-0.01155665855067367
0.10277621531764225
-0.01466200164338316
0.006738973644516255
0.08884532369402565
0.061074245935774596
0.0072380302719101675
0.03666957175628338
0.0037641403299422116
-0.010572598141834644
0.0714628753991483
0.09154019526876589
0.016306189791001513
0.018188515341905076
-0.011074267496856305
0.02249916503897631
0.005311105847423947
0.052879136576439
-0.035992840442954366
-0.06181056442758426
-0.11171911091599551
-0.07414695035625185
-0.11292472029702316
-0.016081471677254933
0.07672470952322219
0.03129546441632125
-0.09471286792986588
-0.08650483178213841
-0.04205821645186747
0.0058061087105166775
0.044103191032241806
0.033940661480373335
-0.02857868403954189
-0.01884748503552336
0.013280304917822394
-0.329517401280639
-0.06689155171454064
-0.11058294367962684
-0.10023774046726763
0.0862272192159893
-0.24155289739891483
-0.10924513387788859
-0.35868590834979686
0.04902071601810443
0.23842829191224002
0.14707181948761594
-0.5301524380840412
0.39422913360154777
-0.034511948883250376
0.019905119066326193
0.03870822959876019
0.03810215585131238
-0.0377004349629515
0.03845996631674797
-0.09691992942822458
-0.1403704540756775
-0.05695670571179695
0.036423745235225236
0.06840656365318093
0.029621121702203768
0.023852664931950707
-0.032049830575478555
0.18975445088474074
0.07495159757169811
0.017395799567427872
0.04018970725218274
-0.03433588611521887
-0.12129663642985866
0.11071085053063678
-0.0047043129182583465
0.016256369303337015
0.05431448158745056
-0.01065962068223969
0.04982914865300536
-0.0456994535377494
0.03363750911008312
0.14892649245395506
0.039396229982337994
0.03910756687378275
0.020738651784117323
-0.00295210134561108
-0.010096243472704547
0.08403177470939927
0.2947670115351404
-0.22746151526711467
-0.041602912570128936
-0.0548352783606989
-0.006325343407629802
0.256456380270105
0.1639464195432918
0.22665082923609925
0.16867762611788806
0.16462000413391598
-0.233857488974612
-0.2899709583589831
-0.9939701000476784
-0.9808184608257109
-0.9764765688431445
-0.9746527294067054
-0.9800714710827445
-0.9711467487885813
-0.9781098102912855
-0.5935434980366582
0.316920923304306
0.0017910461796815103
0.300859283928991
0.1966693794959704
-0.1022372298927341
0.041813727830135705
0.04097081642089362
-0.11753703538122384
-0.01640135326040887
0.05143072659336467
-0.019808792398310238
-0.13581929660951741
0.08777548243567601
0.07464715639918074
-0.04500073600091958
0.055139301231837745
-0.13719287889744403
0.03745155299137459
0.02104072274451918
-0.07338727236770792
-0.03700083098882834
-0.1484358570873472
0.00926199980985265
0.08079723579235498
-0.050722890143235944
-0.06807023343405405
-0.14955336548085651
-0.08275852344841228
0.09810421370755407
-0.053681769939235124
0.009189218513950603
-0.13072569381992216
0.1126591322598054
-0.12727352338344455
0.18715239393452499
0.048968362190537684
0.044266683704732634
0.012986536338237764
0.008023349399549018
-0.01071294000165035
-0.12752454576269834
-0.03723232569779089
-0.11273539626306173
-0.0923402878550943
-0.062365148676531756
-0.005665206423857927
0.005876103574768865
-0.16353136016146907
0.09536128945262923
0.10321756984209918
0.01312127191963941
0.12443373630663346
0.008473461187314513
-0.04306251254938909
-0.003793476155528941
-0.06341443241431
0.22420904479009907
0.13878394755538803
0.18977939844038194
0.24714941164185378
-0.19322021664904843
0.36997882014378325
-0.1572517895242047
-0.5637850239003632
-0.16884360888847239
-0.14540633700146488
-0.43722240681442903
-0.06297579323138902
-0.12413935936114351
0.1122235472869555
0.09799398052649977
0.009503663138202612
0.1692720330392028
0.08774590289276096
1.9376564060214747
-0.012849099072982817
0.32968036179608484
-0.20076906251070903
0.34018269503084575
0.05224341483715156
0.051285583477783
0.044179962461369016
0.6741084772142913
0.09675750806962169
-0.10297040917356326
0.08897713116585904
0.014684077301922782
-0.04827168487360345
0.022104420809538006
0.024394529114928454
0.12428350144601663
0.026991391295597245
0.09141121718915901
-0.06699237413998538
0.1052003966832229
0.14496986670144973
0.06749701644976258
0.0166850764121943
-0.3210017541783836
0.12188256485751414
0.06426216723947475
0.11091801470982154
0.0494128397023233
0.11025717000682755
0.10900911665861002
0.0274414171131534
0.021256101062029298
0.00029513500286837413
0.042291573589404496
0.0010549609348621258
0.03081122101163969
0.14503904661296052
0.13414170108816859
0.10554818195534854
0.15213235801971248
-0.14255843786102473
0.10357937840059417
0.022656406363805393
0.10594847788786044
0.08849947157394178
0.12757169621425357
0.06701497733534834
0.15421931659982158
0.23964484274719133
0.2352468049500278
0.0919323576370662
0.10203531583969705
0.1379479282127023
-0.11846220407704822
0.205118901033438
0.1499887577034842
0.11927587094545922
-0.41568670628972165
-0.8357214167629851
-0.7955047996720517
0.0037169937449722523
0.14176649281853493
0.1475692140005299
0.18009949412834558
0.09514221369298592
0.09005210909884565
0.7035851679262302
0.2605531816641278
0.2017542249552584
0.12656610662928292
0.3569645407058941
0.09755088219631347
0.15231426417755223
0.15798779007533847
0.1066945821230535
0.02869349528124776
0.05080855787298444
0.07582420348512431
0.16791517914494725
0.02736019233735576
0.12983542543505866
0.18272286136352667
0.1435797788989499
0.07450829920279356
0.08744066948628715
0.00511978993031148
-0.017902822769257976
-0.03746163099588218
0.031267434628113266
0.07946444542631459
0.054318956804738305
-0.00546192697555703
0.04372843088216111
0.07157573541502749
-0.018758181587831324
0.09178059876025857
0.029099459534576322
0.15659193937547733
0.1334086074383436
0.27399761988317106
0.24468636744830752
0.16550923651703142
0.0373743801075076
0.09834758286518086
0.24774258779699332
0.19921146518209976
0.17974726281132514
0.1881575975512122
0.18283255391971764
0.05471511193684908
0.21765891351813926
0.13856223276616408
0.11586672209160642
-0.19543705116638743
0.10410134809077032
0.05190893734978752
-0.03912769933760596
-0.008913699648859685
0.04992035788601412
0.0424057694742726
0.09963096081876455
-0.02855656851333499
0.0969716354101029
0.1251345994375831
0.08342711340239528
0.05245669545476539
0.24636700692564917
0.3276467254176876
0.31456476325626603
0.14503194472226189
-0.027092505301879566
0.12275896262737274
0.008370653971294773
0.06305052094971475
0.061843010347574334
0.047639887158580585
0.06332995383397866
0.12010379818023242
-0.1157332121864233
0.11472030209579342
0.11140212266353788
0.014535255816236659
0.026002554383821708
0.06135301118782832
0.07500586262543674
0.12057721586421877
0.14059361188078268
0.27478632900961397
0.24467896643062814
0.4625318989758451
0.49016035904354993
-0.09438326153328047
0.22263423984053432
0.7937755486384006
0.2352849565156805
0.42234656103119317
-0.061025168583795475
-0.0070946921685382525
0.0871412504513378
0.10410693420804362
-0.279299919518773
-0.20768100027983505
-0.4283522140056474
0.11502023606833034
-0.2598867062916619
-0.2022604209002754
-0.3565007736341069
-0.06136614397150242
-0.02283657652401838
-0.036143274384313084
0.0038616665040701603
-0.036977450411615265
-0.034117917733582526
-0.13409835364059974
-0.09616379586669072
-0.36726298112029676
-0.16708140944878636
-0.21633804249503408
-0.10371802335400415
-0.14589459637064617
-0.03282280271207638
-0.4109235747945738
-0.3247463936321014
-0.5342668336233336
-0.3246903434382747
-0.36770457575854404
-0.3348015248580164
-0.4284733953157024
-0.4763417111829496
0.8430880792542277
